{"learner":{"attributes":{"scikit_learn":"{\"_estimator_type\": \"regressor\"}"},"feature_names":[],"feature_types":[],"gradient_booster":{"model":{"gbtree_model_param":{"num_parallel_tree":"1","num_trees":"421"},"iteration_indptr":[0,1,2,3,4,5,6,7,8,9,10,11,12,13,14,15,16,17,18,19,20,21,22,23,24,25,26,27,28,29,30,31,32,33,34,35,36,37,38,39,40,41,42,43,44,45,46,47,48,49,50,51,52,53,54,55,56,57,58,59,60,61,62,63,64,65,66,67,68,69,70,71,72,73,74,75,76,77,78,79,80,81,82,83,84,85,86,87,88,89,90,91,92,93,94,95,96,97,98,99,100,101,102,103,104,105,106,107,108,109,110,111,112,113,114,115,116,117,118,119,120,121,122,123,124,125,126,127,128,129,130,131,132,133,134,135,136,137,138,139,140,141,142,143,144,145,146,147,148,149,150,151,152,153,154,155,156,157,158,159,160,161,162,163,164,165,166,167,168,169,170,171,172,173,174,175,176,177,178,179,180,181,182,183,184,185,186,187,188,189,190,191,192,193,194,195,196,197,198,199,200,201,202,203,204,205,206,207,208,209,210,211,212,213,214,215,216,217,218,219,220,221,222,223,224,225,226,227,228,229,230,231,232,233,234,235,236,237,238,239,240,241,242,243,244,245,246,247,248,249,250,251,252,253,254,255,256,257,258,259,260,261,262,263,264,265,266,267,268,269,270,271,272,273,274,275,276,277,278,279,280,281,282,283,284,285,286,287,288,289,290,291,292,293,294,295,296,297,298,299,300,301,302,303,304,305,306,307,308,309,310,311,312,313,314,315,316,317,318,319,320,321,322,323,324,325,326,327,328,329,330,331,332,333,334,335,336,337,338,339,340,341,342,343,344,345,346,347,348,349,350,351,352,353,354,355,356,357,358,359,360,361,362,363,364,365,366,367,368,369,370,371,372,373,374,375,376,377,378,379,380,381,382,383,384,385,386,387,388,389,390,391,392,393,394,395,396,397,398,399,400,401,402,403,404,405,406,407,408,409,410,411,412,413,414,415,416,417,418,419,420,421],"tree_info":[0,0,0,0,0,0,0,0,0,0,0,0,0,0,0,0,0,0,0,0,0,0,0,0,0,0,0,0,0,0,0,0,0,0,0,0,0,0,0,0,0,0,0,0,0,0,0,0,0,0,0,0,0,0,0,0,0,0,0,0,0,0,0,0,0,0,0,0,0,0,0,0,0,0,0,0,0,0,0,0,0,0,0,0,0,0,0,0,0,0,0,0,0,0,0,0,0,0,0,0,0,0,0,0,0,0,0,0,0,0,0,0,0,0,0,0,0,0,0,0,0,0,0,0,0,0,0,0,0,0,0,0,0,0,0,0,0,0,0,0,0,0,0,0,0,0,0,0,0,0,0,0,0,0,0,0,0,0,0,0,0,0,0,0,0,0,0,0,0,0,0,0,0,0,0,0,0,0,0,0,0,0,0,0,0,0,0,0,0,0,0,0,0,0,0,0,0,0,0,0,0,0,0,0,0,0,0,0,0,0,0,0,0,0,0,0,0,0,0,0,0,0,0,0,0,0,0,0,0,0,0,0,0,0,0,0,0,0,0,0,0,0,0,0,0,0,0,0,0,0,0,0,0,0,0,0,0,0,0,0,0,0,0,0,0,0,0,0,0,0,0,0,0,0,0,0,0,0,0,0,0,0,0,0,0,0,0,0,0,0,0,0,0,0,0,0,0,0,0,0,0,0,0,0,0,0,0,0,0,0,0,0,0,0,0,0,0,0,0,0,0,0,0,0,0,0,0,0,0,0,0,0,0,0,0,0,0,0,0,0,0,0,0,0,0,0,0,0,0,0,0,0,0,0,0,0,0,0,0,0,0,0,0,0,0,0,0,0,0,0,0,0,0,0,0,0,0,0,0,0,0,0,0,0,0,0,0,0,0,0,0,0,0,0,0,0,0,0,0,0,0,0,0,0,0,0,0,0,0,0,0,0,0,0,0,0,0,0,0,0,0],"trees":[{"base_weights":[1.0841163E-1,-3.3056185E-1,3.094199E-1,-6.803987E-3,-3.637043E-2,-5.1283464E-3,2.7877744E-2],"categories":[],"categories_nodes":[],"categories_segments":[],"categories_sizes":[],"default_left":[0,0,0,0,0,0,0],"id":0,"left_children":[1,3,5,-1,-1,-1,-1],"loss_changes":[5.4527428E1,1.3640247E1,3.596179E1,0E0,0E0,0E0,0E0],"parents":[2147483647,0,0,1,1,2,2],"right_children":[2,4,6,-1,-1,-1,-1],"split_conditions":[1.4737584E3,9.6E1,8E1,-6.803987E-3,-3.637043E-2,-5.1283464E-3,2.7877744E-2],"split_indices":[2,3,1,0,0,0,0],"split_type":[0,0,0,0,0,0,0],"sum_hessian":[6.179806E2,1.939862E2,4.239944E2,1.2220341E2,7.17828E1,1.4439162E2,2.7960278E2],"tree_param":{"num_deleted":"0","num_feature":"15","num_nodes":"7","size_leaf_vector":"1"}},{"base_weights":[1.6481496E-2,-5.89449E-1,1.9112973E-1,3.8970724E-2,-3.83447E-2,2.9181145E-2,3.1593961E-3],"categories":[],"categories_nodes":[],"categories_segments":[],"categories_sizes":[],"default_left":[0,0,0,0,0,0,0],"id":1,"left_children":[1,3,5,-1,-1,-1,-1],"loss_changes":[6.400829E1,2.206615E1,2.1834888E1,0E0,0E0,0E0,0E0],"parents":[2147483647,0,0,1,1,2,2],"right_children":[2,4,6,-1,-1,-1,-1],"split_conditions":[-4.939678E0,3.9285713E-1,4.7058824E-1,3.8970724E-2,-3.83447E-2,2.9181145E-2,3.1593961E-3],"split_indices":[5,13,13,0,0,0,0],"split_type":[0,0,0,0,0,0,0],"sum_hessian":[6.051215E2,1.3529941E2,4.6982214E2,1.1617852E1,1.2368155E2,1.2825989E2,3.4156226E2],"tree_param":{"num_deleted":"0","num_feature":"15","num_nodes":"7","size_leaf_vector":"1"}},{"base_weights":[7.5792715E-2,1.2464328E0,-3.559801E-2,4.897272E-2,1.2578867E-1,-1.5438801E-2,1.7545672E-2],"categories":[],"categories_nodes":[],"categories_segments":[],"categories_sizes":[],"default_left":[0,0,0,0,0,0,0],"id":2,"left_children":[1,3,5,-1,-1,-1,-1],"loss_changes":[8.1929436E1,1.9786797E1,5.2220024E1,0E0,0E0,0E0,0E0],"parents":[2147483647,0,0,1,1,2,2],"right_children":[2,4,6,-1,-1,-1,-1],"split_conditions":[3.75E-1,1.5577432E3,1.5155149E3,4.897272E-2,1.2578867E-1,-1.5438801E-2,1.7545672E-2],"split_indices":[13,2,2,0,0,0,0],"split_type":[0,0,0,0,0,0,0],"sum_hessian":[6.276361E2,5.4588696E1,5.730474E2,4.1839138E1,1.2749556E1,3.3817798E2,2.3486942E2],"tree_param":{"num_deleted":"0","num_feature":"15","num_nodes":"7","size_leaf_vector":"1"}},{"base_weights":[-2.8100679E-2,-3.500937E-1,2.960529E-1,-2.3169257E-2,3.1265225E-2,8.657784E-2,1.1261958E-2],"categories":[],"categories_nodes":[],"categories_segments":[],"categories_sizes":[],"default_left":[0,0,0,0,0,0,0],"id":3,"left_children":[1,3,5,-1,-1,-1,-1],"loss_changes":[6.516768E1,2.3649754E1,3.524193E1,0E0,0E0,0E0,0E0],"parents":[2147483647,0,0,1,1,2,2],"right_children":[2,4,6,-1,-1,-1,-1],"split_conditions":[8.2E1,3.5E1,-1.9263012E1,-2.3169257E-2,3.1265225E-2,8.657784E-2,1.1261958E-2],"split_indices":[1,14,6,0,0,0,0],"split_type":[0,0,0,0,0,0,0],"sum_hessian":[6.2432275E2,3.1331595E2,3.110068E2,2.8831998E2,2.4995974E1,1.914268E1,2.9186414E2],"tree_param":{"num_deleted":"0","num_feature":"15","num_nodes":"7","size_leaf_vector":"1"}},{"base_weights":[9.948799E-3,6.0266805E-1,-1.7243627E-1,4.602307E-2,-2.2703268E-2,3.0960442E-2,-1.3802275E-2],"categories":[],"categories_nodes":[],"categories_segments":[],"categories_sizes":[],"default_left":[0,0,0,0,0,0,0],"id":4,"left_children":[1,3,5,-1,-1,-1,-1],"loss_changes":[6.526785E1,3.698899E1,2.9124054E1,0E0,0E0,0E0,0E0],"parents":[2147483647,0,0,1,1,2,2],"right_children":[2,4,6,-1,-1,-1,-1],"split_conditions":[7.3E1,6.494199E0,-1.4636272E1,4.602307E-2,-2.2703268E-2,3.0960442E-2,-1.3802275E-2],"split_indices":[3,6,6,0,0,0,0],"split_type":[0,0,0,0,0,0,0],"sum_hessian":[6.034705E2,1.4209131E2,4.6137924E2,1.1395636E2,2.8134943E1,4.6661846E1,4.147174E2],"tree_param":{"num_deleted":"0","num_feature":"15","num_nodes":"7","size_leaf_vector":"1"}},{"base_weights":[2.4971535E-2,1.5090463E0,-5.0985925E-2,3.4441758E-2,1.08750045E-1,-5.376679E-3,3.539649E-2],"categories":[],"categories_nodes":[],"categories_segments":[],"categories_sizes":[],"default_left":[0,0,0,0,0,0,0],"id":5,"left_children":[1,3,5,-1,-1,-1,-1],"loss_changes":[6.96189E1,1.3242676E1,2.038339E1,0E0,0E0,0E0,0E0],"parents":[2147483647,0,0,1,1,2,2],"right_children":[2,4,6,-1,-1,-1,-1],"split_conditions":[3.5211268E-1,1.5200023E3,8.8E1,3.4441758E-2,1.08750045E-1,-5.376679E-3,3.539649E-2],"split_indices":[13,2,14,0,0,0,0],"split_type":[0,0,0,0,0,0,0],"sum_hessian":[6.166651E2,3.0071081E1,5.8659406E2,1.1242366E1,1.8828716E1,5.487553E2,3.7838696E1],"tree_param":{"num_deleted":"0","num_feature":"15","num_nodes":"7","size_leaf_vector":"1"}},{"base_weights":[-9.6067905E-2,-6.573761E-2,-6.673621E-2,2.8252682E-2,-8.242767E-3],"categories":[],"categories_nodes":[],"categories_segments":[],"categories_sizes":[],"default_left":[0,0,0,0,0],"id":6,"left_children":[1,-1,3,-1,-1],"loss_changes":[2.0071552E1,0E0,3.0489803E1,0E0,0E0],"parents":[2147483647,0,0,2,2],"right_children":[2,-1,4,-1,-1],"split_conditions":[6.4E1,-6.573761E-2,7.3E1,2.8252682E-2,-8.242767E-3],"split_indices":[3,0,3,0,0],"split_type":[0,0,0,0,0],"sum_hessian":[6.0988416E2,1.5406232E1,5.944779E2,7.574185E1,5.187361E2],"tree_param":{"num_deleted":"0","num_feature":"15","num_nodes":"5","size_leaf_vector":"1"}},{"base_weights":[3.6905807E-2,7.895023E-1,-1.19715266E-1,7.3131725E-2,3.3878116E-3,6.26011E-2,-9.312222E-3],"categories":[],"categories_nodes":[],"categories_segments":[],"categories_sizes":[],"default_left":[0,0,0,0,0,0,0],"id":7,"left_children":[1,3,5,-1,-1,-1,-1],"loss_changes":[7.20687E1,4.3614906E1,3.472444E1,0E0,0E0,0E0,0E0],"parents":[2147483647,0,0,1,1,2,2],"right_children":[2,4,6,-1,-1,-1,-1],"split_conditions":[7.3E1,1.5339218E3,3.6507937E-1,7.3131725E-2,3.3878116E-3,6.26011E-2,-9.312222E-3],"split_indices":[3,0,13,0,0,0,0],"split_type":[0,0,0,0,0,0,0],"sum_hessian":[6.1100574E2,1.0533005E2,5.056757E2,5.8905445E1,4.6424606E1,2.0188387E1,4.854873E2],"tree_param":{"num_deleted":"0","num_feature":"15","num_nodes":"7","size_leaf_vector":"1"}},{"base_weights":[3.1930156E-2,2.7162582E-1,-5.817373E-1,4.492904E-3,3.397378E-2,-5.605215E-2,-2.3922332E-2],"categories":[],"categories_nodes":[],"categories_segments":[],"categories_sizes":[],"default_left":[0,0,0,0,0,0,0],"id":8,"left_children":[1,3,5,-1,-1,-1,-1],"loss_changes":[7.7263725E1,2.5569012E1,9.186901E0,0E0,0E0,0E0,0E0],"parents":[2147483647,0,0,1,1,2,2],"right_children":[2,4,6,-1,-1,-1,-1],"split_conditions":[1.5994877E3,1.9708418E0,-5.8971214E0,4.492904E-3,3.397378E-2,-5.605215E-2,-2.3922332E-2],"split_indices":[0,5,4,0,0,0,0],"split_type":[0,0,0,0,0,0,0],"sum_hessian":[5.254206E2,3.7792245E2,1.4749812E2,2.4852167E2,1.2940079E2,3.3578712E1,1.139194E2],"tree_param":{"num_deleted":"0","num_feature":"15","num_nodes":"7","size_leaf_vector":"1"}},{"base_weights":[6.2068213E-2,1.0481257E0,-3.0453706E-2,8.75905E-2,3.779007E-2,-2.9493505E-2,6.669206E-3],"categories":[],"categories_nodes":[],"categories_segments":[],"categories_sizes":[],"default_left":[0,0,0,0,0,0,0],"id":9,"left_children":[1,3,5,-1,-1,-1,-1],"loss_changes":[5.6019714E1,1.04021E1,4.4939735E1,0E0,0E0,0E0,0E0],"parents":[2147483647,0,0,1,1,2,2],"right_children":[2,4,6,-1,-1,-1,-1],"split_conditions":[3.846154E-1,3.5E-1,-3.8773496E0,8.75905E-2,3.779007E-2,-2.9493505E-2,6.669206E-3],"split_indices":[13,13,5,0,0,0,0],"split_type":[0,0,0,0,0,0,0],"sum_hessian":[6.1323785E2,5.2670662E1,5.605672E2,1.9527985E1,3.3142677E1,1.2885674E2,4.3171045E2],"tree_param":{"num_deleted":"0","num_feature":"15","num_nodes":"7","size_leaf_vector":"1"}},{"base_weights":[-1.36677055E-2,-6.284262E-2,1.9368352E-2,7.707727E-2,-1.5047281E-3],"categories":[],"categories_nodes":[],"categories_segments":[],"categories_sizes":[],"default_left":[0,0,0,0,0],"id":10,"left_children":[1,-1,3,-1,-1],"loss_changes":[2.1165077E1,0E0,3.607643E1,0E0,0E0],"parents":[2147483647,0,0,2,2],"right_children":[2,-1,4,-1,-1],"split_conditions":[6.4E1,-6.284262E-2,6.7E1,7.707727E-2,-1.5047281E-3],"split_indices":[3,0,3,0,0],"split_type":[0,0,0,0,0],"sum_hessian":[5.521969E2,1.5406232E1,5.367907E2,1.7437798E1,5.193529E2],"tree_param":{"num_deleted":"0","num_feature":"15","num_nodes":"5","size_leaf_vector":"1"}},{"base_weights":[-1.0582087E-1,2.4455623E-1,-3.627672E-1,7.2195437E-3,1.4071478E-1,-4.0348023E-2,-8.427218E-3],"categories":[],"categories_nodes":[],"categories_segments":[],"categories_sizes":[],"default_left":[0,0,0,0,0,0,0],"id":11,"left_children":[1,3,5,-1,-1,-1,-1],"loss_changes":[5.9214043E1,7.256749E1,3.026455E1,0E0,0E0,0E0,0E0],"parents":[2147483647,0,0,1,1,2,2],"right_children":[2,4,6,-1,-1,-1,-1],"split_conditions":[1.27E-1,1.08E-1,7.7E1,7.2195437E-3,1.4071478E-1,-4.0348023E-2,-8.427218E-3],"split_indices":[12,12,1,0,0,0,0],"split_type":[0,0,0,0,0,0,0],"sum_hessian":[6.5763434E2,2.78114E2,3.7952032E2,2.6580316E2,1.2310841E1,1.3147322E2,2.480471E2],"tree_param":{"num_deleted":"0","num_feature":"15","num_nodes":"7","size_leaf_vector":"1"}},{"base_weights":[1.0774567E-2,-3.7052207E-2,1.3093856E-1,7.401948E-2,1.6752332E-3],"categories":[],"categories_nodes":[],"categories_segments":[],"categories_sizes":[],"default_left":[0,0,0,0,0],"id":12,"left_children":[1,-1,3,-1,-1],"loss_changes":[5.430765E1,0E0,6.8462364E1,0E0,0E0],"parents":[2147483647,0,0,2,2],"right_children":[2,-1,4,-1,-1],"split_conditions":[6.9E1,-3.7052207E-2,7.1E1,7.401948E-2,1.6752332E-3],"split_indices":[1,0,3,0,0],"split_type":[0,0,0,0,0],"sum_hessian":[6.4589294E2,9.451646E1,5.5137646E2,4.080976E1,5.105667E2],"tree_param":{"num_deleted":"0","num_feature":"15","num_nodes":"5","size_leaf_vector":"1"}},{"base_weights":[7.724226E-2,7.53791E-1,-7.664324E-2,-6.2099583E-2,5.6509335E-2,-3.12155E-2,3.2723227E-3],"categories":[],"categories_nodes":[],"categories_segments":[],"categories_sizes":[],"default_left":[0,0,0,0,0,0,0],"id":13,"left_children":[1,3,5,-1,-1,-1,-1],"loss_changes":[6.611513E1,6.688831E1,3.588238E1,0E0,0E0,0E0,0E0],"parents":[2147483647,0,0,1,1,2,2],"right_children":[2,4,6,-1,-1,-1,-1],"split_conditions":[7.3E1,6.4E1,7.7E1,-6.2099583E-2,5.6509335E-2,-3.12155E-2,3.2723227E-3],"split_indices":[3,3,1,0,0,0,0],"split_type":[0,0,0,0,0,0,0],"sum_hessian":[6.345788E2,1.17678246E2,5.169006E2,1.5842141E1,1.01836105E2,1.10889885E2,4.0601068E2],"tree_param":{"num_deleted":"0","num_feature":"15","num_nodes":"7","size_leaf_vector":"1"}},{"base_weights":[3.0359054E-2,-1.8622363E-1,2.9696065E-1,6.605465E-2,-1.5195471E-2,-1.2264423E-4,2.7422257E-2],"categories":[],"categories_nodes":[],"categories_segments":[],"categories_sizes":[],"default_left":[0,0,0,0,0,0,0],"id":14,"left_children":[1,3,5,-1,-1,-1,-1],"loss_changes":[3.9045315E1,5.0878334E1,1.938951E1,0E0,0E0,0E0,0E0],"parents":[2147483647,0,0,1,1,2,2],"right_children":[2,4,6,-1,-1,-1,-1],"split_conditions":[5.16129E-1,3.5526314E-1,7.3E-2,6.605465E-2,-1.5195471E-2,-1.2264423E-4,2.7422257E-2],"split_indices":[13,13,11,0,0,0,0],"split_type":[0,0,0,0,0,0,0],"sum_hessian":[6.7607404E2,3.7288226E2,3.0319177E2,2.37606E1,3.4912167E2,1.26040115E2,1.7715166E2],"tree_param":{"num_deleted":"0","num_feature":"15","num_nodes":"7","size_leaf_vector":"1"}},{"base_weights":[-6.977159E-4,-2.558817E-1,2.5833133E-1,-3.4219455E-2,-9.798985E-3,-2.632583E-2,2.0021873E-2],"categories":[],"categories_nodes":[],"categories_segments":[],"categories_sizes":[],"default_left":[0,0,0,0,0,0,0],"id":15,"left_children":[1,3,5,-1,-1,-1,-1],"loss_changes":[4.433959E1,9.410191E0,2.8431698E1,0E0,0E0,0E0,0E0],"parents":[2147483647,0,0,1,1,2,2],"right_children":[2,4,6,-1,-1,-1,-1],"split_conditions":[1.5039073E3,8.2E1,6.7E1,-3.4219455E-2,-9.798985E-3,-2.632583E-2,2.0021873E-2],"split_indices":[2,3,1,0,0,0,0],"split_type":[0,0,0,0,0,0,0],"sum_hessian":[6.7079755E2,3.3804593E2,3.3275162E2,5.455257E1,2.8349335E2,4.3991585E1,2.8876004E2],"tree_param":{"num_deleted":"0","num_feature":"15","num_nodes":"7","size_leaf_vector":"1"}},{"base_weights":[1.569441E-2,1.5914078E0,-1.802418E-2,1.4771332E-1,5.8042236E-2,-2.1163926E-2,2.8973322E-3],"categories":[],"categories_nodes":[],"categories_segments":[],"categories_sizes":[],"default_left":[0,0,0,0,0,0,0],"id":16,"left_children":[1,3,5,-1,-1,-1,-1],"loss_changes":[3.5494415E1,8.008396E0,1.764857E1,0E0,0E0,0E0,0E0],"parents":[2147483647,0,0,1,1,2,2],"right_children":[2,4,6,-1,-1,-1,-1],"split_conditions":[3.5211268E-1,8E1,6.9E1,1.4771332E-1,5.8042236E-2,-2.1163926E-2,2.8973322E-3],"split_indices":[13,3,1,0,0,0,0],"split_type":[0,0,0,0,0,0,0],"sum_hessian":[6.6593726E2,1.3996245E1,6.5194104E2,4.246436E0,9.749809E0,1.04908325E2,5.470327E2],"tree_param":{"num_deleted":"0","num_feature":"15","num_nodes":"7","size_leaf_vector":"1"}},{"base_weights":[-8.287399E-2,1.0438048E-1,-3.738462E-1,3.5902277E-2,-2.648696E-3,8.9571085E-3,-2.5794297E-2],"categories":[],"categories_nodes":[],"categories_segments":[],"categories_sizes":[],"default_left":[0,0,0,0,0,0,0],"id":17,"left_children":[1,3,5,-1,-1,-1,-1],"loss_changes":[3.235282E1,3.130686E1,1.3360767E1,0E0,0E0,0E0,0E0],"parents":[2147483647,0,0,1,1,2,2],"right_children":[2,4,6,-1,-1,-1,-1],"split_conditions":[1.5498108E3,7.5E1,-4.516E-1,3.5902277E-2,-2.648696E-3,8.9571085E-3,-2.5794297E-2],"split_indices":[0,3,10,0,0,0,0],"split_type":[0,0,0,0,0,0,0],"sum_hessian":[5.9343E2,3.6091684E2,2.3251314E2,7.7413315E1,2.8350354E2,3.8050453E1,1.9446268E2],"tree_param":{"num_deleted":"0","num_feature":"15","num_nodes":"7","size_leaf_vector":"1"}},{"base_weights":[-6.199108E-2,-6.252843E-1,4.23968E-2,-1.899951E-2,-5.363654E-2,5.3870656E-2,-4.4983113E-3],"categories":[],"categories_nodes":[],"categories_segments":[],"categories_sizes":[],"default_left":[0,0,0,0,0,0,0],"id":18,"left_children":[1,3,5,-1,-1,-1,-1],"loss_changes":[3.813217E1,1.0173534E1,6.621294E1,0E0,0E0,0E0,0E0],"parents":[2147483647,0,0,1,1,2,2],"right_children":[2,4,6,-1,-1,-1,-1],"split_conditions":[6.9E1,1.8220136E0,7.1E1,-1.899951E-2,-5.363654E-2,5.3870656E-2,-4.4983113E-3],"split_indices":[1,4,3,0,0,0,0],"split_type":[0,0,0,0,0,0,0],"sum_hessian":[6.4778595E2,1.0138457E2,5.4640137E2,5.8749847E1,4.2634716E1,6.350407E1,4.828973E2],"tree_param":{"num_deleted":"0","num_feature":"15","num_nodes":"7","size_leaf_vector":"1"}},{"base_weights":[4.0590435E-2,-1.7103821E-1,1.9369872E-1,2.5121873E-2,-1.81495E-2,7.465095E-3,6.0792558E-2],"categories":[],"categories_nodes":[],"categories_segments":[],"categories_sizes":[],"default_left":[0,0,0,0,0,0,0],"id":19,"left_children":[1,3,5,-1,-1,-1,-1],"loss_changes":[1.9302517E1,2.6582277E1,1.7672285E1,0E0,0E0,0E0,0E0],"parents":[2147483647,0,0,1,1,2,2],"right_children":[2,4,6,-1,-1,-1,-1],"split_conditions":[7.3E-2,-7.778E-1,1.17E2,2.5121873E-2,-1.81495E-2,7.465095E-3,6.0792558E-2],"split_indices":[11,11,14,0,0,0,0],"split_type":[0,0,0,0,0,0,0],"sum_hessian":[5.95668E2,2.498517E2,3.4581635E2,5.1634E1,1.982177E2,3.2679477E2,1.9021603E1],"tree_param":{"num_deleted":"0","num_feature":"15","num_nodes":"7","size_leaf_vector":"1"}},{"base_weights":[-2.2560978E-2,-3.7371504E-1,1.3965943E-1,-4.2986657E-2,-8.992881E-3,9.57602E-2,3.6104817E-3],"categories":[],"categories_nodes":[],"categories_segments":[],"categories_sizes":[],"default_left":[0,0,0,0,0,0,0],"id":20,"left_children":[1,3,5,-1,-1,-1,-1],"loss_changes":[3.4995213E1,1.7008492E1,4.9841923E1,0E0,0E0,0E0,0E0],"parents":[2147483647,0,0,1,1,2,2],"right_children":[2,4,6,-1,-1,-1,-1],"split_conditions":[-3.4349272E0,-1E1,-2.8600912E0,-4.2986657E-2,-8.992881E-3,9.57602E-2,3.6104817E-3],"split_indices":[5,14,5,0,0,0,0],"split_type":[0,0,0,0,0,0,0],"sum_hessian":[6.140411E2,1.941693E2,4.198718E2,6.3236496E1,1.3093282E2,1.7705025E1,4.0216675E2],"tree_param":{"num_deleted":"0","num_feature":"15","num_nodes":"7","size_leaf_vector":"1"}},{"base_weights":[1.1910639E-2,2.8550926E-1,-1.6878541E-1,4.7726E-3,4.27641E-2,-2.436268E-2,5.9429486E-3],"categories":[],"categories_nodes":[],"categories_segments":[],"categories_sizes":[],"default_left":[0,0,0,0,0,0,0],"id":21,"left_children":[1,3,5,-1,-1,-1,-1],"loss_changes":[3.1671997E1,2.5520185E1,3.06753E1,0E0,0E0,0E0,0E0],"parents":[2147483647,0,0,1,1,2,2],"right_children":[2,4,6,-1,-1,-1,-1],"split_conditions":[-2.3595235E0,-6.2888064E0,5.3731346E-1,4.7726E-3,4.27641E-2,-2.436268E-2,5.9429486E-3],"split_indices":[6,6,13,0,0,0,0],"split_type":[0,0,0,0,0,0,0],"sum_hessian":[6.4046924E2,2.5490468E2,3.8556458E2,1.8408061E2,7.082406E1,1.9113785E2,1.9442671E2],"tree_param":{"num_deleted":"0","num_feature":"15","num_nodes":"7","size_leaf_vector":"1"}},{"base_weights":[-7.1354344E-2,-3.0458197E-1,2.4160466E-1,-1.9161358E-2,2.824326E-2,-9.4075445E-3,3.6238775E-2],"categories":[],"categories_nodes":[],"categories_segments":[],"categories_sizes":[],"default_left":[0,0,0,0,0,0,0],"id":22,"left_children":[1,3,5,-1,-1,-1,-1],"loss_changes":[4.7056152E1,1.5928715E1,4.964125E1,0E0,0E0,0E0,0E0],"parents":[2147483647,0,0,1,1,2,2],"right_children":[2,4,6,-1,-1,-1,-1],"split_conditions":[1.5149504E3,8.6E1,2E-1,-1.9161358E-2,2.824326E-2,-9.4075445E-3,3.6238775E-2],"split_indices":[2,14,11,0,0,0,0],"split_type":[0,0,0,0,0,0,0],"sum_hessian":[6.4462537E2,3.6949435E2,2.75131E2,3.478061E2,2.1688257E1,1.4008286E2,1.3504816E2],"tree_param":{"num_deleted":"0","num_feature":"15","num_nodes":"7","size_leaf_vector":"1"}},{"base_weights":[-5.4188736E-2,-4.6280503E-1,1.0733677E-1,-4.1551817E-2,-1.828219E-2,3.0755851E-2,-3.6808667E-3],"categories":[],"categories_nodes":[],"categories_segments":[],"categories_sizes":[],"default_left":[0,0,0,0,0,0,0],"id":23,"left_children":[1,3,5,-1,-1,-1,-1],"loss_changes":[4.278776E1,6.9106064E0,3.7987892E1,0E0,0E0,0E0,0E0],"parents":[2147483647,0,0,1,1,2,2],"right_children":[2,4,6,-1,-1,-1,-1],"split_conditions":[-3.4349272E0,-4.726E-1,-2.4628394E0,-4.1551817E-2,-1.828219E-2,3.0755851E-2,-3.6808667E-3],"split_indices":[5,10,6,0,0,0,0],"split_type":[0,0,0,0,0,0,0],"sum_hessian":[6.478948E2,1.8367903E2,4.6421573E2,5.184699E1,1.3183203E2,1.2748949E2,3.3672626E2],"tree_param":{"num_deleted":"0","num_feature":"15","num_nodes":"7","size_leaf_vector":"1"}},{"base_weights":[-5.140532E-2,7.768931E-1,-1.20192066E-1,1.73602E-2,6.847847E-2,-6.710085E-2,-4.9735354E-3],"categories":[],"categories_nodes":[],"categories_segments":[],"categories_sizes":[],"default_left":[0,0,0,0,0,0,0],"id":24,"left_children":[1,3,5,-1,-1,-1,-1],"loss_changes":[3.4850307E1,1.0468723E1,1.7548151E1,0E0,0E0,0E0,0E0],"parents":[2147483647,0,0,1,1,2,2],"right_children":[2,4,6,-1,-1,-1,-1],"split_conditions":[3.9473686E-1,4.12E-2,4E-1,1.73602E-2,6.847847E-2,-6.710085E-2,-4.9735354E-3],"split_indices":[13,11,13,0,0,0,0],"split_type":[0,0,0,0,0,0,0],"sum_hessian":[6.124918E2,4.6884884E1,5.6560693E2,2.4589527E1,2.2295359E1,1.3463543E1,5.5214343E2],"tree_param":{"num_deleted":"0","num_feature":"15","num_nodes":"7","size_leaf_vector":"1"}},{"base_weights":[-9.8058395E-2,-4.3095884E-1,5.6999113E-2,-5.263561E-2,-1.8660003E-2,2.6962375E-2,-2.767932E-3],"categories":[],"categories_nodes":[],"categories_segments":[],"categories_sizes":[],"default_left":[0,0,0,0,0,0,0],"id":25,"left_children":[1,3,5,-1,-1,-1,-1],"loss_changes":[3.2168594E1,8.99926E0,2.0523722E1,0E0,0E0,0E0,0E0],"parents":[2147483647,0,0,1,1,2,2],"right_children":[2,4,6,-1,-1,-1,-1],"split_conditions":[7.7E1,-8.4E1,-3.7339473E0,-5.263561E-2,-1.8660003E-2,2.6962375E-2,-2.767932E-3],"split_indices":[1,14,4,0,0,0,0],"split_type":[0,0,0,0,0,0,0],"sum_hessian":[6.226778E2,1.9801385E2,4.2466394E2,2.6113308E1,1.7190054E2,8.342006E1,3.412439E2],"tree_param":{"num_deleted":"0","num_feature":"15","num_nodes":"7","size_leaf_vector":"1"}},{"base_weights":[8.465235E-2,5.4339296E-1,-5.1755533E-2,-2.4357531E-2,3.7765816E-2,-1.6684458E-2,9.460328E-3],"categories":[],"categories_nodes":[],"categories_segments":[],"categories_sizes":[],"default_left":[0,0,0,0,0,0,0],"id":26,"left_children":[1,3,5,-1,-1,-1,-1],"loss_changes":[4.363946E1,2.5401245E1,3.1655287E1,0E0,0E0,0E0,0E0],"parents":[2147483647,0,0,1,1,2,2],"right_children":[2,4,6,-1,-1,-1,-1],"split_conditions":[7.5E1,6.4E1,-1.4585685E0,-2.4357531E-2,3.7765816E-2,-1.6684458E-2,9.460328E-3],"split_indices":[3,3,5,0,0,0,0],"split_type":[0,0,0,0,0,0,0],"sum_hessian":[6.968228E2,1.5983186E2,5.3699097E2,2.1970453E1,1.378614E2,2.5158098E2,2.8541E2],"tree_param":{"num_deleted":"0","num_feature":"15","num_nodes":"7","size_leaf_vector":"1"}},{"base_weights":[1.1203457E-1,6.2272307E-2,8.000436E-2,4.8153255E-2,1.9745103E-3],"categories":[],"categories_nodes":[],"categories_segments":[],"categories_sizes":[],"default_left":[0,0,0,0,0],"id":27,"left_children":[1,-1,3,-1,-1],"loss_changes":[2.2322094E1,0E0,2.2833435E1,0E0,0E0],"parents":[2147483647,0,0,2,2],"right_children":[2,-1,4,-1,-1],"split_conditions":[3.5E-1,6.2272307E-2,6.7E1,4.8153255E-2,1.9745103E-3],"split_indices":[13,0,3,0,0],"split_type":[0,0,0,0,0],"sum_hessian":[6.684447E2,1.9781036E1,6.486637E2,3.2575157E1,6.160885E2],"tree_param":{"num_deleted":"0","num_feature":"15","num_nodes":"5","size_leaf_vector":"1"}},{"base_weights":[3.3088874E-2,-3.8011333E-1,1.0700201E-1,-3.0437665E-2,1.37770055E-2,5.6708906E-2,2.7839334E-3],"categories":[],"categories_nodes":[],"categories_segments":[],"categories_sizes":[],"default_left":[0,0,0,0,0,0,0],"id":28,"left_children":[1,3,5,-1,-1,-1,-1],"loss_changes":[1.7465553E1,1.0303686E1,2.5347496E1,0E0,0E0,0E0,0E0],"parents":[2147483647,0,0,1,1,2,2],"right_children":[2,4,6,-1,-1,-1,-1],"split_conditions":[-5.588E-1,3E0,-4.508E-1,-3.0437665E-2,1.37770055E-2,5.6708906E-2,2.7839334E-3],"split_indices":[12,14,12,0,0,0,0],"split_type":[0,0,0,0,0,0,0],"sum_hessian":[5.725109E2,8.6723816E1,4.857871E2,6.7176674E1,1.9547138E1,2.66519E1,4.5913522E2],"tree_param":{"num_deleted":"0","num_feature":"15","num_nodes":"7","size_leaf_vector":"1"}},{"base_weights":[6.3622193E-3,-5.7655387E-2,5.9687436E-1,-5.254271E-4,-3.8261507E-2,-5.0616883E-2,3.952963E-2],"categories":[],"categories_nodes":[],"categories_segments":[],"categories_sizes":[],"default_left":[0,0,0,0,0,0,0],"id":29,"left_children":[1,3,5,-1,-1,-1,-1],"loss_changes":[2.5237398E1,1.8784607E1,1.3921883E1,0E0,0E0,0E0,0E0],"parents":[2147483647,0,0,1,1,2,2],"right_children":[2,4,6,-1,-1,-1,-1],"split_conditions":[5.972222E-1,5.7377046E-1,-7.576E-1,-5.254271E-4,-3.8261507E-2,-5.0616883E-2,3.952963E-2],"split_indices":[13,13,10,0,0,0,0],"split_type":[0,0,0,0,0,0,0],"sum_hessian":[6.665791E2,6.012736E2,6.530544E1,5.603781E2,4.089551E1,5.356706E0,5.994874E1],"tree_param":{"num_deleted":"0","num_feature":"15","num_nodes":"7","size_leaf_vector":"1"}},{"base_weights":[2.7267793E-2,-3.3105725E-1,2.2475481E-1,-4.131586E-2,-5.9527336E-3,-2.6449794E-2,1.6187485E-2],"categories":[],"categories_nodes":[],"categories_segments":[],"categories_sizes":[],"default_left":[0,0,0,0,0,0,0],"id":30,"left_children":[1,3,5,-1,-1,-1,-1],"loss_changes":[4.5952816E1,2.2177835E1,2.2945854E1,0E0,0E0,0E0,0E0],"parents":[2147483647,0,0,1,1,2,2],"right_children":[2,4,6,-1,-1,-1,-1],"split_conditions":[7.3E-2,7.7E1,6.7E1,-4.131586E-2,-5.9527336E-3,-2.6449794E-2,1.6187485E-2],"split_indices":[11,1,1,0,0,0,0],"split_type":[0,0,0,0,0,0,0],"sum_hessian":[6.4948376E2,2.3064098E2,4.188428E2,7.7102776E1,1.535382E2,4.0274277E1,3.785685E2],"tree_param":{"num_deleted":"0","num_feature":"15","num_nodes":"7","size_leaf_vector":"1"}},{"base_weights":[-2.4500601E-2,-5.796003E-1,3.329302E-2,-3.4709845E-2,4.3208495E-2,-3.2297688E-4,4.7119554E-2],"categories":[],"categories_nodes":[],"categories_segments":[],"categories_sizes":[],"default_left":[0,0,0,0,0,0,0],"id":31,"left_children":[1,3,5,-1,-1,-1,-1],"loss_changes":[2.0734163E1,5.57753E0,1.9427729E1,0E0,0E0,0E0,0E0],"parents":[2147483647,0,0,1,1,2,2],"right_children":[2,4,6,-1,-1,-1,-1],"split_conditions":[-7.657398E0,1.05E2,6.4935064E-1,-3.4709845E-2,4.3208495E-2,-3.2297688E-4,4.7119554E-2],"split_indices":[5,1,13,0,0,0,0],"split_type":[0,0,0,0,0,0,0],"sum_hessian":[6.450834E2,6.094579E1,5.8413763E2,5.8209248E1,2.7365408E0,5.580505E2,2.608715E1],"tree_param":{"num_deleted":"0","num_feature":"15","num_nodes":"7","size_leaf_vector":"1"}},{"base_weights":[-1.0713328E-2,-2.1705613E-1,2.7053815E-1,1.1118916E-1,-1.3465152E-2,4.013146E-2,3.788689E-3],"categories":[],"categories_nodes":[],"categories_segments":[],"categories_sizes":[],"default_left":[0,0,0,0,0,0,0],"id":32,"left_children":[1,3,5,-1,-1,-1,-1],"loss_changes":[3.6125416E1,2.7383287E1,2.502502E1,0E0,0E0,0E0,0E0],"parents":[2147483647,0,0,1,1,2,2],"right_children":[2,4,6,-1,-1,-1,-1],"split_conditions":[1E0,3.5211268E-1,7.7E1,1.1118916E-1,-1.3465152E-2,4.013146E-2,3.788689E-3],"split_indices":[14,13,3,0,0,0,0],"split_type":[0,0,0,0,0,0,0],"sum_hessian":[6.2255066E2,3.5924307E2,2.633076E2,5.157773E0,3.5408533E2,7.778064E1,1.8552695E2],"tree_param":{"num_deleted":"0","num_feature":"15","num_nodes":"7","size_leaf_vector":"1"}},{"base_weights":[7.185804E-2,4.220739E-1,-4.962855E-2,-1.6296424E-2,4.7322046E-2,-3.0838894E-2,3.2391793E-3],"categories":[],"categories_nodes":[],"categories_segments":[],"categories_sizes":[],"default_left":[0,0,0,0,0,0,0],"id":33,"left_children":[1,3,5,-1,-1,-1,-1],"loss_changes":[2.634855E1,5.307885E1,2.6491179E1,0E0,0E0,0E0,0E0],"parents":[2147483647,0,0,1,1,2,2],"right_children":[2,4,6,-1,-1,-1,-1],"split_conditions":[7.7E1,4.6031746E-1,7.7E1,-1.6296424E-2,4.7322046E-2,-3.0838894E-2,3.2391793E-3],"split_indices":[3,13,1,0,0,0,0],"split_type":[0,0,0,0,0,0,0],"sum_hessian":[6.186614E2,1.5948746E2,4.591739E2,6.1709263E1,9.777819E1,7.969469E1,3.7947922E2],"tree_param":{"num_deleted":"0","num_feature":"15","num_nodes":"7","size_leaf_vector":"1"}},{"base_weights":[-1.2537129E-3,1.357981E-1,-4.5164043E-1,4.120128E-3,4.1432172E-2,-2.8430039E-2,6.39657E-2],"categories":[],"categories_nodes":[],"categories_segments":[],"categories_sizes":[],"default_left":[0,0,0,0,0,0,0],"id":34,"left_children":[1,3,5,-1,-1,-1,-1],"loss_changes":[3.5517677E1,1.6493435E1,1.7013762E1,0E0,0E0,0E0,0E0],"parents":[2147483647,0,0,1,1,2,2],"right_children":[2,4,6,-1,-1,-1,-1],"split_conditions":[1.5933442E3,1.6E0,2.0158E0,4.120128E-3,4.1432172E-2,-2.8430039E-2,6.39657E-2],"split_indices":[0,12,11,0,0,0,0],"split_type":[0,0,0,0,0,0,0],"sum_hessian":[5.7503955E2,4.4075867E2,1.342809E2,4.0332376E2,3.7434914E1,1.2827876E2,6.0021367E0],"tree_param":{"num_deleted":"0","num_feature":"15","num_nodes":"7","size_leaf_vector":"1"}},{"base_weights":[-2.3149716E-2,-4.289694E-2,5.7309084E-2,7.4787284E-3,-9.960791E-3],"categories":[],"categories_nodes":[],"categories_segments":[],"categories_sizes":[],"default_left":[0,0,0,0,0],"id":35,"left_children":[1,3,-1,-1,-1],"loss_changes":[1.4860535E1,1.7685726E1,0E0,0E0,0E0],"parents":[2147483647,0,0,1,1],"right_children":[2,4,-1,-1,-1],"split_conditions":[2.6254E0,1.27E-1,5.7309084E-2,7.4787284E-3,-9.960791E-3],"split_indices":[12,12,0,0,0],"split_type":[0,0,0,0,0],"sum_hessian":[6.940909E2,6.8179956E2,1.2291355E1,2.990712E2,3.8272833E2],"tree_param":{"num_deleted":"0","num_feature":"15","num_nodes":"5","size_leaf_vector":"1"}},{"base_weights":[6.342257E-2,-6.51867E-2,2.7136242E-1,-2.4877552E-2,3.2199258E-3,9.809104E-3,5.659853E-2],"categories":[],"categories_nodes":[],"categories_segments":[],"categories_sizes":[],"default_left":[0,0,0,0,0,0,0],"id":36,"left_children":[1,3,5,-1,-1,-1,-1],"loss_changes":[1.6286282E1,1.8723568E1,1.607491E1,0E0,0E0,0E0,0E0],"parents":[2147483647,0,0,1,1,2,2],"right_children":[2,4,6,-1,-1,-1,-1],"split_conditions":[4.73E-1,-4.726E-1,6.197183E-1,-2.4877552E-2,3.2199258E-3,9.809104E-3,5.659853E-2],"split_indices":[12,10,13,0,0,0,0],"split_type":[0,0,0,0,0,0,0],"sum_hessian":[6.0844055E2,3.757177E2,2.3272281E2,9.003777E1,2.8567996E2,2.0905951E2,2.3663292E1],"tree_param":{"num_deleted":"0","num_feature":"15","num_nodes":"7","size_leaf_vector":"1"}},{"base_weights":[-5.956754E-2,-3.3550084E-1,1.225853E-1,-2.0730989E-2,1.8763885E-2,5.544925E-2,2.2197638E-3],"categories":[],"categories_nodes":[],"categories_segments":[],"categories_sizes":[],"default_left":[0,0,0,0,0,0,0],"id":37,"left_children":[1,3,5,-1,-1,-1,-1],"loss_changes":[3.0165777E1,8.2159E0,2.6614647E1,0E0,0E0,0E0,0E0],"parents":[2147483647,0,0,1,1,2,2],"right_children":[2,4,6,-1,-1,-1,-1],"split_conditions":[7.3E-2,2.3936E0,1.5842971E-1,-2.0730989E-2,1.8763885E-2,5.544925E-2,2.2197638E-3],"split_indices":[11,12,11,0,0,0,0],"split_type":[0,0,0,0,0,0,0],"sum_hessian":[5.99867E2,2.3868666E2,3.6118036E2,2.2246086E2,1.622581E1,2.9566437E1,3.3161392E2],"tree_param":{"num_deleted":"0","num_feature":"15","num_nodes":"7","size_leaf_vector":"1"}},{"base_weights":[-2.4564024E-2,2.6151246E-1,-1.06981374E-1,-4.3220144E-2,1.859121E-2,3.55566E-2,-7.746608E-3],"categories":[],"categories_nodes":[],"categories_segments":[],"categories_sizes":[],"default_left":[0,0,0,0,0,0,0],"id":38,"left_children":[1,3,5,-1,-1,-1,-1],"loss_changes":[1.4383388E1,1.2236502E1,1.3508195E1,0E0,0E0,0E0,0E0],"parents":[2147483647,0,0,1,1,2,2],"right_children":[2,4,6,-1,-1,-1,-1],"split_conditions":[7.5E1,-8.110821E0,3.75E-1,-4.3220144E-2,1.859121E-2,3.55566E-2,-7.746608E-3],"split_indices":[3,5,13,0,0,0,0],"split_type":[0,0,0,0,0,0,0],"sum_hessian":[6.1051196E2,1.3635289E2,4.7415906E2,9.946965E0,1.2640592E2,2.178175E1,4.523773E2],"tree_param":{"num_deleted":"0","num_feature":"15","num_nodes":"7","size_leaf_vector":"1"}},{"base_weights":[3.985039E-3,-7.802681E-2,3.7949958E-1,6.651848E-2,-6.1220666E-3,9.127184E-2,1.44442925E-2],"categories":[],"categories_nodes":[],"categories_segments":[],"categories_sizes":[],"default_left":[0,0,0,0,0,0,0],"id":39,"left_children":[1,3,5,-1,-1,-1,-1],"loss_changes":[1.934885E1,2.4237751E1,1.6309298E1,0E0,0E0,0E0,0E0],"parents":[2147483647,0,0,1,1,2,2],"right_children":[2,4,6,-1,-1,-1,-1],"split_conditions":[3.5088272E0,3.5211268E-1,3.6483252E0,6.651848E-2,-6.1220666E-3,9.127184E-2,1.44442925E-2],"split_indices":[5,13,5,0,0,0,0],"split_type":[0,0,0,0,0,0,0],"sum_hessian":[6.275773E2,5.149273E2,1.1264997E2,1.3620119E1,5.013072E2,8.674603E0,1.03975365E2],"tree_param":{"num_deleted":"0","num_feature":"15","num_nodes":"7","size_leaf_vector":"1"}},{"base_weights":[-9.050119E-3,2.2159459E-1,-1.9518161E-1,2.1402782E-2,-1.9657584E-2,-1.3589839E-2,4.4902053E-2],"categories":[],"categories_nodes":[],"categories_segments":[],"categories_sizes":[],"default_left":[0,0,0,0,0,0,0],"id":40,"left_children":[1,3,5,-1,-1,-1,-1],"loss_changes":[2.661798E1,2.8720903E1,2.0375181E1,0E0,0E0,0E0,0E0],"parents":[2147483647,0,0,1,1,2,2],"right_children":[2,4,6,-1,-1,-1,-1],"split_conditions":[1.27E-1,6E0,8.6E1,2.1402782E-2,-1.9657584E-2,-1.3589839E-2,4.4902053E-2],"split_indices":[12,14,14,0,0,0,0],"split_type":[0,0,0,0,0,0,0],"sum_hessian":[6.200726E2,2.7675156E2,3.4332104E2,2.128536E2,6.389795E1,3.2518735E2,1.8133675E1],"tree_param":{"num_deleted":"0","num_feature":"15","num_nodes":"7","size_leaf_vector":"1"}},{"base_weights":[-3.6192633E-2,-9.732874E-2,4.0557027E-1,-5.7864725E-4,-1.9187078E-2,4.0762927E-2,-2.8798297E-2],"categories":[],"categories_nodes":[],"categories_segments":[],"categories_sizes":[],"default_left":[0,0,0,0,0,0,0],"id":41,"left_children":[1,3,5,-1,-1,-1,-1],"loss_changes":[1.6171465E1,1.1817172E1,2.4188416E1,0E0,0E0,0E0,0E0],"parents":[2147483647,0,0,1,1,2,2],"right_children":[2,4,6,-1,-1,-1,-1],"split_conditions":[1.606254E3,2.1423485E0,1.6444159E3,-5.7864725E-4,-1.9187078E-2,4.0762927E-2,-2.8798297E-2],"split_indices":[2,4,2,0,0,0,0],"split_type":[0,0,0,0,0,0,0],"sum_hessian":[5.9958997E2,5.268417E2,7.274824E1,3.9534494E2,1.3149675E2,5.2967205E1,1.9781029E1],"tree_param":{"num_deleted":"0","num_feature":"15","num_nodes":"7","size_leaf_vector":"1"}},{"base_weights":[-7.2654404E-2,-5.504379E-1,-2.4118396E-2,7.535541E-2,-3.530806E-2,7.2699715E-3,-1.1814076E-2],"categories":[],"categories_nodes":[],"categories_segments":[],"categories_sizes":[],"default_left":[0,0,0,0,0,0,0],"id":42,"left_children":[1,3,5,-1,-1,-1,-1],"loss_changes":[1.5049574E1,1.2406267E1,1.8439398E1,0E0,0E0,0E0,0E0],"parents":[2147483647,0,0,1,1,2,2],"right_children":[2,4,6,-1,-1,-1,-1],"split_conditions":[-5.8971214E0,1.4697467E3,1.026E-1,7.535541E-2,-3.530806E-2,7.2699715E-3,-1.1814076E-2],"split_indices":[4,0,10,0,0,0,0],"split_type":[0,0,0,0,0,0,0],"sum_hessian":[6.5074963E2,5.9874672E1,5.90875E2,3.063927E0,5.6810745E1,3.2545193E2,2.6542303E2],"tree_param":{"num_deleted":"0","num_feature":"15","num_nodes":"7","size_leaf_vector":"1"}},{"base_weights":[3.348636E-2,-2.592765E-1,3.1035993E-1,-1.4433445E-3,-4.8270237E-2,1.03355795E-1,1.0213316E-2],"categories":[],"categories_nodes":[],"categories_segments":[],"categories_sizes":[],"default_left":[0,0,0,0,0,0,0],"id":43,"left_children":[1,3,5,-1,-1,-1,-1],"loss_changes":[4.7513786E1,4.222072E1,5.832721E1,0E0,0E0,0E0,0E0],"parents":[2147483647,0,0,1,1,2,2],"right_children":[2,4,6,-1,-1,-1,-1],"split_conditions":[8.2E1,7.9E1,6.7E1,-1.4433445E-3,-4.8270237E-2,1.03355795E-1,1.0213316E-2],"split_indices":[1,1,3,0,0,0,0],"split_type":[0,0,0,0,0,0,0],"sum_hessian":[5.861229E2,2.8476123E2,3.013617E2,2.0888777E2,7.587346E1,2.087816E1,2.8048352E2],"tree_param":{"num_deleted":"0","num_feature":"15","num_nodes":"7","size_leaf_vector":"1"}},{"base_weights":[1.5953027E-2,1.431981E-1,-1.3476515E-1,3.5665336E-3,5.8236696E-2,-1.4808542E-2,6.5763616E-3],"categories":[],"categories_nodes":[],"categories_segments":[],"categories_sizes":[],"default_left":[0,0,0,0,0,0,0],"id":44,"left_children":[1,3,5,-1,-1,-1,-1],"loss_changes":[1.3333385E1,2.7174543E1,1.1523075E1,0E0,0E0,0E0,0E0],"parents":[2147483647,0,0,1,1,2,2],"right_children":[2,4,6,-1,-1,-1,-1],"split_conditions":[-1.3695559E-1,2E-1,3E0,3.5665336E-3,5.8236696E-2,-1.4808542E-2,6.5763616E-3],"split_indices":[4,9,14,0,0,0,0],"split_type":[0,0,0,0,0,0,0],"sum_hessian":[6.95207E2,3.7721497E2,3.17992E2,3.4879575E2,2.8419203E1,2.0566336E2,1.12328636E2],"tree_param":{"num_deleted":"0","num_feature":"15","num_nodes":"7","size_leaf_vector":"1"}},{"base_weights":[5.8883194E-2,-2.4205674E-1,1.6985437E-1,5.723459E-3,-3.585086E-2,6.0490128E-3,4.8947696E-2],"categories":[],"categories_nodes":[],"categories_segments":[],"categories_sizes":[],"default_left":[0,0,0,0,0,0,0],"id":45,"left_children":[1,3,5,-1,-1,-1,-1],"loss_changes":[1.957449E1,2.3415644E1,1.8118668E1,0E0,0E0,0E0,0E0],"parents":[2147483647,0,0,1,1,2,2],"right_children":[2,4,6,-1,-1,-1,-1],"split_conditions":[7.7E1,-9.61E-2,1.6261996E3,5.723459E-3,-3.585086E-2,6.0490128E-3,4.8947696E-2],"split_indices":[1,10,2,0,0,0,0],"split_type":[0,0,0,0,0,0,0],"sum_hessian":[5.8629346E2,1.57777E2,4.2851645E2,8.659641E1,7.118058E1,3.9784918E2,3.0667261E1],"tree_param":{"num_deleted":"0","num_feature":"15","num_nodes":"7","size_leaf_vector":"1"}},{"base_weights":[1.707038E-3,-2.4650888E-1,1.9850081E-1,-1.5042434E-2,9.162533E-2,-2.2892853E-2,1.827055E-2],"categories":[],"categories_nodes":[],"categories_segments":[],"categories_sizes":[],"default_left":[0,0,0,0,0,0,0],"id":46,"left_children":[1,3,5,-1,-1,-1,-1],"loss_changes":[2.9499865E1,1.7296238E1,2.9772362E1,0E0,0E0,0E0,0E0],"parents":[2147483647,0,0,1,1,2,2],"right_children":[2,4,6,-1,-1,-1,-1],"split_conditions":[2.064E-1,2.3936E0,6.9E1,-1.5042434E-2,9.162533E-2,-2.2892853E-2,1.827055E-2],"split_indices":[11,12,1,0,0,0,0],"split_type":[0,0,0,0,0,0,0],"sum_hessian":[6.0398975E2,2.6693768E2,3.370521E2,2.6248203E2,4.455659E0,6.216096E1,2.7489114E2],"tree_param":{"num_deleted":"0","num_feature":"15","num_nodes":"7","size_leaf_vector":"1"}},{"base_weights":[2.4482517E-2,1.4774671E-1,-1.9941613E-1,2.797598E-2,8.338508E-4,-4.337399E-2,-5.3246045E-3],"categories":[],"categories_nodes":[],"categories_segments":[],"categories_sizes":[],"default_left":[0,0,0,0,0,0,0],"id":47,"left_children":[1,3,5,-1,-1,-1,-1],"loss_changes":[1.6819405E1,1.9352757E1,1.3119014E1,0E0,0E0,0E0,0E0],"parents":[2147483647,0,0,1,1,2,2],"right_children":[2,4,6,-1,-1,-1,-1],"split_conditions":[1.5666769E3,-2.5834363E0,1.5846997E3,2.797598E-2,8.338508E-4,-4.337399E-2,-5.3246045E-3],"split_indices":[0,4,0,0,0,0,0],"split_type":[0,0,0,0,0,0,0],"sum_hessian":[6.0956165E2,3.9333588E2,2.1622577E2,1.02838585E2,2.9049728E2,3.0541208E1,1.8568457E2],"tree_param":{"num_deleted":"0","num_feature":"15","num_nodes":"7","size_leaf_vector":"1"}},{"base_weights":[4.171301E-2,-3.2991654E-1,1.1708508E-1,5.8843736E-3,-2.6405638E-2,1.18971765E-2,-1.6077282E-2],"categories":[],"categories_nodes":[],"categories_segments":[],"categories_sizes":[],"default_left":[0,0,0,0,0,0,0],"id":48,"left_children":[1,3,5,-1,-1,-1,-1],"loss_changes":[1.6643244E1,7.12959E0,2.1466747E1,0E0,0E0,0E0,0E0],"parents":[2147483647,0,0,1,1,2,2],"right_children":[2,4,6,-1,-1,-1,-1],"split_conditions":[-6.0157065E0,-1.766E-1,1.1841251E1,5.8843736E-3,-2.6405638E-2,1.18971765E-2,-1.6077282E-2],"split_indices":[5,10,6,0,0,0,0],"split_type":[0,0,0,0,0,0,0],"sum_hessian":[5.947228E2,1.0012024E2,4.9460254E2,2.678128E1,7.333896E1,3.9564172E2,9.896083E1],"tree_param":{"num_deleted":"0","num_feature":"15","num_nodes":"7","size_leaf_vector":"1"}},{"base_weights":[5.7740275E-2,4.9005243E-1,2.7479876E-2,1.7371029E-2,1.4380573E-1,-1.26067E-2,4.279727E-3],"categories":[],"categories_nodes":[],"categories_segments":[],"categories_sizes":[],"default_left":[0,0,0,0,0,0,0],"id":49,"left_children":[1,3,5,-1,-1,-1,-1],"loss_changes":[8.478001E0,1.5255161E1,8.305803E0,0E0,0E0,0E0,0E0],"parents":[2147483647,0,0,1,1,2,2],"right_children":[2,4,6,-1,-1,-1,-1],"split_conditions":[-8.54E-1,-8.604E-1,-5.307E-1,1.7371029E-2,1.4380573E-1,-1.26067E-2,4.279727E-3],"split_indices":[12,12,10,0,0,0,0],"split_type":[0,0,0,0,0,0,0],"sum_hessian":[6.509006E2,4.242563E1,6.084749E2,3.944793E1,2.977696E0,1.0077163E2,5.077033E2],"tree_param":{"num_deleted":"0","num_feature":"15","num_nodes":"7","size_leaf_vector":"1"}},{"base_weights":[8.806826E-3,6.992016E-1,-5.4706328E-2,2.6836663E-2,7.755794E-2,2.0731308E-3,-1.9499099E-2],"categories":[],"categories_nodes":[],"categories_segments":[],"categories_sizes":[],"default_left":[0,0,0,0,0,0,0],"id":50,"left_children":[1,3,5,-1,-1,-1,-1],"loss_changes":[2.818071E1,7.911194E0,1.690916E1,0E0,0E0,0E0,0E0],"parents":[2147483647,0,0,1,1,2,2],"right_children":[2,4,6,-1,-1,-1,-1],"split_conditions":[-1.4456596E1,-4.296367E-1,9.020272E0,2.6836663E-2,7.755794E-2,2.0731308E-3,-1.9499099E-2],"split_indices":[6,5,6,0,0,0,0],"split_type":[0,0,0,0,0,0,0],"sum_hessian":[6.416221E2,5.414852E1,5.874736E2,4.2759876E1,1.1388648E1,4.5077463E2,1.366989E2],"tree_param":{"num_deleted":"0","num_feature":"15","num_nodes":"7","size_leaf_vector":"1"}},{"base_weights":[-5.45064E-2,5.411758E-1,-1.0463087E-1,5.9943773E-2,1.7513605E-2,-1.3148403E-2,4.0391693E-3],"categories":[],"categories_nodes":[],"categories_segments":[],"categories_sizes":[],"default_left":[0,0,0,0,0,0,0],"id":51,"left_children":[1,3,5,-1,-1,-1,-1],"loss_changes":[2.000386E1,6.321703E0,1.5597484E1,0E0,0E0,0E0,0E0],"parents":[2147483647,0,0,1,1,2,2],"right_children":[2,4,6,-1,-1,-1,-1],"split_conditions":[3.9285713E-1,3.5211268E-1,4E-1,5.9943773E-2,1.7513605E-2,-1.3148403E-2,4.0391693E-3],"split_indices":[13,13,12,0,0,0,0],"split_type":[0,0,0,0,0,0,0],"sum_hessian":[6.7100714E2,5.1969574E1,6.190376E2,1.40799885E1,3.7889584E1,3.4821954E2,2.7081802E2],"tree_param":{"num_deleted":"0","num_feature":"15","num_nodes":"7","size_leaf_vector":"1"}},{"base_weights":[6.2097587E-2,6.196159E-1,-6.3556554E-3,-6.456793E-2,4.6903625E-2,-9.156097E-4,8.840232E-2],"categories":[],"categories_nodes":[],"categories_segments":[],"categories_sizes":[],"default_left":[0,0,0,0,0,0,0],"id":52,"left_children":[1,3,5,-1,-1,-1,-1],"loss_changes":[2.4987328E1,3.298043E1,1.0149617E1,0E0,0E0,0E0,0E0],"parents":[2147483647,0,0,1,1,2,2],"right_children":[2,4,6,-1,-1,-1,-1],"split_conditions":[6.9E1,-1.1464314E0,2.0158E0,-6.456793E-2,4.6903625E-2,-9.156097E-4,8.840232E-2],"split_indices":[3,11,11,0,0,0,0],"split_type":[0,0,0,0,0,0,0],"sum_hessian":[6.535865E2,7.1587395E1,5.819991E2,8.702704E0,6.2884693E1,5.7830164E2,3.697466E0],"tree_param":{"num_deleted":"0","num_feature":"15","num_nodes":"7","size_leaf_vector":"1"}},{"base_weights":[-2.726968E-3,4.0363854E-1,-1.0800819E-1,5.6325262E-3,4.1352186E-2,-1.0099587E-2,1.982135E-2],"categories":[],"categories_nodes":[],"categories_segments":[],"categories_sizes":[],"default_left":[0,0,0,0,0,0,0],"id":53,"left_children":[1,3,5,-1,-1,-1,-1],"loss_changes":[2.5273888E1,1.3222408E1,1.788875E1,0E0,0E0,0E0,0E0],"parents":[2147483647,0,0,1,1,2,2],"right_children":[2,4,6,-1,-1,-1,-1],"split_conditions":[7.4E1,-4.14E-2,6.808E-1,5.6325262E-3,4.1352186E-2,-1.0099587E-2,1.982135E-2],"split_indices":[3,10,10,0,0,0,0],"split_type":[0,0,0,0,0,0,0],"sum_hessian":[5.9124524E2,1.2152026E2,4.6972498E2,6.699343E1,5.4526833E1,4.024244E2,6.730057E1],"tree_param":{"num_deleted":"0","num_feature":"15","num_nodes":"7","size_leaf_vector":"1"}},{"base_weights":[-6.715823E-3,-6.639132E-2,3.8891745E-1,3.177864E-3,-1.7753663E-2,3.3379465E-2,-2.9564366E-5],"categories":[],"categories_nodes":[],"categories_segments":[],"categories_sizes":[],"default_left":[0,0,0,0,0,0,0],"id":54,"left_children":[1,3,5,-1,-1,-1,-1],"loss_changes":[1.4464586E1,1.769212E1,7.3036537E0,0E0,0E0,0E0,0E0],"parents":[2147483647,0,0,1,1,2,2],"right_children":[2,4,6,-1,-1,-1,-1],"split_conditions":[5.6264615E0,-9.833125E-2,7.4422307E0,3.177864E-3,-1.7753663E-2,3.3379465E-2,-2.9564366E-5],"split_indices":[5,4,5,0,0,0,0],"split_type":[0,0,0,0,0,0,0],"sum_hessian":[6.1363434E2,5.33365E2,8.026939E1,3.6128928E2,1.720757E2,5.0402645E1,2.9866747E1],"tree_param":{"num_deleted":"0","num_feature":"15","num_nodes":"7","size_leaf_vector":"1"}},{"base_weights":[3.9695795E-3,-1.4757177E-1,1.5410313E-1,-1.6172756E-2,1.5354462E-2,3.174101E-2,-9.326808E-4],"categories":[],"categories_nodes":[],"categories_segments":[],"categories_sizes":[],"default_left":[0,0,0,0,0,0,0],"id":55,"left_children":[1,3,5,-1,-1,-1,-1],"loss_changes":[1.4802935E1,2.1502058E1,2.4520678E1,0E0,0E0,0E0,0E0],"parents":[2147483647,0,0,1,1,2,2],"right_children":[2,4,6,-1,-1,-1,-1],"split_conditions":[2.064E-1,3.5088272E0,4.698E-1,-1.6172756E-2,1.5354462E-2,3.174101E-2,-9.326808E-4],"split_indices":[11,5,11,0,0,0,0],"split_type":[0,0,0,0,0,0,0],"sum_hessian":[6.5061676E2,3.2355304E2,3.270637E2,2.3908864E2,8.44644E1,9.2352684E1,2.3471101E2],"tree_param":{"num_deleted":"0","num_feature":"15","num_nodes":"7","size_leaf_vector":"1"}},{"base_weights":[-4.7388498E-2,-1.9935833E-1,1.9448555E-1,-2.1507022E-4,-1.904706E-2,3.6234114E-2,-4.5922515E-3],"categories":[],"categories_nodes":[],"categories_segments":[],"categories_sizes":[],"default_left":[0,0,0,0,0,0,0],"id":56,"left_children":[1,3,5,-1,-1,-1,-1],"loss_changes":[2.4946619E1,1.2606024E1,3.5187782E1,0E0,0E0,0E0,0E0],"parents":[2147483647,0,0,1,1,2,2],"right_children":[2,4,6,-1,-1,-1,-1],"split_conditions":[5.194805E-1,4.7058824E-1,5.46875E-1,-2.1507022E-4,-1.904706E-2,3.6234114E-2,-4.5922515E-3],"split_indices":[13,13,13,0,0,0,0],"split_type":[0,0,0,0,0,0,0],"sum_hessian":[6.786705E2,4.169783E2,2.6169217E2,1.8472289E2,2.322554E2,9.652466E1,1.6516751E2],"tree_param":{"num_deleted":"0","num_feature":"15","num_nodes":"7","size_leaf_vector":"1"}},{"base_weights":[-7.9934254E-2,-2.6271977E-2,-2.6470335E-2,3.2531343E-2,-2.892842E-3],"categories":[],"categories_nodes":[],"categories_segments":[],"categories_sizes":[],"default_left":[0,0,0,0,0],"id":57,"left_children":[1,-1,3,-1,-1],"loss_changes":[1.3460884E1,0E0,9.401197E0,0E0,0E0],"parents":[2147483647,0,0,2,2],"right_children":[2,-1,4,-1,-1],"split_conditions":[-6.773556E0,-2.6271977E-2,-2E-1,3.2531343E-2,-2.892842E-3],"split_indices":[5,0,9,0,0],"split_type":[0,0,0,0,0],"sum_hessian":[6.173767E2,7.122859E1,5.4614813E2,2.255972E1,5.235884E2],"tree_param":{"num_deleted":"0","num_feature":"15","num_nodes":"5","size_leaf_vector":"1"}},{"base_weights":[-6.024593E-3,-2.0661137E-1,2.2362322E-1,-2.1434976E-2,-3.4498546E-4,1.669583E-2,-3.275093E-2],"categories":[],"categories_nodes":[],"categories_segments":[],"categories_sizes":[],"default_left":[0,0,0,0,0,0,0],"id":58,"left_children":[1,3,5,-1,-1,-1,-1],"loss_changes":[3.1991991E1,1.4245267E1,2.344851E1,0E0,0E0,0E0,0E0],"parents":[2147483647,0,0,1,1,2,2],"right_children":[2,4,6,-1,-1,-1,-1],"split_conditions":[1.5149504E3,9E1,1.6483695E3,-2.1434976E-2,-3.4498546E-4,1.669583E-2,-3.275093E-2],"split_indices":[2,3,2,0,0,0,0],"split_type":[0,0,0,0,0,0,0],"sum_hessian":[6.9453345E2,3.708899E2,3.2364355E2,1.8901625E2,1.8187363E2,2.9310135E2,3.0542221E1],"tree_param":{"num_deleted":"0","num_feature":"15","num_nodes":"7","size_leaf_vector":"1"}},{"base_weights":[-4.4597927E-2,-3.6303896E-1,5.3202063E-2,2.5162034E-2,-2.9842474E-2,-5.933155E-3,1.6566765E-2],"categories":[],"categories_nodes":[],"categories_segments":[],"categories_sizes":[],"default_left":[0,0,0,0,0,0,0],"id":59,"left_children":[1,3,5,-1,-1,-1,-1],"loss_changes":[1.826434E1,2.2029453E1,1.8707386E1,0E0,0E0,0E0,0E0],"parents":[2147483647,0,0,1,1,2,2],"right_children":[2,4,6,-1,-1,-1,-1],"split_conditions":[4.6031746E-1,3.846154E-1,1E0,2.5162034E-2,-2.9842474E-2,-5.933155E-3,1.6566765E-2],"split_indices":[13,13,14,0,0,0,0],"split_type":[0,0,0,0,0,0,0],"sum_hessian":[5.857449E2,1.3779855E2,4.4794632E2,2.5815348E1,1.119832E2,2.727319E2,1.752144E2],"tree_param":{"num_deleted":"0","num_feature":"15","num_nodes":"7","size_leaf_vector":"1"}},{"base_weights":[-5.9080362E-2,-2.7525258E-1,3.95375E-2,3.7979838E-2,-1.8006174E-2,-1.7651226E-2,6.494163E-3],"categories":[],"categories_nodes":[],"categories_segments":[],"categories_sizes":[],"default_left":[0,0,0,0,0,0,0],"id":60,"left_children":[1,3,5,-1,-1,-1,-1],"loss_changes":[1.3744099E1,1.1833415E1,1.32083435E1,0E0,0E0,0E0,0E0],"parents":[2147483647,0,0,1,1,2,2],"right_children":[2,4,6,-1,-1,-1,-1],"split_conditions":[1.4728997E3,-1.0018828E0,-6.183415E-1,3.7979838E-2,-1.8006174E-2,-1.7651226E-2,6.494163E-3],"split_indices":[2,11,11,0,0,0,0],"split_type":[0,0,0,0,0,0,0],"sum_hessian":[6.4391327E2,2.0195338E2,4.419599E2,1.1524584E1,1.904288E2,7.9818535E1,3.621414E2],"tree_param":{"num_deleted":"0","num_feature":"15","num_nodes":"7","size_leaf_vector":"1"}},{"base_weights":[3.2584637E-2,-4.1765526E-1,9.922944E-2,-4.995242E-3,-3.6683686E-2,4.393478E-3,8.307982E-2],"categories":[],"categories_nodes":[],"categories_segments":[],"categories_sizes":[],"default_left":[0,0,0,0,0,0,0],"id":61,"left_children":[1,3,5,-1,-1,-1,-1],"loss_changes":[2.0534046E1,7.531849E0,1.497467E1,0E0,0E0,0E0,0E0],"parents":[2147483647,0,0,1,1,2,2],"right_children":[2,4,6,-1,-1,-1,-1],"split_conditions":[6.9E1,6.5E1,1.6746029E3,-4.995242E-3,-3.6683686E-2,4.393478E-3,8.307982E-2],"split_indices":[1,1,0,0,0,0,0],"split_type":[0,0,0,0,0,0,0],"sum_hessian":[6.8508746E2,8.8193634E1,5.968938E2,3.9749588E1,4.8444042E1,5.8981836E2,7.0754366E0],"tree_param":{"num_deleted":"0","num_feature":"15","num_nodes":"7","size_leaf_vector":"1"}},{"base_weights":[-2.1204034E-2,-8.083182E-2,4.226972E-1,-1.4521741E-2,3.5978095E-3,4.7982875E-2,1.1756722E-3],"categories":[],"categories_nodes":[],"categories_segments":[],"categories_sizes":[],"default_left":[0,0,0,0,0,0,0],"id":62,"left_children":[1,3,5,-1,-1,-1,-1],"loss_changes":[1.5007831E1,1.4031064E1,1.2581716E1,0E0,0E0,0E0,0E0],"parents":[2147483647,0,0,1,1,2,2],"right_children":[2,4,6,-1,-1,-1,-1],"split_conditions":[5.6264615E0,2.222E-1,6.6174088E0,-1.4521741E-2,3.5978095E-3,4.7982875E-2,1.1756722E-3],"split_indices":[5,11,5,0,0,0,0],"split_type":[0,0,0,0,0,0,0],"sum_hessian":[5.6792413E2,5.0081287E2,6.711128E1,2.1971754E2,2.810953E2,3.0801958E1,3.6309326E1],"tree_param":{"num_deleted":"0","num_feature":"15","num_nodes":"7","size_leaf_vector":"1"}},{"base_weights":[-5.502685E-3,-7.558363E-2,2.205723E-1,3.1508133E-3,-2.1015104E-2,1.05853304E-1,9.454036E-3],"categories":[],"categories_nodes":[],"categories_segments":[],"categories_sizes":[],"default_left":[0,0,0,0,0,0,0],"id":63,"left_children":[1,3,5,-1,-1,-1,-1],"loss_changes":[9.465359E0,1.9364288E1,1.0881319E1,0E0,0E0,0E0,0E0],"parents":[2147483647,0,0,1,1,2,2],"right_children":[2,4,6,-1,-1,-1,-1],"split_conditions":[3.642E-1,-4.36E-2,3.977E-1,3.1508133E-3,-2.1015104E-2,1.05853304E-1,9.454036E-3],"split_indices":[10,10,10,0,0,0,0],"split_type":[0,0,0,0,0,0,0],"sum_hessian":[5.980816E2,4.5679605E2,1.4128554E2,3.202984E2,1.3649765E2,3.4770908E0,1.3780844E2],"tree_param":{"num_deleted":"0","num_feature":"15","num_nodes":"7","size_leaf_vector":"1"}},{"base_weights":[-2.5578916E-2,4.3371668E-1,-8.387668E-2,2.0068599E-2,8.4651284E-2,-2.4540987E-2,-4.6250847E-4],"categories":[],"categories_nodes":[],"categories_segments":[],"categories_sizes":[],"default_left":[0,0,0,0,0,0,0],"id":64,"left_children":[1,3,5,-1,-1,-1,-1],"loss_changes":[1.7202871E1,4.8376102E0,1.5990778E1,0E0,0E0,0E0,0E0],"parents":[2147483647,0,0,1,1,2,2],"right_children":[2,4,6,-1,-1,-1,-1],"split_conditions":[3.9285713E-1,4.2029853E0,-6.480312E0,2.0068599E-2,8.4651284E-2,-2.4540987E-2,-4.6250847E-4],"split_indices":[13,4,5,0,0,0,0],"split_type":[0,0,0,0,0,0,0],"sum_hessian":[6.434109E2,7.233059E1,5.7108026E2,6.87619E1,3.5686848E0,9.5779205E1,4.7530106E2],"tree_param":{"num_deleted":"0","num_feature":"15","num_nodes":"7","size_leaf_vector":"1"}},{"base_weights":[4.7237887E-3,-2.5040174E-1,1.5739039E-1,-1.7341869E-2,1.1564679E-2,1.4512571E-2,-2.060962E-2],"categories":[],"categories_nodes":[],"categories_segments":[],"categories_sizes":[],"default_left":[0,0,0,0,0,0,0],"id":65,"left_children":[1,3,5,-1,-1,-1,-1],"loss_changes":[2.4047377E1,7.784047E0,2.3546417E1,0E0,0E0,0E0,0E0],"parents":[2147483647,0,0,1,1,2,2],"right_children":[2,4,6,-1,-1,-1,-1],"split_conditions":[1.4737584E3,4.051259E0,1.6252502E3,-1.7341869E-2,1.1564679E-2,1.4512571E-2,-2.060962E-2],"split_indices":[2,5,2,0,0,0,0],"split_type":[0,0,0,0,0,0,0],"sum_hessian":[6.175753E2,2.3102837E2,3.8654697E2,2.001106E2,3.0917772E1,3.200241E2,6.652286E1],"tree_param":{"num_deleted":"0","num_feature":"15","num_nodes":"7","size_leaf_vector":"1"}},{"base_weights":[-1.0724049E-2,7.847701E-1,-6.143295E-2,7.325672E-2,-2.712927E-3,2.0496909E-2,-6.4853886E-3],"categories":[],"categories_nodes":[],"categories_segments":[],"categories_sizes":[],"default_left":[0,0,0,0,0,0,0],"id":66,"left_children":[1,3,5,-1,-1,-1,-1],"loss_changes":[2.5222479E1,1.8191525E1,1.5437024E1,0E0,0E0,0E0,0E0],"parents":[2147483647,0,0,1,1,2,2],"right_children":[2,4,6,-1,-1,-1,-1],"split_conditions":[6.7E1,1.5339218E3,4.2028984E-1,7.325672E-2,-2.712927E-3,2.0496909E-2,-6.4853886E-3],"split_indices":[3,0,13,0,0,0,0],"split_type":[0,0,0,0,0,0,0],"sum_hessian":[6.265519E2,3.7461662E1,5.890902E2,2.2184996E1,1.5276666E1,6.9370766E1,5.197194E2],"tree_param":{"num_deleted":"0","num_feature":"15","num_nodes":"7","size_leaf_vector":"1"}},{"base_weights":[-2.4541669E-2,-1.9421166E-1,1.5832989E-1,4.966774E-2,-1.2997332E-2,-3.6690295E-2,1.0884967E-2],"categories":[],"categories_nodes":[],"categories_segments":[],"categories_sizes":[],"default_left":[0,0,0,0,0,0,0],"id":67,"left_children":[1,3,5,-1,-1,-1,-1],"loss_changes":[1.8786875E1,1.6694813E1,1.0793568E1,0E0,0E0,0E0,0E0],"parents":[2147483647,0,0,1,1,2,2],"right_children":[2,4,6,-1,-1,-1,-1],"split_conditions":[5.16129E-1,3.5E-1,-7.983E-1,4.966774E-2,-1.2997332E-2,-3.6690295E-2,1.0884967E-2],"split_indices":[13,13,10,0,0,0,0],"split_type":[0,0,0,0,0,0,0],"sum_hessian":[6.054021E2,3.1423923E2,2.9116284E2,1.2777306E1,3.014619E2,1.4461696E1,2.7670114E2],"tree_param":{"num_deleted":"0","num_feature":"15","num_nodes":"7","size_leaf_vector":"1"}},{"base_weights":[1.8813547E-2,5.2063268E-2,-7.1631717E-3,-1.577465E-2,5.132939E-3],"categories":[],"categories_nodes":[],"categories_segments":[],"categories_sizes":[],"default_left":[0,0,0,0,0],"id":68,"left_children":[1,-1,3,-1,-1],"loss_changes":[1.4839522E1,0E0,1.7143166E1,0E0,0E0],"parents":[2147483647,0,0,2,2],"right_children":[2,-1,4,-1,-1],"split_conditions":[1.3752761E3,5.2063268E-2,1.4728997E3,-1.577465E-2,5.132939E-3],"split_indices":[2,0,2,0,0],"split_type":[0,0,0,0,0],"sum_hessian":[5.985563E2,1.6004988E1,5.8255133E2,1.5392984E2,4.286215E2],"tree_param":{"num_deleted":"0","num_feature":"15","num_nodes":"5","size_leaf_vector":"1"}},{"base_weights":[-4.557239E-2,4.3991637E-1,-8.2285024E-2,3.4380198E-2,-9.681565E-3,-8.207927E-3,1.1197218E-2],"categories":[],"categories_nodes":[],"categories_segments":[],"categories_sizes":[],"default_left":[0,0,0,0,0,0,0],"id":69,"left_children":[1,3,5,-1,-1,-1,-1],"loss_changes":[1.1917083E1,5.852762E0,1.2753506E1,0E0,0E0,0E0,0E0],"parents":[2147483647,0,0,1,1,2,2],"right_children":[2,4,6,-1,-1,-1,-1],"split_conditions":[3.846154E-1,-6.9876027E0,3.0008917E0,3.4380198E-2,-9.681565E-3,-8.207927E-3,1.1197218E-2],"split_indices":[13,6,5,0,0,0,0],"split_type":[0,0,0,0,0,0,0],"sum_hessian":[6.7004956E2,4.6969822E1,6.230798E2,3.560955E1,1.1360274E1,5.0171725E2,1.21362495E2],"tree_param":{"num_deleted":"0","num_feature":"15","num_nodes":"7","size_leaf_vector":"1"}},{"base_weights":[1.07582554E-1,-2.2415331E-1,1.617664E-1,4.245312E-2,-2.3780538E-2,8.046695E-3,1.0384804E-1],"categories":[],"categories_nodes":[],"categories_segments":[],"categories_sizes":[],"default_left":[0,0,0,0,0,0,0],"id":70,"left_children":[1,3,5,-1,-1,-1,-1],"loss_changes":[1.1039601E1,1.9036358E1,1.1109069E1,0E0,0E0,0E0,0E0],"parents":[2147483647,0,0,1,1,2,2],"right_children":[2,4,6,-1,-1,-1,-1],"split_conditions":[-6.773556E0,-1.0708969E1,1.6747975E3,4.245312E-2,-2.3780538E-2,8.046695E-3,1.0384804E-1],"split_indices":[5,6,0,0,0,0,0],"split_type":[0,0,0,0,0,0,0],"sum_hessian":[6.1442206E2,8.608053E1,5.2834155E2,1.5192516E1,7.088801E1,5.24815E2,3.5265503E0],"tree_param":{"num_deleted":"0","num_feature":"15","num_nodes":"7","size_leaf_vector":"1"}},{"base_weights":[2.5309637E-2,-1.3297322E-1,1.6819677E-1,1.4799127E-3,-3.945888E-2,7.930076E-2,5.7796747E-3],"categories":[],"categories_nodes":[],"categories_segments":[],"categories_sizes":[],"default_left":[0,0,0,0,0,0,0],"id":71,"left_children":[1,3,5,-1,-1,-1,-1],"loss_changes":[1.5206313E1,3.0808722E1,2.7920391E1,0E0,0E0,0E0,0E0],"parents":[2147483647,0,0,1,1,2,2],"right_children":[2,4,6,-1,-1,-1,-1],"split_conditions":[8.2E1,7.9E1,6.7E1,1.4799127E-3,-3.945888E-2,7.930076E-2,5.7796747E-3],"split_indices":[1,1,3,0,0,0,0],"split_type":[0,0,0,0,0,0,0],"sum_hessian":[6.7224084E2,3.187004E2,3.5354047E2,2.5145493E2,6.724548E1,1.5620774E1,3.3791968E2],"tree_param":{"num_deleted":"0","num_feature":"15","num_nodes":"7","size_leaf_vector":"1"}},{"base_weights":[-7.7853883E-3,-2.7871028E-1,1.4000857E-1,-1.0102152E-2,-4.4496976E-2,1.2842785E-2,-1.6911706E-2],"categories":[],"categories_nodes":[],"categories_segments":[],"categories_sizes":[],"default_left":[0,0,0,0,0,0,0],"id":72,"left_children":[1,3,5,-1,-1,-1,-1],"loss_changes":[2.370648E1,1.0346134E1,1.7218582E1,0E0,0E0,0E0,0E0],"parents":[2147483647,0,0,1,1,2,2],"right_children":[2,4,6,-1,-1,-1,-1],"split_conditions":[7.7E1,1E0,9.7E1,-1.0102152E-2,-4.4496976E-2,1.2842785E-2,-1.6911706E-2],"split_indices":[1,7,1,0,0,0,0],"split_type":[0,0,0,0,0,0,0],"sum_hessian":[5.918063E2,2.0905905E2,3.8274722E2,1.7953404E2,2.9525005E1,3.144602E2,6.828703E1],"tree_param":{"num_deleted":"0","num_feature":"15","num_nodes":"7","size_leaf_vector":"1"}},{"base_weights":[2.7435387E-2,1.9971536E-1,-8.8738985E-2,1.2879624E-2,-4.5436904E-2,-5.850124E-3,7.932097E-2],"categories":[],"categories_nodes":[],"categories_segments":[],"categories_sizes":[],"default_left":[0,0,0,0,0,0,0],"id":73,"left_children":[1,3,5,-1,-1,-1,-1],"loss_changes":[1.2045807E1,1.0081034E1,1.1203226E1,0E0,0E0,0E0,0E0],"parents":[2147483647,0,0,1,1,2,2],"right_children":[2,4,6,-1,-1,-1,-1],"split_conditions":[1.27E-1,6.25E-1,2.762807E0,1.2879624E-2,-4.5436904E-2,-5.850124E-3,7.932097E-2],"split_indices":[12,13,12,0,0,0,0],"split_type":[0,0,0,0,0,0,0],"sum_hessian":[6.014566E2,2.4248347E2,3.589731E2,2.3362296E2,8.860516E0,3.5446118E2,4.5119305E0],"tree_param":{"num_deleted":"0","num_feature":"15","num_nodes":"7","size_leaf_vector":"1"}},{"base_weights":[-2.0171238E-2,-3.097944E-2,9.1989234E-2,1.7550393E-3,-1.2904834E-2],"categories":[],"categories_nodes":[],"categories_segments":[],"categories_sizes":[],"default_left":[0,0,0,0,0],"id":74,"left_children":[1,3,-1,-1,-1],"loss_changes":[1.0779382E1,7.7174864E0,0E0,0E0,0E0],"parents":[2147483647,0,0,1,1],"right_children":[2,4,-1,-1,-1],"split_conditions":[2.2E0,3.3305295E0,9.1989234E-2,1.7550393E-3,-1.2904834E-2],"split_indices":[9,4,0,0,0],"split_type":[0,0,0,0,0],"sum_hessian":[5.822882E2,5.7871796E2,3.5702436E0,4.4345074E2,1.3526723E2],"tree_param":{"num_deleted":"0","num_feature":"15","num_nodes":"5","size_leaf_vector":"1"}},{"base_weights":[-6.871367E-2,-1.8578425E-1,2.832899E-1,-2.838234E-2,-3.7847934E-3,3.389896E-2,-1.9449075E-3],"categories":[],"categories_nodes":[],"categories_segments":[],"categories_sizes":[],"default_left":[0,0,0,0,0,0,0],"id":75,"left_children":[1,3,5,-1,-1,-1,-1],"loss_changes":[2.5031538E1,1.7969967E1,1.686077E1,0E0,0E0,0E0,0E0],"parents":[2147483647,0,0,1,1,2,2],"right_children":[2,4,6,-1,-1,-1,-1],"split_conditions":[3.78E-1,7.7E1,4.9654582E-1,-2.838234E-2,-3.7847934E-3,3.389896E-2,-1.9449075E-3],"split_indices":[10,1,6,0,0,0,0],"split_type":[0,0,0,0,0,0,0],"sum_hessian":[6.0759436E2,4.561048E2,1.5148958E2,1.1479666E2,3.4130814E2,7.267028E1,7.881929E1],"tree_param":{"num_deleted":"0","num_feature":"15","num_nodes":"7","size_leaf_vector":"1"}},{"base_weights":[-2.8856364E-3,2.43456E-1,-1.6571048E-1,1.7765654E-2,-3.3345938E-2,-1.0563485E-2,3.9285135E-2],"categories":[],"categories_nodes":[],"categories_segments":[],"categories_sizes":[],"default_left":[0,0,0,0,0,0,0],"id":76,"left_children":[1,3,5,-1,-1,-1,-1],"loss_changes":[2.466369E1,1.8388775E1,1.0211344E1,0E0,0E0,0E0,0E0],"parents":[2147483647,0,0,1,1,2,2],"right_children":[2,4,6,-1,-1,-1,-1],"split_conditions":[-2.133194E0,1.6483695E3,2.6254E0,1.7765654E-2,-3.3345938E-2,-1.0563485E-2,3.9285135E-2],"split_indices":[6,2,12,0,0,0,0],"split_type":[0,0,0,0,0,0,0],"sum_hessian":[6.150317E2,2.4457248E2,3.704592E2,2.2224324E2,2.2329245E1,3.5821393E2,1.2245289E1],"tree_param":{"num_deleted":"0","num_feature":"15","num_nodes":"7","size_leaf_vector":"1"}},{"base_weights":[-2.4316777E-2,5.6091964E-1,-6.0271814E-2,-5.603798E-4,5.3673673E-2,-1.887628E-4,-1.9046253E-2],"categories":[],"categories_nodes":[],"categories_segments":[],"categories_sizes":[],"default_left":[0,0,0,0,0,0,0],"id":77,"left_children":[1,3,5,-1,-1,-1,-1],"loss_changes":[1.2866512E1,8.920046E0,9.620657E0,0E0,0E0,0E0,0E0],"parents":[2147483647,0,0,1,1,2,2],"right_children":[2,4,6,-1,-1,-1,-1],"split_conditions":[6.7E1,6.7E1,9.7E1,-5.603798E-4,5.3673673E-2,-1.887628E-4,-1.9046253E-2],"split_indices":[3,1,1,0,0,0,0],"split_type":[0,0,0,0,0,0,0],"sum_hessian":[6.1316516E2,3.5375237E1,5.777899E2,1.5276666E1,2.0098572E1,4.845338E2,9.325612E1],"tree_param":{"num_deleted":"0","num_feature":"15","num_nodes":"7","size_leaf_vector":"1"}},{"base_weights":[-1.866385E-2,1.2665044E-1,-1.4890026E-1,1.280001E-2,-1.03188865E-2,-3.2199476E-2,-1.51798E-3],"categories":[],"categories_nodes":[],"categories_segments":[],"categories_sizes":[],"default_left":[0,0,0,0,0,0,0],"id":78,"left_children":[1,3,5,-1,-1,-1,-1],"loss_changes":[1.1459973E1,1.016452E1,1.7315144E1,0E0,0E0,0E0,0E0],"parents":[2147483647,0,0,1,1,2,2],"right_children":[2,4,6,-1,-1,-1,-1],"split_conditions":[-8.74E-2,3.3069417E0,-4.176934E0,1.280001E-2,-1.03188865E-2,-3.2199476E-2,-1.51798E-3],"split_indices":[10,5,5,0,0,0,0],"split_type":[0,0,0,0,0,0,0],"sum_hessian":[6.0545593E2,2.8590323E2,3.1955267E2,2.119472E2,7.3956024E1,6.7406685E1,2.52146E2],"tree_param":{"num_deleted":"0","num_feature":"15","num_nodes":"7","size_leaf_vector":"1"}},{"base_weights":[-9.0419866E-2,-2.492767E-1,6.073763E-2,5.6048464E-2,-1.5539868E-2,-1.1293007E-3,1.6491313E-2],"categories":[],"categories_nodes":[],"categories_segments":[],"categories_sizes":[],"default_left":[0,0,0,0,0,0,0],"id":79,"left_children":[1,3,5,-1,-1,-1,-1],"loss_changes":[1.5329157E1,1.5987503E1,6.592186E0,0E0,0E0,0E0,0E0],"parents":[2147483647,0,0,1,1,2,2],"right_children":[2,4,6,-1,-1,-1,-1],"split_conditions":[2.222E-1,-1.0302E0,1.239E-1,5.6048464E-2,-1.5539868E-2,-1.1293007E-3,1.6491313E-2],"split_indices":[11,10,10,0,0,0,0],"split_type":[0,0,0,0,0,0,0],"sum_hessian":[6.3782306E2,3.1122208E2,3.2660095E2,9.265216E0,3.0195685E2,2.4495067E2,8.165029E1],"tree_param":{"num_deleted":"0","num_feature":"15","num_nodes":"7","size_leaf_vector":"1"}},{"base_weights":[3.6391348E-2,5.521274E-1,4.910394E-3,7.128057E-2,3.222992E-4,9.716848E-3,-5.5358387E-3],"categories":[],"categories_nodes":[],"categories_segments":[],"categories_sizes":[],"default_left":[0,0,0,0,0,0,0],"id":80,"left_children":[1,3,5,-1,-1,-1,-1],"loss_changes":[1.0692487E1,1.5929381E1,1.1834575E1,0E0,0E0,0E0,0E0],"parents":[2147483647,0,0,1,1,2,2],"right_children":[2,4,6,-1,-1,-1,-1],"split_conditions":[6.7E1,1.4943461E3,-2.3595235E0,7.128057E-2,3.222992E-4,9.716848E-3,-5.5358387E-3],"split_indices":[3,0,6,0,0,0,0],"split_type":[0,0,0,0,0,0,0],"sum_hessian":[6.610276E2,3.789757E1,6.2313E2,1.5620774E1,2.2276796E1,2.3719295E2,3.8593704E2],"tree_param":{"num_deleted":"0","num_feature":"15","num_nodes":"7","size_leaf_vector":"1"}},{"base_weights":[3.691044E-2,1.09743476E-1,-2.5179905E-1,1.0236135E-2,-9.152207E-3,-1.6991658E-2,7.3599055E-2],"categories":[],"categories_nodes":[],"categories_segments":[],"categories_sizes":[],"default_left":[0,0,0,0,0,0,0],"id":81,"left_children":[1,3,5,-1,-1,-1,-1],"loss_changes":[1.25960865E1,1.082924E1,1.2510178E1,0E0,0E0,0E0,0E0],"parents":[2147483647,0,0,1,1,2,2],"right_children":[2,4,6,-1,-1,-1,-1],"split_conditions":[9.8E1,1.6128955E3,1.6326923E3,1.0236135E-2,-9.152207E-3,-1.6991658E-2,7.3599055E-2],"split_indices":[1,0,2,0,0,0,0],"split_type":[0,0,0,0,0,0,0],"sum_hessian":[5.9951013E2,4.789363E2,1.2057383E2,3.719651E2,1.0697124E2,1.1601138E2,4.5624475E0],"tree_param":{"num_deleted":"0","num_feature":"15","num_nodes":"7","size_leaf_vector":"1"}},{"base_weights":[-1.7126588E-2,-7.579259E-2,3.948157E-1,2.2839457E-3,-1.3005516E-2,8.0533974E-2,1.6810033E-2],"categories":[],"categories_nodes":[],"categories_segments":[],"categories_sizes":[],"default_left":[0,0,0,0,0,0,0],"id":82,"left_children":[1,3,5,-1,-1,-1,-1],"loss_changes":[1.4911388E1,1.06527195E1,6.8302097E0,0E0,0E0,0E0,0E0],"parents":[2147483647,0,0,1,1,2,2],"right_children":[2,4,6,-1,-1,-1,-1],"split_conditions":[5.61183E0,-8.6768466E-1,6.7E1,2.2839457E-3,-1.3005516E-2,8.0533974E-2,1.6810033E-2],"split_indices":[5,4,3,0,0,0,0],"split_type":[0,0,0,0,0,0,0],"sum_hessian":[6.17959E2,5.4107635E2,7.688264E1,3.158548E2,2.2522156E2,5.2573857E0,7.162525E1],"tree_param":{"num_deleted":"0","num_feature":"15","num_nodes":"7","size_leaf_vector":"1"}},{"base_weights":[-1.5646685E-2,-4.1858557E-1,3.1822696E-2,-2.5543451E-2,5.828821E-2,2.9147794E-2,1.9494262E-4],"categories":[],"categories_nodes":[],"categories_segments":[],"categories_sizes":[],"default_left":[0,0,0,0,0,0,0],"id":83,"left_children":[1,3,5,-1,-1,-1,-1],"loss_changes":[1.2646522E1,5.8986664E0,8.454716E0,0E0,0E0,0E0,0E0],"parents":[2147483647,0,0,1,1,2,2],"right_children":[2,4,6,-1,-1,-1,-1],"split_conditions":[-7.657398E0,1.2772815E0,-1.5684804E1,-2.5543451E-2,5.828821E-2,2.9147794E-2,1.9494262E-4],"split_indices":[5,4,6,0,0,0,0],"split_type":[0,0,0,0,0,0,0],"sum_hessian":[6.597306E2,6.968915E1,5.9004144E2,6.720092E1,2.4882305E0,3.074659E1,5.5929486E2],"tree_param":{"num_deleted":"0","num_feature":"15","num_nodes":"7","size_leaf_vector":"1"}},{"base_weights":[1.3135007E-1,-1.3030809E-1,2.4543701E-1,1.4691159E-2,-1.6679555E-2,6.4625666E-2,1.20882485E-2],"categories":[],"categories_nodes":[],"categories_segments":[],"categories_sizes":[],"default_left":[0,0,0,0,0,0,0],"id":84,"left_children":[1,3,5,-1,-1,-1,-1],"loss_changes":[1.7401665E1,1.28481655E1,7.862713E0,0E0,0E0,0E0,0E0],"parents":[2147483647,0,0,1,1,2,2],"right_children":[2,4,6,-1,-1,-1,-1],"split_conditions":[-4.1012807E0,4.1269842E-1,-3.516103E0,1.4691159E-2,-1.6679555E-2,6.4625666E-2,1.20882485E-2],"split_indices":[5,13,5,0,0,0,0],"split_type":[0,0,0,0,0,0,0],"sum_hessian":[5.8265955E2,1.767216E2,4.0593793E2,5.438952E1,1.2233208E2,8.439158E0,3.9749878E2],"tree_param":{"num_deleted":"0","num_feature":"15","num_nodes":"7","size_leaf_vector":"1"}},{"base_weights":[-2.9617576E-2,-3.9136574E-2,1.0885168E-3,-4.150234E-3,1.1370615E-2],"categories":[],"categories_nodes":[],"categories_segments":[],"categories_sizes":[],"default_left":[0,0,0,0,0],"id":85,"left_children":[1,-1,3,-1,-1],"loss_changes":[1.2969742E1,0E0,9.516704E0,0E0,0E0],"parents":[2147483647,0,0,2,2],"right_children":[2,-1,4,-1,-1],"split_conditions":[1.370289E3,-3.9136574E-2,3.893E-1,-4.150234E-3,1.1370615E-2],"split_indices":[0,0,10,0,0],"split_type":[0,0,0,0,0],"sum_hessian":[6.0216064E2,2.5449883E1,5.7671075E2,4.200784E2,1.5663234E2],"tree_param":{"num_deleted":"0","num_feature":"15","num_nodes":"5","size_leaf_vector":"1"}},{"base_weights":[1.8422902E-2,-6.186743E-2,2.4729103E-1,3.5992598E-3,-1.3178503E-2,1.1212477E-2,1.5500021E-1],"categories":[],"categories_nodes":[],"categories_segments":[],"categories_sizes":[],"default_left":[0,0,0,0,0,0,0],"id":86,"left_children":[1,3,5,-1,-1,-1,-1],"loss_changes":[1.143786E1,1.08803215E1,1.6258383E1,0E0,0E0,0E0,0E0],"parents":[2147483647,0,0,1,1,2,2],"right_children":[2,4,6,-1,-1,-1,-1],"split_conditions":[7.46E-1,1.714E-1,1.8984E0,3.5992598E-3,-1.3178503E-2,1.1212477E-2,1.5500021E-1],"split_indices":[12,12,11,0,0,0,0],"split_type":[0,0,0,0,0,0,0],"sum_hessian":[6.2171594E2,4.6002103E2,1.616949E2,2.699446E2,1.9007642E2,1.5938588E2,2.309009E0],"tree_param":{"num_deleted":"0","num_feature":"15","num_nodes":"7","size_leaf_vector":"1"}},{"base_weights":[-1.4253066E-2,-4.103055E-2,7.196939E-3,-1.5833637E-3,2.4668187E-2],"categories":[],"categories_nodes":[],"categories_segments":[],"categories_sizes":[],"default_left":[0,0,0,0,0],"id":87,"left_children":[1,-1,3,-1,-1],"loss_changes":[9.564269E0,0E0,9.558134E0,0E0,0E0],"parents":[2147483647,0,0,2,2],"right_children":[2,-1,4,-1,-1],"split_conditions":[-1.97E2,-4.103055E-2,6.1290324E-1,-1.5833637E-3,2.4668187E-2],"split_indices":[14,0,13,0,0],"split_type":[0,0,0,0,0],"sum_hessian":[5.917512E2,1.6562613E1,5.751886E2,5.3187524E2,4.3313374E1],"tree_param":{"num_deleted":"0","num_feature":"15","num_nodes":"5","size_leaf_vector":"1"}},{"base_weights":[-3.1681575E-2,-5.517427E-2,6.742053E-1,-2.7970238E-2,-8.48173E-4,-1.1920401E-2,5.9349164E-2],"categories":[],"categories_nodes":[],"categories_segments":[],"categories_sizes":[],"default_left":[0,0,0,0,0,0,0],"id":88,"left_children":[1,3,5,-1,-1,-1,-1],"loss_changes":[1.0310547E1,1.1039522E1,7.7770996E0,0E0,0E0,0E0,0E0],"parents":[2147483647,0,0,1,1,2,2],"right_children":[2,4,6,-1,-1,-1,-1],"split_conditions":[1.08E2,-7.474E-1,-1.1902811E-1,-2.7970238E-2,-8.48173E-4,-1.1920401E-2,5.9349164E-2],"split_indices":[14,10,12,0,0,0,0],"split_type":[0,0,0,0,0,0,0],"sum_hessian":[6.2441876E2,6.044049E2,2.0013851E1,4.7033092E1,5.573718E2,6.4377112E0,1.3576139E1],"tree_param":{"num_deleted":"0","num_feature":"15","num_nodes":"7","size_leaf_vector":"1"}},{"base_weights":[1.3402016E-2,-1.09767005E-1,1.8696994E-1,-8.479642E-3,2.3033729E-2,-5.3820666E-2,1.2841728E-2],"categories":[],"categories_nodes":[],"categories_segments":[],"categories_sizes":[],"default_left":[0,0,0,0,0,0,0],"id":89,"left_children":[1,3,5,-1,-1,-1,-1],"loss_changes":[1.3673673E1,9.642809E0,1.6356865E1,0E0,0E0,0E0,0E0],"parents":[2147483647,0,0,1,1,2,2],"right_children":[2,4,6,-1,-1,-1,-1],"split_conditions":[1E0,1.5682E0,-9.2979574E-1,-8.479642E-3,2.3033729E-2,-5.3820666E-2,1.2841728E-2],"split_indices":[14,12,12,0,0,0,0],"split_type":[0,0,0,0,0,0,0],"sum_hessian":[6.3935004E2,3.7372864E2,2.6562143E2,3.432453E2,3.0483313E1,1.1074572E1,2.5454686E2],"tree_param":{"num_deleted":"0","num_feature":"15","num_nodes":"7","size_leaf_vector":"1"}},{"base_weights":[-3.5650828E-3,-7.784624E-2,2.3962009E-1,-1.7603483E-3,-4.0858604E-2,1.594181E-2,-5.4902915E-2],"categories":[],"categories_nodes":[],"categories_segments":[],"categories_sizes":[],"default_left":[0,0,0,0,0,0,0],"id":90,"left_children":[1,3,5,-1,-1,-1,-1],"loss_changes":[1.016426E1,1.3228439E1,9.411469E0,0E0,0E0,0E0,0E0],"parents":[2147483647,0,0,1,1,2,2],"right_children":[2,4,6,-1,-1,-1,-1],"split_conditions":[8.984E-1,8.064E-1,6.5589204E0,-1.7603483E-3,-4.0858604E-2,1.594181E-2,-5.4902915E-2],"split_indices":[12,12,5,0,0,0,0],"split_type":[0,0,0,0,0,0,0],"sum_hessian":[5.6331903E2,4.317384E2,1.315806E2,4.050793E2,2.6659079E1,1.2594324E2,5.637366E0],"tree_param":{"num_deleted":"0","num_feature":"15","num_nodes":"7","size_leaf_vector":"1"}},{"base_weights":[5.3225286E-2,-1.5153356E-1,2.973488E-1,-1.9491844E-2,9.427798E-5,6.384045E-3,3.912588E-2],"categories":[],"categories_nodes":[],"categories_segments":[],"categories_sizes":[],"default_left":[0,0,0,0,0,0,0],"id":91,"left_children":[1,3,5,-1,-1,-1,-1],"loss_changes":[3.1073349E1,1.0960335E1,2.1751257E1,0E0,0E0,0E0,0E0],"parents":[2147483647,0,0,1,1,2,2],"right_children":[2,4,6,-1,-1,-1,-1],"split_conditions":[5.16129E-1,2.064E-1,1.5249408E3,-1.9491844E-2,9.427798E-5,6.384045E-3,3.912588E-2],"split_indices":[13,11,2,0,0,0,0],"split_type":[0,0,0,0,0,0,0],"sum_hessian":[6.214267E2,3.3780188E2,2.8362485E2,1.4227351E2,1.9552835E2,2.0062021E2,8.300462E1],"tree_param":{"num_deleted":"0","num_feature":"15","num_nodes":"7","size_leaf_vector":"1"}},{"base_weights":[-1.4210681E-2,3.5232205E-2,-3.772985E-1,1.2256064E-2,-5.4550483E-3,6.456532E-2,-2.5347695E-2],"categories":[],"categories_nodes":[],"categories_segments":[],"categories_sizes":[],"default_left":[0,0,0,0,0,0,0],"id":92,"left_children":[1,3,5,-1,-1,-1,-1],"loss_changes":[1.2409862E1,1.6015192E1,1.2292613E1,0E0,0E0,0E0,0E0],"parents":[2147483647,0,0,1,1,2,2],"right_children":[2,4,6,-1,-1,-1,-1],"split_conditions":[4.286711E0,7.8E1,-1.5684804E1,1.2256064E-2,-5.4550483E-3,6.456532E-2,-2.5347695E-2],"split_indices":[4,1,6,0,0,0,0],"split_type":[0,0,0,0,0,0,0],"sum_hessian":[6.899122E2,6.070509E2,8.286125E1,2.5208632E2,3.5496457E2,4.630892E0,7.823036E1],"tree_param":{"num_deleted":"0","num_feature":"15","num_nodes":"7","size_leaf_vector":"1"}},{"base_weights":[-6.309007E-2,-1.05963E-1,3.336611E-1,-1.8566019E-3,-2.0523954E-2,-6.705042E-3,2.9139481E-2],"categories":[],"categories_nodes":[],"categories_segments":[],"categories_sizes":[],"default_left":[0,0,0,0,0,0,0],"id":93,"left_children":[1,3,5,-1,-1,-1,-1],"loss_changes":[1.0252697E1,1.0710275E1,5.6433864E0,0E0,0E0,0E0,0E0],"parents":[2147483647,0,0,1,1,2,2],"right_children":[2,4,6,-1,-1,-1,-1],"split_conditions":[5.6264615E0,5.4761904E-1,4.9333334E-1,-1.8566019E-3,-2.0523954E-2,-6.705042E-3,2.9139481E-2],"split_indices":[5,13,13,0,0,0,0],"split_type":[0,0,0,0,0,0,0],"sum_hessian":[6.037074E2,5.449956E2,5.8711803E1,4.331532E2,1.1184241E2,1.825145E1,4.0460354E1],"tree_param":{"num_deleted":"0","num_feature":"15","num_nodes":"7","size_leaf_vector":"1"}},{"base_weights":[4.0232815E-2,2.1669784E-1,-6.8245105E-2,-5.5783793E-2,1.378548E-2,-5.8657993E-3,1.6634999E-2],"categories":[],"categories_nodes":[],"categories_segments":[],"categories_sizes":[],"default_left":[0,0,0,0,0,0,0],"id":94,"left_children":[1,3,5,-1,-1,-1,-1],"loss_changes":[1.0973637E1,1.0850164E1,5.4627137E0,0E0,0E0,0E0,0E0],"parents":[2147483647,0,0,1,1,2,2],"right_children":[2,4,6,-1,-1,-1,-1],"split_conditions":[-2.133194E0,-2.9530872E1,2E-1,-5.5783793E-2,1.378548E-2,-5.8657993E-3,1.6634999E-2],"split_indices":[6,6,9,0,0,0,0],"split_type":[0,0,0,0,0,0,0],"sum_hessian":[5.727034E2,2.1827963E2,3.544238E2,6.6591234E0,2.1162051E2,3.1996854E2,3.4455235E1],"tree_param":{"num_deleted":"0","num_feature":"15","num_nodes":"7","size_leaf_vector":"1"}},{"base_weights":[6.106008E-3,4.9243104E-2,-3.2956287E-2,-5.5346154E-3,9.442037E-3],"categories":[],"categories_nodes":[],"categories_segments":[],"categories_sizes":[],"default_left":[0,0,0,0,0],"id":95,"left_children":[1,3,-1,-1,-1],"loss_changes":[1.6643332E1,1.1245416E1,0E0,0E0,0E0],"parents":[2147483647,0,0,1,1],"right_children":[2,4,-1,-1,-1],"split_conditions":[1.6342153E3,0E0,-3.2956287E-2,-5.5346154E-3,9.442037E-3],"split_indices":[2,14,0,0,0],"split_type":[0,0,0,0,0],"sum_hessian":[6.244578E2,5.839052E2,4.055263E1,2.6469113E2,3.1921408E2],"tree_param":{"num_deleted":"0","num_feature":"15","num_nodes":"5","size_leaf_vector":"1"}},{"base_weights":[-5.845632E-2,-4.787019E-1,-1.4321241E-2,1.7855842E-2,-3.626841E-2,4.230406E-3,-1.0367104E-2],"categories":[],"categories_nodes":[],"categories_segments":[],"categories_sizes":[],"default_left":[0,0,0,0,0,0,0],"id":96,"left_children":[1,3,5,-1,-1,-1,-1],"loss_changes":[1.0429881E1,8.531334E0,8.4949665E0,0E0,0E0,0E0,0E0],"parents":[2147483647,0,0,1,1,2,2],"right_children":[2,4,6,-1,-1,-1,-1],"split_conditions":[-7.474E-1,-9.711E-1,3.442E-1,1.7855842E-2,-3.626841E-2,4.230406E-3,-1.0367104E-2],"split_indices":[10,10,10,0,0,0,0],"split_type":[0,0,0,0,0,0,0],"sum_hessian":[5.6423376E2,5.3471054E1,5.1076273E2,1.0344361E1,4.3126694E1,3.3554932E2,1.7521342E2],"tree_param":{"num_deleted":"0","num_feature":"15","num_nodes":"7","size_leaf_vector":"1"}},{"base_weights":[-8.021487E-3,8.4895104E-2,-2.029065E-1,1.0522346E-3,3.6811393E-2,-2.115593E-2,2.6081586E-3],"categories":[],"categories_nodes":[],"categories_segments":[],"categories_sizes":[],"default_left":[0,0,0,0,0,0,0],"id":97,"left_children":[1,3,5,-1,-1,-1,-1],"loss_changes":[1.2035294E1,1.7567467E1,1.0321563E1,0E0,0E0,0E0,0E0],"parents":[2147483647,0,0,1,1,2,2],"right_children":[2,4,6,-1,-1,-1,-1],"split_conditions":[1.5443516E3,1.5284489E3,1.6261996E3,1.0522346E-3,3.6811393E-2,-2.115593E-2,2.6081586E-3],"split_indices":[2,2,2,0,0,0,0],"split_type":[0,0,0,0,0,0,0],"sum_hessian":[6.6417126E2,4.4949524E2,2.14676E2,4.0548083E2,4.401442E1,1.22228645E2,9.244735E1],"tree_param":{"num_deleted":"0","num_feature":"15","num_nodes":"7","size_leaf_vector":"1"}},{"base_weights":[2.470232E-2,-1.3630487E-1,2.2799571E-1,-2.3791097E-2,-2.2436182E-3,2.0558941E-3,2.3813877E-2],"categories":[],"categories_nodes":[],"categories_segments":[],"categories_sizes":[],"default_left":[0,0,0,0,0,0,0],"id":98,"left_children":[1,3,5,-1,-1,-1,-1],"loss_changes":[1.94994E1,9.587793E0,1.0717223E1,0E0,0E0,0E0,0E0],"parents":[2147483647,0,0,1,1,2,2],"right_children":[2,4,6,-1,-1,-1,-1],"split_conditions":[5.090909E-1,1.4803458E3,1.4728997E3,-2.3791097E-2,-2.2436182E-3,2.0558941E-3,2.3813877E-2],"split_indices":[13,2,2,0,0,0,0],"split_type":[0,0,0,0,0,0,0],"sum_hessian":[5.9553394E2,3.3213382E2,2.6340012E2,7.8147835E1,2.5398598E2,1.401361E2,1.23264015E2],"tree_param":{"num_deleted":"0","num_feature":"15","num_nodes":"7","size_leaf_vector":"1"}},{"base_weights":[-8.363435E-2,-4.2922232E-2,-5.8051188E-2,8.703614E-3,-6.412128E-3],"categories":[],"categories_nodes":[],"categories_segments":[],"categories_sizes":[],"default_left":[0,0,0,0,0],"id":99,"left_children":[1,-1,3,-1,-1],"loss_changes":[1.1930082E1,0E0,8.52841E0,0E0,0E0],"parents":[2147483647,0,0,2,2],"right_children":[2,-1,4,-1,-1],"split_conditions":[6.4E1,-4.2922232E-2,-7.861654E0,8.703614E-3,-6.412128E-3],"split_indices":[3,0,6,0,0],"split_type":[0,0,0,0,0],"sum_hessian":[6.555029E2,2.254567E1,6.329573E2,1.3761247E2,4.953448E2],"tree_param":{"num_deleted":"0","num_feature":"15","num_nodes":"5","size_leaf_vector":"1"}},{"base_weights":[-1.08381305E-2,-4.1979123E-2,4.3880895E-1,-2.749586E-3,8.411258E-2,-2.059298E-2,4.6000846E-2],"categories":[],"categories_nodes":[],"categories_segments":[],"categories_sizes":[],"default_left":[0,0,0,0,0,0,0],"id":100,"left_children":[1,3,5,-1,-1,-1,-1],"loss_changes":[9.492824E0,9.280964E0,1.5085421E1,0E0,0E0,0E0,0E0],"parents":[2147483647,0,0,1,1,2,2],"right_children":[2,4,6,-1,-1,-1,-1],"split_conditions":[6.197183E-1,2.2E0,4.12E-2,-2.749586E-3,8.411258E-2,-2.059298E-2,4.6000846E-2],"split_indices":[13,9,11,0,0,0,0],"split_type":[0,0,0,0,0,0,0],"sum_hessian":[6.799681E2,6.3607495E2,4.389315E1,6.325047E2,3.5702436E0,1.4718976E1,2.9174173E1],"tree_param":{"num_deleted":"0","num_feature":"15","num_nodes":"7","size_leaf_vector":"1"}},{"base_weights":[-2.2335103E-2,-3.297088E-2,9.393615E-2,1.0858354E-4,-1.803424E-2],"categories":[],"categories_nodes":[],"categories_segments":[],"categories_sizes":[],"default_left":[0,0,0,0,0],"id":101,"left_children":[1,3,-1,-1,-1],"loss_changes":[1.1122357E1,6.3105335E0,0E0,0E0,0E0],"parents":[2147483647,0,0,1,1],"right_children":[2,4,-1,-1,-1],"split_conditions":[1.6747975E3,1.4357012E1,9.393615E-2,1.0858354E-4,-1.803424E-2],"split_indices":[0,6,0,0,0],"split_type":[0,0,0,0,0],"sum_hessian":[5.9724164E2,5.937151E2,3.5265503E0,5.3196594E2,6.174911E1],"tree_param":{"num_deleted":"0","num_feature":"15","num_nodes":"5","size_leaf_vector":"1"}},{"base_weights":[2.1699104E-2,-1.0889483E-1,2.5550157E-1,-1.1986501E-2,1.9188972E-2,-2.4187928E-2,1.8255215E-2],"categories":[],"categories_nodes":[],"categories_segments":[],"categories_sizes":[],"default_left":[0,0,0,0,0,0,0],"id":102,"left_children":[1,3,5,-1,-1,-1,-1],"loss_changes":[1.9208845E1,2.1437874E1,1.3389737E1,0E0,0E0,0E0,0E0],"parents":[2147483647,0,0,1,1,2,2],"right_children":[2,4,6,-1,-1,-1,-1],"split_conditions":[5.3731346E-1,3.893E-1,-5.94134E0,-1.1986501E-2,1.9188972E-2,-2.4187928E-2,1.8255215E-2],"split_indices":[13,10,4,0,0,0,0],"split_type":[0,0,0,0,0,0,0],"sum_hessian":[6.2877E2,4.0323233E2,2.2553767E2,3.2401138E2,7.9220955E1,2.395146E1,2.0158623E2],"tree_param":{"num_deleted":"0","num_feature":"15","num_nodes":"7","size_leaf_vector":"1"}},{"base_weights":[-1.373272E-2,-3.828444E-2,1.2416695E-2,-1.018745E-2,4.904688E-3],"categories":[],"categories_nodes":[],"categories_segments":[],"categories_sizes":[],"default_left":[0,0,0,0,0],"id":103,"left_children":[1,-1,3,-1,-1],"loss_changes":[1.1738453E1,0E0,9.812968E0,0E0,0E0],"parents":[2147483647,0,0,2,2],"right_children":[2,-1,4,-1,-1],"split_conditions":[1.370289E3,-3.828444E-2,7.7E1,-1.018745E-2,4.904688E-3],"split_indices":[0,0,1,0,0],"split_type":[0,0,0,0,0],"sum_hessian":[6.397725E2,2.3180214E1,6.165923E2,1.7286523E2,4.4372708E2],"tree_param":{"num_deleted":"0","num_feature":"15","num_nodes":"5","size_leaf_vector":"1"}},{"base_weights":[4.2096185E-3,3.7077233E-2,-5.747648E-1,-9.136744E-3,7.5062374E-3,-4.532199E-2,-1.5847089E-3],"categories":[],"categories_nodes":[],"categories_segments":[],"categories_sizes":[],"default_left":[0,0,0,0,0,0,0],"id":104,"left_children":[1,3,5,-1,-1,-1,-1],"loss_changes":[1.2635398E1,1.3391099E1,5.160074E0,0E0,0E0,0E0,0E0],"parents":[2147483647,0,0,1,1,2,2],"right_children":[2,4,6,-1,-1,-1,-1],"split_conditions":[1.6391217E3,1.4728997E3,1.1994467E0,-9.136744E-3,7.5062374E-3,-4.532199E-2,-1.5847089E-3],"split_indices":[2,2,4,0,0,0,0],"split_type":[0,0,0,0,0,0,0],"sum_hessian":[6.66012E2,6.3035144E2,3.5660583E1,2.0859914E2,4.217523E2,2.3804268E1,1.1856314E1],"tree_param":{"num_deleted":"0","num_feature":"15","num_nodes":"7","size_leaf_vector":"1"}},{"base_weights":[-1.7330674E-2,-5.261432E-2,4.910534E-1,-9.753613E-3,4.438601E-3,4.246699E-2,-1.7351383E-2],"categories":[],"categories_nodes":[],"categories_segments":[],"categories_sizes":[],"default_left":[0,0,0,0,0,0,0],"id":105,"left_children":[1,3,5,-1,-1,-1,-1],"loss_changes":[1.2496291E1,1.1389537E1,1.1038231E1,0E0,0E0,0E0,0E0],"parents":[2147483647,0,0,1,1,2,2],"right_children":[2,4,6,-1,-1,-1,-1],"split_conditions":[8.8E1,1.5018853E3,3.68E2,-9.753613E-3,4.438601E-3,4.246699E-2,-1.7351383E-2],"split_indices":[14,2,14,0,0,0,0],"split_type":[0,0,0,0,0,0,0],"sum_hessian":[6.984011E2,6.5320703E2,4.5194065E1,3.346999E2,3.1850714E2,3.3111496E1,1.2082569E1],"tree_param":{"num_deleted":"0","num_feature":"15","num_nodes":"7","size_leaf_vector":"1"}},{"base_weights":[-7.810842E-2,-2.0798099E-1,6.165615E-2,-6.943034E-3,-4.064737E-2,3.9549116E-2,-1.6405511E-3],"categories":[],"categories_nodes":[],"categories_segments":[],"categories_sizes":[],"default_left":[0,0,0,0,0,0,0],"id":106,"left_children":[1,3,5,-1,-1,-1,-1],"loss_changes":[1.1327216E1,1.3910304E1,1.8699104E1,0E0,0E0,0E0,0E0],"parents":[2147483647,0,0,1,1,2,2],"right_children":[2,4,6,-1,-1,-1,-1],"split_conditions":[2.222E-1,1.3943271E-1,2.8054294E-1,-6.943034E-3,-4.064737E-2,3.9549116E-2,-1.6405511E-3],"split_indices":[11,11,11,0,0,0,0],"split_type":[0,0,0,0,0,0,0],"sum_hessian":[6.234576E2,3.2343042E2,3.000272E2,2.8291464E2,4.0515766E1,3.617844E1,2.6384875E2],"tree_param":{"num_deleted":"0","num_feature":"15","num_nodes":"7","size_leaf_vector":"1"}},{"base_weights":[-7.143206E-3,-1.4390297E-1,1.8213183E-1,1.8252436E-2,-1.22983325E-2,2.9011443E-2,3.7693186E-3],"categories":[],"categories_nodes":[],"categories_segments":[],"categories_sizes":[],"default_left":[0,0,0,0,0,0,0],"id":107,"left_children":[1,3,5,-1,-1,-1,-1],"loss_changes":[1.5614715E1,1.4387421E1,1.0086052E1,0E0,0E0,0E0,0E0],"parents":[2147483647,0,0,1,1,2,2],"right_children":[2,4,6,-1,-1,-1,-1],"split_conditions":[4.952E-1,1.4669725E3,6.286E-1,1.8252436E-2,-1.22983325E-2,2.9011443E-2,3.7693186E-3],"split_indices":[12,2,12,0,0,0,0],"split_type":[0,0,0,0,0,0,0],"sum_hessian":[6.0333484E2,3.504773E2,2.5285754E2,5.2242386E1,2.982349E2,6.013726E1,1.9272029E2],"tree_param":{"num_deleted":"0","num_feature":"15","num_nodes":"7","size_leaf_vector":"1"}},{"base_weights":[-1.289291E-3,-1.4832772E-1,1.1126521E-1,2.0667342E-2,-1.13682505E-2,-2.0734693E-3,2.2093926E-2],"categories":[],"categories_nodes":[],"categories_segments":[],"categories_sizes":[],"default_left":[0,0,0,0,0,0,0],"id":108,"left_children":[1,3,5,-1,-1,-1,-1],"loss_changes":[1.1186447E1,9.866734E0,1.7213057E1,0E0,0E0,0E0,0E0],"parents":[2147483647,0,0,1,1,2,2],"right_children":[2,4,6,-1,-1,-1,-1],"split_conditions":[7.3E-2,-1.0018828E0,1.5249408E3,2.0667342E-2,-1.13682505E-2,-2.0734693E-3,2.2093926E-2],"split_indices":[11,11,2,0,0,0,0],"split_type":[0,0,0,0,0,0,0],"sum_hessian":[6.7576465E2,2.9327426E2,3.824904E2,3.0978445E1,2.622958E2,2.5487979E2,1.27610596E2],"tree_param":{"num_deleted":"0","num_feature":"15","num_nodes":"7","size_leaf_vector":"1"}},{"base_weights":[-1.661416E-2,2.6049832E-2,-5.6201816E-2,2.124792E-2,-5.247249E-3],"categories":[],"categories_nodes":[],"categories_segments":[],"categories_sizes":[],"default_left":[0,0,0,0,0],"id":109,"left_children":[1,-1,3,-1,-1],"loss_changes":[1.1701719E1,0E0,1.0233457E1,0E0,0E0],"parents":[2147483647,0,0,2,2],"right_children":[2,-1,4,-1,-1],"split_conditions":[1.3982588E3,2.6049832E-2,3.9473686E-1,2.124792E-2,-5.247249E-3],"split_indices":[0,0,13,0,0],"split_type":[0,0,0,0,0],"sum_hessian":[5.9113763E2,4.312941E1,5.4800824E2,4.5915085E1,5.0209317E2],"tree_param":{"num_deleted":"0","num_feature":"15","num_nodes":"5","size_leaf_vector":"1"}},{"base_weights":[-3.6830746E-2,-5.996775E-2,3.175596E-2,5.3497544E-3,-1.0052475E-2],"categories":[],"categories_nodes":[],"categories_segments":[],"categories_sizes":[],"default_left":[0,0,0,0,0],"id":110,"left_children":[1,3,-1,-1,-1],"loss_changes":[7.694118E0,1.0417198E1,0E0,0E0,0E0],"parents":[2147483647,0,0,1,1],"right_children":[2,4,-1,-1,-1],"split_conditions":[7.6884856E0,-1.4903845E0,3.175596E-2,5.3497544E-3,-1.0052475E-2],"split_indices":[4,4,0,0,0],"split_type":[0,0,0,0,0],"sum_hessian":[5.323656E2,5.135514E2,1.8814186E1,2.2747302E2,2.8607837E2],"tree_param":{"num_deleted":"0","num_feature":"15","num_nodes":"5","size_leaf_vector":"1"}},{"base_weights":[-2.3491107E-2,2.2146046E-1,-1.0448091E-1,-5.0717713E-3,3.4048557E-2,-3.833175E-2,-2.5291715E-3],"categories":[],"categories_nodes":[],"categories_segments":[],"categories_sizes":[],"default_left":[0,0,0,0,0,0,0],"id":111,"left_children":[1,3,5,-1,-1,-1,-1],"loss_changes":[1.2322524E1,2.0112522E1,1.6281693E1,0E0,0E0,0E0,0E0],"parents":[2147483647,0,0,1,1,2,2],"right_children":[2,4,6,-1,-1,-1,-1],"split_conditions":[-2.8100226E0,1.5303878E3,-2.2191925E0,-5.0717713E-3,3.4048557E-2,-3.833175E-2,-2.5291715E-3],"split_indices":[4,2,4,0,0,0,0],"split_type":[0,0,0,0,0,0,0],"sum_hessian":[6.215614E2,1.5422577E2,4.6733563E2,8.721328E1,6.701249E1,4.017058E1,4.2716504E2],"tree_param":{"num_deleted":"0","num_feature":"15","num_nodes":"7","size_leaf_vector":"1"}},{"base_weights":[1.8134603E-2,-7.699077E-2,2.1344477E-1,3.4931009E-3,-1.7359337E-2,3.936865E-2,4.47164E-3],"categories":[],"categories_nodes":[],"categories_segments":[],"categories_sizes":[],"default_left":[0,0,0,0,0,0,0],"id":112,"left_children":[1,3,5,-1,-1,-1,-1],"loss_changes":[1.0926084E1,1.3812928E1,1.2969132E1,0E0,0E0,0E0,0E0],"parents":[2147483647,0,0,1,1,2,2],"right_children":[2,4,6,-1,-1,-1,-1],"split_conditions":[5.968E-1,1.334E-1,-1.4E1,3.4931009E-3,-1.7359337E-2,3.936865E-2,4.47164E-3],"split_indices":[12,12,14,0,0,0,0],"split_type":[0,0,0,0,0,0,0],"sum_hessian":[5.875636E2,3.9487448E2,1.9268915E2,2.501917E2,1.4468279E2,3.853591E1,1.5415324E2],"tree_param":{"num_deleted":"0","num_feature":"15","num_nodes":"7","size_leaf_vector":"1"}},{"base_weights":[2.8263584E-2,3.9624557E-1,-5.9596814E-2,3.183953E-2,-2.3517244E-2,-5.2889332E-2,-2.1280756E-3],"categories":[],"categories_nodes":[],"categories_segments":[],"categories_sizes":[],"default_left":[0,0,0,0,0,0,0],"id":113,"left_children":[1,3,5,-1,-1,-1,-1],"loss_changes":[1.8404617E1,1.7965565E1,8.409154E0,0E0,0E0,0E0,0E0],"parents":[2147483647,0,0,1,1,2,2],"right_children":[2,4,6,-1,-1,-1,-1],"split_conditions":[7.3E1,1.6483695E3,7.4E1,3.183953E-2,-2.3517244E-2,-5.2889332E-2,-2.1280756E-3],"split_indices":[3,2,3,0,0,0,0],"split_type":[0,0,0,0,0,0,0],"sum_hessian":[5.685101E2,1.0973329E2,4.5877676E2,8.889943E1,2.0833862E1,9.637231E0,4.4913953E2],"tree_param":{"num_deleted":"0","num_feature":"15","num_nodes":"7","size_leaf_vector":"1"}},{"base_weights":[2.4165936E-2,1.632716E-2,7.871981E-2,-2.2848344E-3,1.15887895E-2],"categories":[],"categories_nodes":[],"categories_segments":[],"categories_sizes":[],"default_left":[0,0,0,0,0],"id":114,"left_children":[1,3,-1,-1,-1],"loss_changes":[7.4473405E0,7.815139E0,0E0,0E0,0E0],"parents":[2147483647,0,0,1,1],"right_children":[2,4,-1,-1,-1],"split_conditions":[2.2E0,9.2209643E-1,7.871981E-2,-2.2848344E-3,1.15887895E-2],"split_indices":[9,12,0,0,0],"split_type":[0,0,0,0,0],"sum_hessian":[6.6885913E2,6.652889E2,3.5702436E0,5.1336993E2,1.5191898E2],"tree_param":{"num_deleted":"0","num_feature":"15","num_nodes":"5","size_leaf_vector":"1"}},{"base_weights":[1.2399045E-1,-1.98894E-1,1.8385881E-1,-1.582274E-2,9.4215296E-2,5.1031545E-2,6.7495764E-3],"categories":[],"categories_nodes":[],"categories_segments":[],"categories_sizes":[],"default_left":[0,0,0,0,0,0,0],"id":115,"left_children":[1,3,5,-1,-1,-1,-1],"loss_changes":[1.1830774E1,1.7714647E1,2.2967484E1,0E0,0E0,0E0,0E0],"parents":[2147483647,0,0,1,1,2,2],"right_children":[2,4,6,-1,-1,-1,-1],"split_conditions":[-5.492E-1,5.993E-1,-3.46E-1,-1.582274E-2,9.4215296E-2,5.1031545E-2,6.7495764E-3],"split_indices":[12,10,12,0,0,0,0],"split_type":[0,0,0,0,0,0,0],"sum_hessian":[6.1207983E2,9.55516E1,5.1652826E2,9.112842E1,4.423183E0,3.643609E1,4.8009216E2],"tree_param":{"num_deleted":"0","num_feature":"15","num_nodes":"7","size_leaf_vector":"1"}},{"base_weights":[7.6829246E-3,-4.2515045E-1,7.5847834E-2,-7.321743E-2,-1.9018903E-2,2.7924184E-2,1.524326E-3],"categories":[],"categories_nodes":[],"categories_segments":[],"categories_sizes":[],"default_left":[0,0,0,0,0,0,0],"id":116,"left_children":[1,3,5,-1,-1,-1,-1],"loss_changes":[1.983665E1,5.984085E0,1.2218695E1,0E0,0E0,0E0,0E0],"parents":[2147483647,0,0,1,1,2,2],"right_children":[2,4,6,-1,-1,-1,-1],"split_conditions":[-5.8971214E0,1.4921042E3,-3.890251E0,-7.321743E-2,-1.9018903E-2,2.7924184E-2,1.524326E-3],"split_indices":[4,0,4,0,0,0,0],"split_type":[0,0,0,0,0,0,0],"sum_hessian":[6.7318384E2,9.144929E1,5.8173456E2,6.3896127E0,8.505968E1,5.6084194E1,5.256504E2],"tree_param":{"num_deleted":"0","num_feature":"15","num_nodes":"7","size_leaf_vector":"1"}},{"base_weights":[-9.015491E-2,1.21214725E-1,-1.6254833E-1,3.142845E-3,7.367286E-2,-5.3019032E-2,-7.4961153E-3],"categories":[],"categories_nodes":[],"categories_segments":[],"categories_sizes":[],"default_left":[0,0,0,0,0,0,0],"id":117,"left_children":[1,3,5,-1,-1,-1,-1],"loss_changes":[9.098582E0,1.1766493E1,8.33822E0,0E0,0E0,0E0,0E0],"parents":[2147483647,0,0,1,1,2,2],"right_children":[2,4,6,-1,-1,-1,-1],"split_conditions":[1.4711514E3,1.365E0,-2.0743275E1,3.142845E-3,7.367286E-2,-5.3019032E-2,-7.4961153E-3],"split_indices":[0,12,6,0,0,0,0],"split_type":[0,0,0,0,0,0,0],"sum_hessian":[5.944163E2,1.5139484E2,4.430215E2,1.4421277E2,7.1820693E0,1.1976504E1,4.31045E2],"tree_param":{"num_deleted":"0","num_feature":"15","num_nodes":"7","size_leaf_vector":"1"}},{"base_weights":[5.9837744E-2,1.0351837E-1,-1.783121E-1,7.7658114E-3,-9.728744E-3,1.08480025E-2,-1.9771298E-2],"categories":[],"categories_nodes":[],"categories_segments":[],"categories_sizes":[],"default_left":[0,0,0,0,0,0,0],"id":118,"left_children":[1,3,5,-1,-1,-1,-1],"loss_changes":[6.3996296E0,6.0683503E0,6.871767E0,0E0,0E0,0E0,0E0],"parents":[2147483647,0,0,1,1,2,2],"right_children":[2,4,6,-1,-1,-1,-1],"split_conditions":[1.0952E0,1.01E2,-5.804E-1,7.7658114E-3,-9.728744E-3,1.08480025E-2,-1.9771298E-2],"split_indices":[11,3,10,0,0,0,0],"split_type":[0,0,0,0,0,0,0],"sum_hessian":[6.157138E2,5.205389E2,9.5174904E1,4.5521985E2,6.531906E1,3.1544205E1,6.3630695E1],"tree_param":{"num_deleted":"0","num_feature":"15","num_nodes":"7","size_leaf_vector":"1"}},{"base_weights":[-4.2382706E-2,7.2108105E-2,-1.6986263E-1,1.6463267E-2,-9.37523E-3,-1.3028533E-2,2.0858964E-2],"categories":[],"categories_nodes":[],"categories_segments":[],"categories_sizes":[],"default_left":[0,0,0,0,0,0,0],"id":119,"left_children":[1,3,5,-1,-1,-1,-1],"loss_changes":[1.0105697E1,2.1045425E1,1.325902E1,0E0,0E0,0E0,0E0],"parents":[2147483647,0,0,1,1,2,2],"right_children":[2,4,6,-1,-1,-1,-1],"split_conditions":[-9.4401E-1,-6.13E-2,6.808E-1,1.6463267E-2,-9.37523E-3,-1.3028533E-2,2.0858964E-2],"split_indices":[4,10,10,0,0,0,0],"split_type":[0,0,0,0,0,0,0],"sum_hessian":[6.9191547E2,3.6423312E2,3.276823E2,1.8693303E2,1.773001E2,2.900839E2,3.7598427E1],"tree_param":{"num_deleted":"0","num_feature":"15","num_nodes":"7","size_leaf_vector":"1"}},{"base_weights":[2.9389402E-2,-2.6066622E-1,1.0916678E-1,5.7155276E-3,-2.6717447E-2,2.3059217E-2,1.7533893E-3],"categories":[],"categories_nodes":[],"categories_segments":[],"categories_sizes":[],"default_left":[0,0,0,0,0,0,0],"id":120,"left_children":[1,3,5,-1,-1,-1,-1],"loss_changes":[1.3470338E1,1.0919096E1,1.1160074E1,0E0,0E0,0E0,0E0],"parents":[2147483647,0,0,1,1,2,2],"right_children":[2,4,6,-1,-1,-1,-1],"split_conditions":[4.3283582E-1,3.9285713E-1,7.5E1,5.7155276E-3,-2.6717447E-2,2.3059217E-2,1.7533893E-3],"split_indices":[13,13,3,0,0,0,0],"split_type":[0,0,0,0,0,0,0],"sum_hessian":[5.8259515E2,1.2547918E2,4.57116E2,4.905126E1,7.642792E1,8.8070274E1,3.6904572E2],"tree_param":{"num_deleted":"0","num_feature":"15","num_nodes":"7","size_leaf_vector":"1"}},{"base_weights":[2.6279946E-3,-1.0660016E-1,1.5457603E-1,-2.3176514E-3,-2.3546182E-2,-1.6284361E-3,2.8151598E-2],"categories":[],"categories_nodes":[],"categories_segments":[],"categories_sizes":[],"default_left":[0,0,0,0,0,0,0],"id":121,"left_children":[1,3,5,-1,-1,-1,-1],"loss_changes":[1.1178631E1,8.203481E0,1.9278326E1,0E0,0E0,0E0,0E0],"parents":[2147483647,0,0,1,1,2,2],"right_children":[2,4,6,-1,-1,-1,-1],"split_conditions":[5.180723E-1,3.3305295E0,1.5112494E3,-2.3176514E-3,-2.3546182E-2,-1.6284361E-3,2.8151598E-2],"split_indices":[13,4,2,0,0,0,0],"split_type":[0,0,0,0,0,0,0],"sum_hessian":[6.733262E2,3.9145612E2,2.8187003E2,3.2873615E2,6.2719975E1,1.8770117E2,9.416886E1],"tree_param":{"num_deleted":"0","num_feature":"15","num_nodes":"7","size_leaf_vector":"1"}},{"base_weights":[2.7219217E-2,1.1672899E-2,4.8040103E-2,2.961165E-3,-2.236033E-2],"categories":[],"categories_nodes":[],"categories_segments":[],"categories_sizes":[],"default_left":[0,0,0,0,0],"id":122,"left_children":[1,3,-1,-1,-1],"loss_changes":[8.578059E0,1.1681461E1,0E0,0E0,0E0],"parents":[2147483647,0,0,1,1],"right_children":[2,4,-1,-1,-1],"split_conditions":[9.706014E0,4.1446934E0,4.8040103E-2,2.961165E-3,-2.236033E-2],"split_indices":[5,4,0,0,0],"split_type":[0,0,0,0,0],"sum_hessian":[6.4144434E2,6.302225E2,1.1221859E1,5.722874E2,5.7935036E1],"tree_param":{"num_deleted":"0","num_feature":"15","num_nodes":"5","size_leaf_vector":"1"}},{"base_weights":[-2.8799523E-2,-2.1817829E-1,1.3506676E-1,-4.5478523E-2,-8.922838E-3,5.8347456E-2,3.5811057E-3],"categories":[],"categories_nodes":[],"categories_segments":[],"categories_sizes":[],"default_left":[0,0,0,0,0,0,0],"id":123,"left_children":[1,3,5,-1,-1,-1,-1],"loss_changes":[1.8076174E1,8.780625E0,2.021236E1,0E0,0E0,0E0,0E0],"parents":[2147483647,0,0,1,1,2,2],"right_children":[2,4,6,-1,-1,-1,-1],"split_conditions":[8.2E1,6.7E1,6.7E1,-4.5478523E-2,-8.922838E-3,5.8347456E-2,3.5811057E-3],"split_indices":[1,3,3,0,0,0,0],"split_type":[0,0,0,0,0,0,0],"sum_hessian":[5.822945E2,2.7032227E2,3.119722E2,2.0616512E1,2.4970576E2,2.087816E1,2.9109406E2],"tree_param":{"num_deleted":"0","num_feature":"15","num_nodes":"7","size_leaf_vector":"1"}},{"base_weights":[-3.512885E-2,-3.1375766E-1,1.9276291E-2,-2.828863E-2,-2.5402734E-4,5.914057E-2,1.8619427E-4],"categories":[],"categories_nodes":[],"categories_segments":[],"categories_sizes":[],"default_left":[0,0,0,0,0,0,0],"id":124,"left_children":[1,3,5,-1,-1,-1,-1],"loss_changes":[9.613976E0,6.7692394E0,8.9685E0,0E0,0E0,0E0,0E0],"parents":[2147483647,0,0,1,1,2,2],"right_children":[2,4,6,-1,-1,-1,-1],"split_conditions":[-5.238E-1,8.2E1,-4.73E-1,-2.828863E-2,-2.5402734E-4,5.914057E-2,1.8619427E-4],"split_indices":[12,1,12,0,0,0,0],"split_type":[0,0,0,0,0,0,0],"sum_hessian":[6.328254E2,1.03594604E2,5.292308E2,6.123154E1,4.2363064E1,7.562689E0,5.216681E2],"tree_param":{"num_deleted":"0","num_feature":"15","num_nodes":"7","size_leaf_vector":"1"}},{"base_weights":[1.008293E-2,2.2527159E-3,7.2540976E-2,-3.965189E-3,8.296872E-3],"categories":[],"categories_nodes":[],"categories_segments":[],"categories_sizes":[],"default_left":[0,0,0,0,0],"id":125,"left_children":[1,3,-1,-1,-1],"loss_changes":[6.4449615E0,7.177953E0,0E0,0E0,0E0],"parents":[2147483647,0,0,1,1],"right_children":[2,4,-1,-1,-1],"split_conditions":[2.4E0,1.5284489E3,7.2540976E-2,-3.965189E-3,8.296872E-3],"split_indices":[9,2,0,0,0],"split_type":[0,0,0,0,0],"sum_hessian":[6.235838E2,6.2001355E2,3.5702436E0,4.1308444E2,2.0692914E2],"tree_param":{"num_deleted":"0","num_feature":"15","num_nodes":"5","size_leaf_vector":"1"}},{"base_weights":[1.8537957E-2,-1.5842262E-1,2.58167E-1,2.9189657E-2,-1.09119965E-2,3.2403875E-2,2.76566E-3],"categories":[],"categories_nodes":[],"categories_segments":[],"categories_sizes":[],"default_left":[0,0,0,0,0,0,0],"id":126,"left_children":[1,3,5,-1,-1,-1,-1],"loss_changes":[2.294839E1,9.713525E0,1.6344357E1,0E0,0E0,0E0,0E0],"parents":[2147483647,0,0,1,1,2,2],"right_children":[2,4,6,-1,-1,-1,-1],"split_conditions":[5.16129E-1,-1.0302E0,-3.969175E-1,2.9189657E-2,-1.09119965E-2,3.2403875E-2,2.76566E-3],"split_indices":[13,10,4,0,0,0,0],"split_type":[0,0,0,0,0,0,0],"sum_hessian":[5.4100476E2,3.1102283E2,2.2998193E2,1.8504665E1,2.9251816E2,8.606742E1,1.4391452E2],"tree_param":{"num_deleted":"0","num_feature":"15","num_nodes":"7","size_leaf_vector":"1"}},{"base_weights":[6.450456E-4,-2.4770005E-1,3.633348E-2,2.4075214E-2,-1.992714E-2,2.9421821E-2,1.08612534E-4],"categories":[],"categories_nodes":[],"categories_segments":[],"categories_sizes":[],"default_left":[0,0,0,0,0,0,0],"id":127,"left_children":[1,3,5,-1,-1,-1,-1],"loss_changes":[5.778755E0,7.0072613E0,9.98971E0,0E0,0E0,0E0,0E0],"parents":[2147483647,0,0,1,1,2,2],"right_children":[2,4,6,-1,-1,-1,-1],"split_conditions":[-6.773556E0,4.262295E-1,-1.5684804E1,2.4075214E-2,-1.992714E-2,2.9421821E-2,1.08612534E-4],"split_indices":[5,13,6,0,0,0,0],"split_type":[0,0,0,0,0,0,0],"sum_hessian":[6.537123E2,8.188607E1,5.718262E2,1.2223829E1,6.966224E1,3.5839973E1,5.359862E2],"tree_param":{"num_deleted":"0","num_feature":"15","num_nodes":"7","size_leaf_vector":"1"}},{"base_weights":[-4.6390083E-2,-2.2159168E-1,6.957546E-2,-2.5126532E-2,-3.8486524E-3,4.8080552E-2,1.8836382E-3],"categories":[],"categories_nodes":[],"categories_segments":[],"categories_sizes":[],"default_left":[0,0,0,0,0,0,0],"id":128,"left_children":[1,3,5,-1,-1,-1,-1],"loss_changes":[1.1781881E1,8.482259E0,9.857218E0,0E0,0E0,0E0,0E0],"parents":[2147483647,0,0,1,1,2,2],"right_children":[2,4,6,-1,-1,-1,-1],"split_conditions":[-3.230466E0,8.4E1,6.7E1,-2.5126532E-2,-3.8486524E-3,4.8080552E-2,1.8836382E-3],"split_indices":[5,3,3,0,0,0,0],"split_type":[0,0,0,0,0,0,0],"sum_hessian":[5.793571E2,2.3099115E2,3.4836597E2,8.7316124E1,1.4367502E2,1.390803E1,3.3445795E2],"tree_param":{"num_deleted":"0","num_feature":"15","num_nodes":"7","size_leaf_vector":"1"}},{"base_weights":[-2.710133E-3,-9.958414E-2,1.3457572E-1,-1.29383635E-2,2.6597222E-4,2.6139129E-2,-2.7265926E-3],"categories":[],"categories_nodes":[],"categories_segments":[],"categories_sizes":[],"default_left":[0,0,0,0,0,0,0],"id":129,"left_children":[1,3,5,-1,-1,-1,-1],"loss_changes":[8.438308E0,5.512575E0,1.7129831E1,0E0,0E0,0E0,0E0],"parents":[2147483647,0,0,1,1,2,2],"right_children":[2,4,6,-1,-1,-1,-1],"split_conditions":[1.5149504E3,8.2E1,1.5443516E3,-1.29383635E-2,2.6597222E-4,2.6139129E-2,-2.7265926E-3],"split_indices":[2,1,2,0,0,0,0],"split_type":[0,0,0,0,0,0,0],"sum_hessian":[6.346747E2,3.7240982E2,2.622649E2,1.587303E2,2.136795E2,9.061557E1,1.716493E2],"tree_param":{"num_deleted":"0","num_feature":"15","num_nodes":"7","size_leaf_vector":"1"}},{"base_weights":[-4.9376067E-2,-8.399384E-2,2.4686621E-1,1.8970012E-3,-9.729516E-3,2.215953E-2,-2.4109047E-2],"categories":[],