{"learner":{"attributes":{"scikit_learn":"{\"_estimator_type\": \"regressor\"}"},"feature_names":[],"feature_types":[],"gradient_booster":{"model":{"gbtree_model_param":{"num_parallel_tree":"1","num_trees":"200"},"iteration_indptr":[0,1,2,3,4,5,6,7,8,9,10,11,12,13,14,15,16,17,18,19,20,21,22,23,24,25,26,27,28,29,30,31,32,33,34,35,36,37,38,39,40,41,42,43,44,45,46,47,48,49,50,51,52,53,54,55,56,57,58,59,60,61,62,63,64,65,66,67,68,69,70,71,72,73,74,75,76,77,78,79,80,81,82,83,84,85,86,87,88,89,90,91,92,93,94,95,96,97,98,99,100,101,102,103,104,105,106,107,108,109,110,111,112,113,114,115,116,117,118,119,120,121,122,123,124,125,126,127,128,129,130,131,132,133,134,135,136,137,138,139,140,141,142,143,144,145,146,147,148,149,150,151,152,153,154,155,156,157,158,159,160,161,162,163,164,165,166,167,168,169,170,171,172,173,174,175,176,177,178,179,180,181,182,183,184,185,186,187,188,189,190,191,192,193,194,195,196,197,198,199,200],"tree_info":[0,0,0,0,0,0,0,0,0,0,0,0,0,0,0,0,0,0,0,0,0,0,0,0,0,0,0,0,0,0,0,0,0,0,0,0,0,0,0,0,0,0,0,0,0,0,0,0,0,0,0,0,0,0,0,0,0,0,0,0,0,0,0,0,0,0,0,0,0,0,0,0,0,0,0,0,0,0,0,0,0,0,0,0,0,0,0,0,0,0,0,0,0,0,0,0,0,0,0,0,0,0,0,0,0,0,0,0,0,0,0,0,0,0,0,0,0,0,0,0,0,0,0,0,0,0,0,0,0,0,0,0,0,0,0,0,0,0,0,0,0,0,0,0,0,0,0,0,0,0,0,0,0,0,0,0,0,0,0,0,0,0,0,0,0,0,0,0,0,0,0,0,0,0,0,0,0,0,0,0,0,0,0,0,0,0,0,0,0,0,0,0,0,0,0,0,0,0,0,0],"trees":[{"base_weights":[-3.0718185E-2,-5.6175256E-1,3.7322614E-1,-3.549342E-1,-7.84454E-1,-1.1538979E-1,8.3399934E-1,1.8228339E-2,-1.7872712E-2,-4.4205606E-2,-2.0310445E-2,1.6379401E-2,-1.37807E-2,4.4736606E-3,5.036427E-2],"categories":[],"categories_nodes":[],"categories_segments":[],"categories_sizes":[],"default_left":[0,0,0,0,0,0,0,0,0,0,0,0,0,0,0],"id":0,"left_children":[1,3,5,7,9,11,13,-1,-1,-1,-1,-1,-1,-1,-1],"loss_changes":[2.0373071E2,1.5545334E1,1.2272567E2,1.9911867E1,9.905907E0,3.447809E1,8.407353E1,0E0,0E0,0E0,0E0,0E0,0E0,0E0,0E0],"parents":[2147483647,0,0,1,1,2,2,3,3,4,4,5,5,6,6],"right_children":[2,4,6,8,10,12,14,-1,-1,-1,-1,-1,-1,-1,-1],"split_conditions":[8.2E1,1E0,1.5144066E3,1.3982588E3,-5.7685096E-2,1.4324357E3,5.185185E-1,1.8228339E-2,-1.7872712E-2,-4.4205606E-2,-2.0310445E-2,1.6379401E-2,-1.37807E-2,4.4736606E-3,5.036427E-2],"split_indices":[3,11,0,0,12,2,13,0,0,0,0,0,0,0,0],"split_type":[0,0,0,0,0,0,0,0,0,0,0,0,0,0,0],"sum_hessian":[9.26028E2,3.980519E2,5.2797614E2,2.2252373E2,1.7552817E2,2.6061163E2,2.6736447E2,1.781708E1,2.0470665E2,6.465915E1,1.1086902E2,7.632476E1,1.8428688E2,1.0468548E2,1.62679E2],"tree_param":{"num_deleted":"0","num_feature":"15","num_nodes":"15","size_leaf_vector":"1"}},{"base_weights":[-9.828041E-3,-3.275665E-1,5.8149743E-1,-3.880246E-1,5.3515255E-2,1.1301335E0,-6.343016E-2,1.0043002E-2,-1.9795012E-2,1.0429245E-2,6.930565E-2,2.747287E-2,-1.8411547E-2],"categories":[],"categories_nodes":[],"categories_segments":[],"categories_sizes":[],"default_left":[0,0,0,0,0,0,0,0,0,0,0,0,0],"id":1,"left_children":[1,3,5,7,-1,9,11,-1,-1,-1,-1,-1,-1],"loss_changes":[1.8283667E2,6.994164E1,1.212333E2,4.382238E1,0E0,9.120337E1,5.3736977E1,0E0,0E0,0E0,0E0,0E0,0E0],"parents":[2147483647,0,0,1,1,2,2,3,3,5,5,6,6],"right_children":[2,4,6,8,-1,10,12,-1,-1,-1,-1,-1,-1],"split_conditions":[9.2E1,1.6630802E1,7.40482E-1,6.8E1,5.3515255E-2,5.125167E-1,-5.6E1,1.0043002E-2,-1.9795012E-2,1.0429245E-2,6.930565E-2,2.747287E-2,-1.8411547E-2],"split_indices":[3,7,4,1,0,13,14,0,0,0,0,0,0],"split_type":[0,0,0,0,0,0,0,0,0,0,0,0,0],"sum_hessian":[9.489557E2,6.2075586E2,3.281998E2,6.078927E2,1.2863185E1,1.7246054E2,1.5573927E2,8.475504E1,5.2313763E2,7.763224E1,9.48283E1,5.08468E1,1.0489247E2],"tree_param":{"num_deleted":"0","num_feature":"15","num_nodes":"13","size_leaf_vector":"1"}},{"base_weights":[2.0939512E-2,-4.082802E-1,5.0144863E-1,2.3972425E-1,-5.142463E-1,-1.9683605E-1,8.875528E-1,2.506285E-2,-1.0814511E-2,1.1503493E-2,-2.2159811E-2,1.3865171E-2,-1.7354297E-2,6.8964005E-2,1.7312104E-2],"categories":[],"categories_nodes":[],"categories_segments":[],"categories_sizes":[],"default_left":[0,0,0,0,0,0,0,0,0,0,0,0,0,0,0],"id":2,"left_children":[1,3,5,7,9,11,13,-1,-1,-1,-1,-1,-1,-1,-1],"loss_changes":[1.8995648E2,3.490616E1,1.1919266E2,1.7148245E1,1.5368233E1,2.2989613E1,9.8268234E1,0E0,0E0,0E0,0E0,0E0,0E0,0E0,0E0],"parents":[2147483647,0,0,1,1,2,2,3,3,4,4,5,5,6,6],"right_children":[2,4,6,8,10,12,14,-1,-1,-1,-1,-1,-1,-1,-1],"split_conditions":[8.4E1,6.8E1,1.4928887E3,1.1045167E0,1.4112606E3,-1.8933709E0,1.4535858E3,2.506285E-2,-1.0814511E-2,1.1503493E-2,-2.2159811E-2,1.3865171E-2,-1.7354297E-2,6.8964005E-2,1.7312104E-2],"split_indices":[3,1,0,7,2,4,2,0,0,0,0,0,0,0,0],"split_type":[0,0,0,0,0,0,0,0,0,0,0,0,0,0,0],"sum_hessian":[8.97116E2,4.7479993E2,4.223161E2,6.460144E1,4.101985E2,1.5246304E2,2.6985306E2,3.5180454E1,2.9420982E1,1.584031E1,3.9435815E2,4.4615368E1,1.0784768E2,8.323684E1,1.8661623E2],"tree_param":{"num_deleted":"0","num_feature":"15","num_nodes":"15","size_leaf_vector":"1"}},{"base_weights":[-3.7459813E-2,-4.2525747E-1,3.880657E-1,-5.318943E-1,1.1948065E-1,-1.9533172E-1,8.573789E-1,-1.3610434E-2,-3.5330668E-2,-1.9153342E-2,1.734581E-2,5.728401E-3,-1.3895944E-2,4.6255033E-2,-5.220218E-3],"categories":[],"categories_nodes":[],"categories_segments":[],"categories_sizes":[],"default_left":[0,0,0,0,0,0,0,0,0,0,0,0,0,0,0],"id":3,"left_children":[1,3,5,7,9,11,13,-1,-1,-1,-1,-1,-1,-1,-1],"loss_changes":[1.5490295E2,2.9259491E1,1.24706665E2,2.416642E1,1.9429716E1,1.1385224E1,7.582454E1,0E0,0E0,0E0,0E0,0E0,0E0,0E0,0E0],"parents":[2147483647,0,0,1,1,2,2,3,3,4,4,5,5,6,6],"right_children":[2,4,6,8,10,12,14,-1,-1,-1,-1,-1,-1,-1,-1],"split_conditions":[8.5E1,5.4761904E-1,1.5112494E3,4E0,-1E0,-2.0844169E0,3.1362216E0,-1.3610434E-2,-3.5330668E-2,-1.9153342E-2,1.734581E-2,5.728401E-3,-1.3895944E-2,4.6255033E-2,-5.220218E-3],"split_indices":[3,13,0,14,14,4,6,0,0,0,0,0,0,0,0],"split_type":[0,0,0,0,0,0,0,0,0,0,0,0,0,0,0],"sum_hessian":[9.1470386E2,4.785712E2,4.3613266E2,4.0046072E2,7.811047E1,1.9755724E2,2.3857542E2,2.7441776E2,1.2604298E2,2.4727718E1,5.338276E1,6.14506E1,1.3610663E2,1.815731E2,5.700232E1],"tree_param":{"num_deleted":"0","num_feature":"15","num_nodes":"15","size_leaf_vector":"1"}},{"base_weights":[-2.9368619E-2,-5.425601E-1,3.7461472E-1,-8.1071556E-1,-3.0393958E-1,5.259631E-1,-5.563235E-1,-9.88191E-3,-3.556116E-2,-2.6255655E-3,-3.4719035E-2,3.4264077E-3,3.3970553E-2,-2.9248493E-2,5.6849504E-3],"categories":[],"categories_nodes":[],"categories_segments":[],"categories_sizes":[],"default_left":[0,0,0,0,0,0,0,0,0,0,0,0,0,0,0],"id":4,"left_children":[1,3,5,7,9,11,13,-1,-1,-1,-1,-1,-1,-1,-1],"loss_changes":[1.9113977E2,2.3009628E1,7.62672E1,5.4814377E0,3.0758291E1,6.3232628E1,1.0780073E1,0E0,0E0,0E0,0E0,0E0,0E0,0E0,0E0],"parents":[2147483647,0,0,1,1,2,2,3,3,4,4,5,5,6,6],"right_children":[2,4,6,8,10,12,14,-1,-1,-1,-1,-1,-1,-1,-1],"split_conditions":[8.2E1,1.5401029E3,4.265445E0,-4.770152E0,9E0,5.138889E-1,1.6E1,-9.88191E-3,-3.556116E-2,-2.6255655E-3,-3.4719035E-2,3.4264077E-3,3.3970553E-2,-2.9248493E-2,5.6849504E-3],"split_indices":[3,2,4,6,14,13,14,0,0,0,0,0,0,0,0],"split_type":[0,0,0,0,0,0,0,0,0,0,0,0,0,0,0],"sum_hessian":[8.981872E2,3.938069E2,5.0438034E2,1.718812E2,2.2192567E2,4.383373E2,6.6043E1,2.704898E1,1.4483221E2,1.654296E2,5.6496075E1,1.920136E2,2.4632373E2,5.2367443E1,1.3675561E1],"tree_param":{"num_deleted":"0","num_feature":"15","num_nodes":"15","size_leaf_vector":"1"}},{"base_weights":[9.365095E-3,-2.5778636E-1,5.032166E-1,-3.110506E-1,3.9051887E-2,9.8589486E-1,-2.4016331E-1,8.6404756E-4,-2.3390166E-2,5.0916526E-2,3.0612587E-3,-1.9958368E-2,1.132293E-2],"categories":[],"categories_nodes":[],"categories_segments":[],"categories_sizes":[],"default_left":[0,0,0,0,0,0,0,0,0,0,0,0,0],"id":5,"left_children":[1,3,5,7,-1,9,11,-1,-1,-1,-1,-1,-1],"loss_changes":[1.26839355E2,4.4672474E1,1.2391244E2,5.5458355E1,0E0,5.284178E1,2.0989182E1,0E0,0E0,0E0,0E0,0E0,0E0],"parents":[2147483647,0,0,1,1,2,2,3,3,5,5,6,6],"right_children":[2,4,6,8,-1,10,12,-1,-1,-1,-1,-1,-1],"split_conditions":[9.2E1,1.2E0,7.40482E-1,-1.6262131E0,3.9051887E-2,1.5072117E3,1.2266856E1,8.6404756E-4,-2.3390166E-2,5.0916526E-2,3.0612587E-3,-1.9958368E-2,1.132293E-2],"split_indices":[3,9,4,4,0,2,7,0,0,0,0,0,0],"split_type":[0,0,0,0,0,0,0,0,0,0,0,0,0],"sum_hessian":[9.3759216E2,6.121712E2,3.2542096E2,5.9544653E2,1.6724644E1,1.9493466E2,1.304863E2,2.7376865E2,3.2167792E2,1.445223E2,5.0412357E1,8.767735E1,4.280895E1],"tree_param":{"num_deleted":"0","num_feature":"15","num_nodes":"13","size_leaf_vector":"1"}},{"base_weights":[2.333198E-2,-4.2845896E-1,3.6544678E-1,-2.6317394E-1,-8.470249E-1,8.621434E-1,9.41136E-3,-1.6955227E-2,8.23271E-3,-8.239635E-3,-3.9580863E-2,4.529145E-2,5.9019723E-3,1.8064668E-2,-1.3476868E-2],"categories":[],"categories_nodes":[],"categories_segments":[],"categories_sizes":[],"default_left":[0,0,0,0,0,0,0,0,0,0,0,0,0,0,0],"id":6,"left_children":[1,3,5,7,9,11,13,-1,-1,-1,-1,-1,-1,-1,-1],"loss_changes":[1.4250497E2,2.4831352E1,9.2608635E1,2.38421E1,7.341324E0,4.022255E1,5.0448906E1,0E0,0E0,0E0,0E0,0E0,0E0,0E0,0E0],"parents":[2147483647,0,0,1,1,2,2,3,3,4,4,5,5,6,6],"right_children":[2,4,6,8,10,12,14,-1,-1,-1,-1,-1,-1,-1,-1],"split_conditions":[8.2E1,3E0,8.2E1,1.5846997E3,-7.4479213E0,5E0,-5.574423E-1,-1.6955227E-2,8.23271E-3,-8.239635E-3,-3.9580863E-2,4.529145E-2,5.9019723E-3,1.8064668E-2,-1.3476868E-2],"split_indices":[3,11,1,0,7,14,4,0,0,0,0,0,0,0,0],"split_type":[0,0,0,0,0,0,0,0,0,0,0,0,0,0,0],"sum_hessian":[8.978217E2,3.855898E2,5.1223193E2,2.9044333E2,9.5146454E1,2.0674654E2,3.0548538E2,2.1717831E2,7.326503E1,2.2640985E1,7.250547E1,1.4493977E2,6.180677E1,1.3256969E2,1.729157E2],"tree_param":{"num_deleted":"0","num_feature":"15","num_nodes":"15","size_leaf_vector":"1"}},{"base_weights":[4.1578636E-2,-3.690459E-1,3.3448416E-1,-5.842789E-1,3.3211477E-2,-1.2265459E-1,6.874496E-1,2.0512316E-2,-2.7018014E-2,-2.217842E-2,7.47842E-3,-8.762161E-3,3.192762E-2,4.732941E-3,4.2857043E-2],"categories":[],"categories_nodes":[],"categories_segments":[],"categories_sizes":[],"default_left":[0,0,0,0,0,0,0,0,0,0,0,0,0,0,0],"id":7,"left_children":[1,3,5,7,9,11,13,-1,-1,-1,-1,-1,-1,-1,-1],"loss_changes":[1.1530594E2,3.483995E1,9.11539E1,3.0266174E1,1.4858501E1,2.4609375E1,6.776758E1,0E0,0E0,0E0,0E0,0E0,0E0,0E0,0E0],"parents":[2147483647,0,0,1,1,2,2,3,3,4,4,5,5,6,6],"right_children":[2,4,6,8,10,12,14,-1,-1,-1,-1,-1,-1,-1,-1],"split_conditions":[8.2E1,1.5560847E3,1.5112494E3,1.3657228E3,-3.4226842E0,1.8533102E1,5.185185E-1,2.0512316E-2,-2.7018014E-2,-2.217842E-2,7.47842E-3,-8.762161E-3,3.192762E-2,4.732941E-3,4.2857043E-2],"split_indices":[3,0,0,0,5,7,13,0,0,0,0,0,0,0,0],"split_type":[0,0,0,0,0,0,0,0,0,0,0,0,0,0,0],"sum_hessian":[9.3437634E2,3.8771664E2,5.4665967E2,2.4903647E2,1.3868016E2,2.4159323E2,3.0506644E2,1.4849791E1,2.3418668E2,2.2272636E1,1.16407524E2,2.2697733E2,1.4615921E1,1.2922633E2,1.758401E2],"tree_param":{"num_deleted":"0","num_feature":"15","num_nodes":"15","size_leaf_vector":"1"}},{"base_weights":[-2.1838993E-2,5.471264E-1,-1.9975586E-1,-2.7157974E-1,1.0249091E0,6.320695E-1,-2.8831083E-1,-2.8814293E-2,1.1107804E-2,6.154701E-2,1.1736031E-2,7.657479E-3,3.558483E-2,-4.53309E-3,-2.2862487E-2],"categories":[],"categories_nodes":[],"categories_segments":[],"categories_sizes":[],"default_left":[0,0,0,0,0,0,0,0,0,0,0,0,0,0,0],"id":8,"left_children":[1,3,5,7,9,11,13,-1,-1,-1,-1,-1,-1,-1,-1],"loss_changes":[8.8422745E1,8.478084E1,5.1123528E1,2.36521E1,4.493869E1,5.636883E0,2.939056E1,0E0,0E0,0E0,0E0,0E0,0E0,0E0,0E0],"parents":[2147483647,0,0,1,1,2,2,3,3,4,4,5,5,6,6],"right_children":[2,4,6,8,10,12,14,-1,-1,-1,-1,-1,-1,-1,-1],"split_conditions":[1.4623364E3,-4.7181666E-1,-7.8044157E0,9.805602E0,8.4E1,-9.574391E0,4E0,-2.8814293E-2,1.1107804E-2,6.154701E-2,1.1736031E-2,7.657479E-3,3.558483E-2,-4.53309E-3,-2.2862487E-2],"split_indices":[2,5,6,7,1,6,14,0,0,0,0,0,0,0,0],"split_type":[0,0,0,0,0,0,0,0,0,0,0,0,0,0,0],"sum_hessian":[8.4854034E2,1.962011E2,6.523393E2,7.42127E1,1.219884E2,5.5678833E1,5.966604E2,3.8785717E1,3.542698E1,6.3881126E1,5.8107277E1,2.8256182E1,2.7422653E1,3.7920248E2,2.1745795E2],"tree_param":{"num_deleted":"0","num_feature":"15","num_nodes":"15","size_leaf_vector":"1"}},{"base_weights":[2.7431479E-2,-3.7223092E-1,3.3808893E-1,1.152176E-1,-4.775087E-1,-1.14349894E-1,7.072506E-1,2.5420165E-2,-1.123691E-2,2.0355E-2,-2.1613307E-2,2.2982948E-2,-9.934959E-3,5.4286104E-2,1.3464977E-2],"categories":[],"categories_nodes":[],"categories_segments":[],"categories_sizes":[],"default_left":[0,0,0,0,0,0,0,0,0,0,0,0,0,0,0],"id":9,"left_children":[1,3,5,7,9,11,13,-1,-1,-1,-1,-1,-1,-1,-1],"loss_changes":[1.1824798E2,2.2055618E1,9.038011E1,1.939746E1,2.4691261E1,2.4874704E1,6.59254E1,0E0,0E0,0E0,0E0,0E0,0E0,0E0,0E0],"parents":[2147483647,0,0,1,1,2,2,3,3,4,4,5,5,6,6],"right_children":[2,4,6,8,10,12,14,-1,-1,-1,-1,-1,-1,-1,-1],"split_conditions":[8.2E1,6.8E1,1.5112494E3,-1.0845141E0,1.3657228E3,-7.4365705E-1,1.4623364E3,2.5420165E-2,-1.123691E-2,2.0355E-2,-2.1613307E-2,2.2982948E-2,-9.934959E-3,5.4286104E-2,1.3464977E-2],"split_indices":[3,1,0,7,0,12,2,0,0,0,0,0,0,0,0],"split_type":[0,0,0,0,0,0,0,0,0,0,0,0,0,0,0],"sum_hessian":[9.282352E2,4.0492224E2,5.23313E2,7.171949E1,3.3320273E2,2.3885677E2,2.844562E2,2.78676E1,4.385189E1,1.4849791E1,3.1835294E2,3.24759E1,2.0638086E2,9.170604E1,1.9275017E2],"tree_param":{"num_deleted":"0","num_feature":"15","num_nodes":"15","size_leaf_vector":"1"}},{"base_weights":[-3.807824E-2,-3.2099202E-1,4.3149054E-1,-3.7762135E-1,3.6902267E-2,8.692415E-1,-1.8667309E-1,1.7415216E-2,-1.7380595E-2,8.493215E-3,5.300953E-2,1.23730535E-2,-1.6684039E-2],"categories":[],"categories_nodes":[],"categories_segments":[],"categories_sizes":[],"default_left":[0,0,0,0,0,0,0,0,0,0,0,0,0],"id":10,"left_children":[1,3,5,7,-1,9,11,-1,-1,-1,-1,-1,-1],"loss_changes":[1.2356185E2,4.4988445E1,9.668742E1,2.830027E1,0E0,5.8655807E1,1.926622E1,0E0,0E0,0E0,0E0,0E0,0E0],"parents":[2147483647,0,0,1,1,2,2,3,3,5,5,6,6],"right_children":[2,4,6,8,-1,10,12,-1,-1,-1,-1,-1,-1],"split_conditions":[9.2E1,1.2E0,7.40482E-1,6.6E1,3.6902267E-2,5.125167E-1,-5.6E1,1.7415216E-2,-1.7380595E-2,8.493215E-3,5.300953E-2,1.23730535E-2,-1.6684039E-2],"split_indices":[3,9,4,1,0,13,14,0,0,0,0,0,0],"split_type":[0,0,0,0,0,0,0,0,0,0,0,0,0],"sum_hessian":[9.0559204E2,5.674825E2,3.381096E2,5.507578E2,1.6724644E1,1.9508595E2,1.4302362E2,3.0799946E1,5.199579E2,8.7139725E1,1.0794623E2,4.4064762E1,9.8958855E1],"tree_param":{"num_deleted":"0","num_feature":"15","num_nodes":"13","size_leaf_vector":"1"}},{"base_weights":[-5.377216E-2,-4.3507E-1,2.891988E-1,3.2946333E-1,-4.9532235E-1,-1.4719722E-1,6.31633E-1,2.0065004E-2,3.3291618E-4,1.4242505E-2,-2.166405E-2,-9.696892E-3,2.776893E-2,4.711054E-2,9.535242E-3],"categories":[],"categories_nodes":[],"categories_segments":[],"categories_sizes":[],"default_left":[0,0,0,0,0,0,0,0,0,0,0,0,0,0,0],"id":11,"left_children":[1,3,5,7,9,11,13,-1,-1,-1,-1,-1,-1,-1,-1],"loss_changes":[1.2519529E2,2.2810234E1,7.660085E1,2.176609E0,1.903556E1,2.05945E1,5.7904747E1,0E0,0E0,0E0,0E0,0E0,0E0,0E0,0E0],"parents":[2147483647,0,0,1,1,2,2,3,3,4,4,5,5,6,6],"right_children":[2,4,6,8,10,12,14,-1,-1,-1,-1,-1,-1,-1,-1],"split_conditions":[8.3E1,6.6E1,1.5112494E3,2E0,1.3657228E3,1.8533102E1,1.4623364E3,2.0065004E-2,3.3291618E-4,1.4242505E-2,-2.166405E-2,-9.696892E-3,2.776893E-2,4.711054E-2,9.535242E-3],"split_indices":[3,1,0,11,0,7,2,0,0,0,0,0,0,0,0],"split_type":[0,0,0,0,0,0,0,0,0,0,0,0,0,0,0],"sum_hessian":[9.337947E2,4.406641E2,4.9313055E2,2.827464E1,4.1238943E2,2.1982663E2,2.7330392E2,1.4016383E1,1.4258257E1,1.711946E1,3.9527E2,2.0515189E2,1.4674743E1,1.04391106E2,1.6891283E2],"tree_param":{"num_deleted":"0","num_feature":"15","num_nodes":"15","size_leaf_vector":"1"}},{"base_weights":[-1.0384911E-2,-2.7411586E-1,4.1297194E-1,3.875894E-2,-4.9669394E-1,-2.0618111E-1,6.6357726E-1,1.8527623E-2,-8.922619E-3,-2.9315006E-2,-6.184959E-3,1.4502713E-2,-1.5238338E-2,-3.0284976E-3,4.005943E-2],"categories":[],"categories_nodes":[],"categories_segments":[],"categories_sizes":[],"default_left":[0,0,0,0,0,0,0,0,0,0,0,0,0,0,0],"id":12,"left_children":[1,3,5,7,9,11,13,-1,-1,-1,-1,-1,-1,-1,-1],"loss_changes":[9.683867E1,3.7427135E1,5.3315727E1,2.7149952E1,2.3925064E1,1.2106073E1,6.0844337E1,0E0,0E0,0E0,0E0,0E0,0E0,0E0,0E0],"parents":[2147483647,0,0,1,1,2,2,3,3,4,4,5,5,6,6],"right_children":[2,4,6,8,10,12,14,-1,-1,-1,-1,-1,-1,-1,-1],"split_conditions":[5.3488374E-1,0E0,-2.3287463E0,-2.294966E0,8.2E1,-5.5857067E0,1.4996561E3,1.8527623E-2,-8.922619E-3,-2.9315006E-2,-6.184959E-3,1.4502713E-2,-1.5238338E-2,-3.0284976E-3,4.005943E-2],"split_indices":[13,14,5,4,3,5,0,0,0,0,0,0,0,0,0],"split_type":[0,0,0,0,0,0,0,0,0,0,0,0,0,0,0],"sum_hessian":[8.43157E2,5.2212714E2,3.2102985E2,2.2115837E2,3.0096875E2,9.311193E1,2.2791792E2,8.085651E1,1.4030186E2,1.6993083E2,1.3103792E2,1.8856592E1,7.425533E1,7.441691E1,1.5350102E2],"tree_param":{"num_deleted":"0","num_feature":"15","num_nodes":"15","size_leaf_vector":"1"}},{"base_weights":[6.327342E-3,-7.2253115E-2,1.1150926E0,2.2368573E-1,-3.0606577E-1,1.3869796E0,-4.2876275E-3,-1.06310975E-2,1.5715363E-2,3.3359557E-2,-1.4167158E-2,1.1097569E-2,6.9704875E-2],"categories":[],"categories_nodes":[],"categories_segments":[],"categories_sizes":[],"default_left":[0,0,0,0,0,0,0,0,0,0,0,0,0],"id":13,"left_children":[1,3,5,7,9,11,-1,-1,-1,-1,-1,-1,-1],"loss_changes":[8.18089E1,6.1555016E1,2.2433815E1,3.3909847E1,3.0717896E1,1.459584E1,0E0,0E0,0E0,0E0,0E0,0E0,0E0],"parents":[2147483647,0,0,1,1,2,2,3,3,4,4,5,5],"right_children":[2,4,6,8,10,12,-1,-1,-1,-1,-1,-1,-1],"split_conditions":[1.8504444E1,-1.7967218E0,8.5E1,4.3283582E-1,1.3622886E3,-1.8670323E0,-4.2876275E-3,-1.06310975E-2,1.5715363E-2,3.3359557E-2,-1.4167158E-2,1.1097569E-2,6.9704875E-2],"split_indices":[7,4,14,13,2,5,0,0,0,0,0,0,0],"split_type":[0,0,0,0,0,0,0,0,0,0,0,0,0],"sum_hessian":[9.158618E2,8.657242E2,5.0137627E1,3.8232794E2,4.8339627E2,3.9691612E1,1.0446014E1,9.645366E1,2.8587427E2,1.1637442E1,4.7175882E2,1.4819307E1,2.4872303E1],"tree_param":{"num_deleted":"0","num_feature":"15","num_nodes":"13","size_leaf_vector":"1"}},{"base_weights":[-2.5683513E-3,-3.5710034E-1,2.4072629E-1,1.8422952E-1,-4.6660182E-1,5.0125086E-1,-1.8151146E-1,2.4444746E-2,-8.908984E-3,-1.03142625E-2,-2.8954433E-2,-2.0601556E-2,2.5234781E-2,4.3973536E-3,-1.4193924E-2],"categories":[],"categories_nodes":[],"categories_segments":[],"categories_sizes":[],"default_left":[0,0,0,0,0,0,0,0,0,0,0,0,0,0,0],"id":14,"left_children":[1,3,5,7,9,11,13,-1,-1,-1,-1,-1,-1,-1,-1],"loss_changes":[8.380173E1,2.446658E1,6.447991E1,1.4683606E1,1.5601524E1,5.126275E1,1.2020992E1,0E0,0E0,0E0,0E0,0E0,0E0,0E0,0E0],"parents":[2147483647,0,0,1,1,2,2,3,3,4,4,5,5,6,6],"right_children":[2,4,6,8,10,12,14,-1,-1,-1,-1,-1,-1,-1,-1],"split_conditions":[8.2E1,6.8E1,1E0,-1.0845141E0,1E0,-1.0667425E1,-1.0811563E0,2.4444746E-2,-8.908984E-3,-1.03142625E-2,-2.8954433E-2,-2.0601556E-2,2.5234781E-2,4.3973536E-3,-1.4193924E-2],"split_indices":[3,1,14,7,11,7,4,0,0,0,0,0,0,0,0],"split_type":[0,0,0,0,0,0,0,0,0,0,0,0,0,0,0],"sum_hessian":[9.475902E2,3.8335187E2,5.6423834E2,6.312059E1,3.202313E2,3.4755078E2,2.1668758E2,2.78676E1,3.5252995E1,1.9004929E2,1.30182E2,3.5276836E1,3.1227393E2,8.2448845E1,1.3423874E2],"tree_param":{"num_deleted":"0","num_feature":"15","num_nodes":"15","size_leaf_vector":"1"}},{"base_weights":[-8.697495E-3,-3.2447115E-1,2.7080268E-1,-1.1304364E-1,-5.172872E-1,-2.797942E-1,4.940394E-1,-2.3714755E-2,5.1719025E-3,1.2492077E-2,-2.2951085E-2,2.745551E-3,-1.6816845E-2,2.6541566E-2,-1.0045134E-2],"categories":[],"categories_nodes":[],"categories_segments":[],"categories_sizes":[],"default_left":[0,0,0,0,0,0,0,0,0,0,0,0,0,0,0],"id":15,"left_children":[1,3,5,7,9,11,13,-1,-1,-1,-1,-1,-1,-1,-1],"loss_changes":[8.619895E1,1.7986664E1,6.536368E1,2.8131413E1,1.3229225E1,8.047893E0,4.9125862E1,0E0,0E0,0E0,0E0,0E0,0E0,0E0,0E0],"parents":[2147483647,0,0,1,1,2,2,3,3,4,4,5,5,6,6],"right_children":[2,4,6,8,10,12,14,-1,-1,-1,-1,-1,-1,-1,-1],"split_conditions":[8.3E1,-1.0811563E0,1.4846572E3,-5.8971214E0,-6E0,-2.9955494E-1,3.1362216E0,-2.3714755E-2,5.1719025E-3,1.2492077E-2,-2.2951085E-2,2.745551E-3,-1.6816845E-2,2.6541566E-2,-1.0045134E-2],"split_indices":[3,4,0,4,11,12,6,0,0,0,0,0,0,0,0],"split_type":[0,0,0,0,0,0,0,0,0,0,0,0,0,0,0],"sum_hessian":[9.5271454E2,4.464235E2,5.0629105E2,2.2201448E2,2.24409E2,1.4517859E2,3.6111246E2,6.867798E1,1.533365E2,1.0842261E1,2.1356674E2,4.351181E1,1.0166677E2,2.9526456E2,6.584791E1],"tree_param":{"num_deleted":"0","num_feature":"15","num_nodes":"15","size_leaf_vector":"1"}},{"base_weights":[-6.4991578E-3,-2.220702E-1,3.8802078E-1,6.170836E-1,-2.7501002E-1,8.527303E-1,-4.8182667E-3,4.0020667E-2,-5.8083036E-3,-5.61085E-3,-2.1767845E-2,4.1457415E-2,2.10827E-3,-1.9303448E-2,2.2089167E-2],"categories":[],"categories_nodes":[],"categories_segments":[],"categories_sizes":[],"default_left":[0,0,0,0,0,0,0,0,0,0,0,0,0,0,0],"id":16,"left_children":[1,3,5,7,9,11,13,-1,-1,-1,-1,-1,-1,-1,-1],"loss_changes":[8.073764E1,2.9298101E1,6.129872E1,1.346879E1,2.0321568E1,2.1942764E1,5.4761723E1,0E0,0E0,0E0,0E0,0E0,0E0,0E0,0E0],"parents":[2147483647,0,0,1,1,2,2,3,3,4,4,5,5,6,6],"right_children":[2,4,6,8,10,12,14,-1,-1,-1,-1,-1,-1,-1,-1],"split_conditions":[5.3125E-1,-2E-1,5.604928E-1,5E0,5E0,6.8227994E-1,1.5219114E3,4.0020667E-2,-5.8083036E-3,-5.61085E-3,-2.1767845E-2,4.1457415E-2,2.10827E-3,-1.9303448E-2,2.2089167E-2],"split_indices":[13,10,6,14,14,12,0,0,0,0,0,0,0,0,0],"split_type":[0,0,0,0,0,0,0,0,0,0,0,0,0,0,0],"sum_hessian":[9.2517084E2,6.0166064E2,3.235102E2,2.8115961E1,5.735447E2,1.4176309E2,1.8174709E2,1.6211445E1,1.1904516E1,3.943896E2,1.7915509E2,1.1240587E2,2.9357224E1,9.869904E1,8.304805E1],"tree_param":{"num_deleted":"0","num_feature":"15","num_nodes":"15","size_leaf_vector":"1"}},{"base_weights":[-1.8943517E-2,-3.389188E-1,2.1717425E-1,1.15702756E-1,-4.391313E-1,3.4491062E-1,-3.30833E-1,2.3654949E-2,-9.947794E-3,-2.0898676E-2,-9.601692E-4,-1.6774163E-2,1.8974207E-2,-1.8192971E-2,1.5202046E-2],"categories":[],"categories_nodes":[],"categories_segments":[],"categories_sizes":[],"default_left":[0,0,0,0,0,0,0,0,0,0,0,0,0,0,0],"id":17,"left_children":[1,3,5,7,9,11,13,-1,-1,-1,-1,-1,-1,-1,-1],"loss_changes":[7.3169556E1,1.9331406E1,4.0418503E1,1.627624E1,1.1584633E1,4.7723473E1,1.190883E1,0E0,0E0,0E0,0E0,0E0,0E0,0E0,0E0],"parents":[2147483647,0,0,1,1,2,2,3,3,4,4,5,5,6,6],"right_children":[2,4,6,8,10,12,14,-1,-1,-1,-1,-1,-1,-1,-1],"split_conditions":[8.1E1,6.8E1,4.726009E0,-1.0845141E0,3.4603837E0,-1.0667425E1,1.8533102E1,2.3654949E-2,-9.947794E-3,-2.0898676E-2,-9.601692E-4,-1.6774163E-2,1.8974207E-2,-1.8192971E-2,1.5202046E-2],"split_indices":[3,1,6,7,6,7,7,0,0,0,0,0,0,0,0],"split_type":[0,0,0,0,0,0,0,0,0,0,0,0,0,0,0],"sum_hessian":[9.4477747E2,3.9893527E2,5.458422E2,7.171949E1,3.272158E2,4.4626785E2,9.957437E1,2.78676E1,4.385189E1,2.6992603E2,5.7289764E1,6.0744625E1,3.8552322E2,8.846656E1,1.1107811E1],"tree_param":{"num_deleted":"0","num_feature":"15","num_nodes":"15","size_leaf_vector":"1"}},{"base_weights":[1.1610092E-2,-3.4559545E-1,2.6220062E-1,-6.9347665E-2,-4.8204917E-1,-1.1407793E-1,5.62135E-1,9.742728E-3,-1.3276728E-2,7.835878E-3,-2.165602E-2,2.2305548E-3,-2.7587911E-2,2.8564202E-2,-1.605801E-2],"categories":[],"categories_nodes":[],"categories_segments":[],"categories_sizes":[],"default_left":[0,0,0,0,0,0,0,0,0,0,0,0,0,0,0],"id":18,"left_children":[1,3,5,7,9,11,13,-1,-1,-1,-1,-1,-1,-1,-1],"loss_changes":[8.3978806E1,1.4185879E1,6.2961407E1,1.2634244E1,1.1614037E1,2.533256E1,4.8639275E1,0E0,0E0,0E0,0E0,0E0,0E0,0E0,0E0],"parents":[2147483647,0,0,1,1,2,2,3,3,4,4,5,5,6,6],"right_children":[2,4,6,8,10,12,14,-1,-1,-1,-1,-1,-1,-1,-1],"split_conditions":[8.1E1,-2E0,1.5112494E3,-4.1544235E-1,-1.2563207E1,4.8890948E-1,3.3417604E0,9.742728E-3,-1.3276728E-2,7.835878E-3,-2.165602E-2,2.2305548E-3,-2.7587911E-2,2.8564202E-2,-1.605801E-2],"split_indices":[3,14,0,6,7,12,4,0,0,0,0,0,0,0,0],"split_type":[0,0,0,0,0,0,0,0,0,0,0,0,0,0,0],"sum_hessian":[9.1403357E2,3.749746E2,5.3905896E2,1.2996388E2,2.4501073E2,2.4239789E2,2.966611E2,5.9693356E1,7.027053E1,1.750061E1,2.2751012E2,1.9553964E2,4.685824E1,2.5893112E2,3.772995E1],"tree_param":{"num_deleted":"0","num_feature":"15","num_nodes":"15","size_leaf_vector":"1"}},{"base_weights":[5.397096E-2,-1.6722956E-1,4.7382382E-1,-2.6545015E-1,6.3694227E-1,9.1137546E-1,-1.2613244E-1,-1.675045E-2,-1.2983697E-3,-3.0379028E-3,5.6527734E-2,8.394986E-3,5.313734E-2,-1.2005535E-2,3.1385545E-2],"categories":[],"categories_nodes":[],"categories_segments":[],"categories_sizes":[],"default_left":[0,0,0,0,0,0,0,0,0,0,0,0,0,0,0],"id":19,"left_children":[1,3,5,7,9,11,13,-1,-1,-1,-1,-1,-1,-1,-1],"loss_changes":[8.8147026E1,5.129952E1,8.724742E1,1.9995926E1,4.081369E1,5.242067E1,2.6358742E1,0E0,0E0,0E0,0E0,0E0,0E0,0E0,0E0],"parents":[2147483647,0,0,1,1,2,2,3,3,4,4,5,5,6,6],"right_children":[2,4,6,8,10,12,14,-1,-1,-1,-1,-1,-1,-1,-1],"split_conditions":[9.2E1,1.2939966E1,7.40482E-1,1.5453698E3,-2.580783E0,1.5112494E3,6.4935064E-1,-1.675045E-2,-1.2983697E-3,-3.0379028E-3,5.6527734E-2,8.394986E-3,5.313734E-2,-1.2005535E-2,3.1385545E-2],"split_indices":[3,7,4,2,5,0,13,0,0,0,0,0,0,0,0],"split_type":[0,0,0,0,0,0,0,0,0,0,0,0,0,0,0],"sum_hessian":[9.2688873E2,6.1178735E2,3.1510135E2,5.523615E2,5.9425854E1,1.786107E2,1.3649066E2,3.273759E2,2.2498563E2,3.662046E1,2.2805395E1,7.3321335E1,1.0528936E2,1.21351524E2,1.5139142E1],"tree_param":{"num_deleted":"0","num_feature":"15","num_nodes":"15","size_leaf_vector":"1"}},{"base_weights":[9.491011E-3,-4.7907766E-2,9.5227134E-1,2.0705503E-1,-2.238849E-1,5.3251768E-3,4.940141E-2,-2.6270284E-3,2.4976678E-2,-3.4615868E-3,-2.4132986E-2],"categories":[],"categories_nodes":[],"categories_segments":[],"categories_sizes":[],"default_left":[0,0,0,0,0,0,0,0,0,0,0],"id":20,"left_children":[1,3,5,7,9,-1,-1,-1,-1,-1,-1],"loss_changes":[5.1314514E1,4.074552E1,1.0630402E1,4.283718E1,2.7292002E1,0E0,0E0,0E0,0E0,0E0,0E0],"parents":[2147483647,0,0,1,1,2,2,3,3,4,4],"right_children":[2,4,6,8,10,-1,-1,-1,-1,-1,-1],"split_conditions":[1.8533102E1,-1.7967218E0,-2.580783E0,5.125167E-1,3.2919555E0,5.3251768E-3,4.940141E-2,-2.6270284E-3,2.4976678E-2,-3.4615868E-3,-2.4132986E-2],"split_indices":[7,4,5,13,5,0,0,0,0,0,0],"split_type":[0,0,0,0,0,0,0,0,0,0,0],"sum_hessian":[9.2614264E2,8.8372925E2,4.2413387E1,3.600112E2,5.23718E2,1.5413021E1,2.7000366E1,2.2384703E2,1.3616417E2,3.953505E2,1.2836754E2],"tree_param":{"num_deleted":"0","num_feature":"15","num_nodes":"11","size_leaf_vector":"1"}},{"base_weights":[7.0948794E-2,-1.2060699E-1,4.1645604E-1,2.1448016E-1,-3.3540726E-1,-5.0474063E-2,6.733269E-1,1.698789E-2,-1.6057359E-2,2.3184976E-2,-1.5828094E-2,8.676402E-3,-1.5237763E-2,3.6641244E-2,-9.4566755E-3],"categories":[],"categories_nodes":[],"categories_segments":[],"categories_sizes":[],"default_left":[0,0,0,0,0,0,0,0,0,0,0,0,0,0,0],"id":21,"left_children":[1,3,5,7,9,11,13,-1,-1,-1,-1,-1,-1,-1,-1],"loss_changes":[6.136506E1,4.404451E1,4.0006256E1,3.3336094E1,2.31805E1,1.2331177E1,4.980983E1,0E0,0E0,0E0,0E0,0E0,0E0,0E0,0E0],"parents":[2147483647,0,0,1,1,2,2,3,3,4,4,5,5,6,6],"right_children":[2,4,6,8,10,12,14,-1,-1,-1,-1,-1,-1,-1,-1],"split_conditions":[5.3125E-1,-2.294966E0,-1.3513219E0,9E0,-2E-1,8.7E1,4.265445E0,1.698789E-2,-1.6057359E-2,2.3184976E-2,-1.5828094E-2,8.676402E-3,-1.5237763E-2,3.6641244E-2,-9.4566755E-3],"split_indices":[13,4,5,14,10,1,4,0,0,0,0,0,0,0,0],"split_type":[0,0,0,0,0,0,0,0,0,0,0,0,0,0,0],"sum_hessian":[9.0608295E2,5.879329E2,3.1815002E2,2.2966881E2,3.5826413E2,1.1633064E2,2.018194E2,1.7400488E2,5.566393E1,1.5758437E1,3.4250568E2,6.6582306E1,4.9748333E1,1.5925099E2,4.2568398E1],"tree_param":{"num_deleted":"0","num_feature":"15","num_nodes":"15","size_leaf_vector":"1"}},{"base_weights":[1.8654235E-2,-2.5761485E-1,2.4596699E-1,-1.2304236E-1,-5.34668E-1,-1.4532344E-1,6.1328024E-1,1.7180407E-3,-3.053675E-2,6.306989E-3,-2.7509725E-2,1.5867747E-4,-2.481963E-2,3.1252883E-2,-2.314738E-2],"categories":[],"categories_nodes":[],"categories_segments":[],"categories_sizes":[],"default_left":[0,0,0,0,0,0,0,0,0,0,0,0,0,0,0],"id":22,"left_children":[1,3,5,7,9,11,13,-1,-1,-1,-1,-1,-1,-1,-1],"loss_changes":[6.024918E1,1.5371439E1,7.6644325E1,3.3062527E1,1.5939568E1,1.8778706E1,6.021196E1,0E0,0E0,0E0,0E0,0E0,0E0,0E0,0E0],"parents":[2147483647,0,0,1,1,2,2,3,3,4,4,5,5,6,6],"right_children":[2,4,6,8,10,12,14,-1,-1,-1,-1,-1,-1,-1,-1],"split_conditions":[8.2E1,4E0,1.5112494E3,3.2166555E0,1.450057E3,4.8890948E-1,6.6855574E0,1.7180407E-3,-3.053675E-2,6.306989E-3,-2.7509725E-2,1.5867747E-4,-2.481963E-2,3.1252883E-2,-2.314738E-2],"split_indices":[3,14,0,5,0,12,5,0,0,0,0,0,0,0,0],"split_type":[0,0,0,0,0,0,0,0,0,0,0,0,0,0,0],"sum_hessian":[9.3528174E2,4.214565E2,5.138252E2,2.953339E2,1.2612261E2,2.5230394E2,2.6152127E2,2.4342921E2,5.190468E1,2.2771034E1,1.0335158E2,2.0104002E2,5.1263912E1,2.3283113E2,2.8690159E1],"tree_param":{"num_deleted":"0","num_feature":"15","num_nodes":"15","size_leaf_vector":"1"}},{"base_weights":[4.0441486E-3,-6.943855E-2,1.0390407E0,-2.6745754E-1,1.4365217E-1,5.9356432E-2,2.618825E-1,-5.3537115E-3,-2.4590803E-2,1.0896934E-3,4.8295703E-2,1.5578628E-2,5.2014046E-4],"categories":[],"categories_nodes":[],"categories_segments":[],"categories_sizes":[],"default_left":[0,0,0,0,0,0,0,0,0,0,0,0,0],"id":23,"left_children":[1,3,5,7,9,-1,11,-1,-1,-1,-1,-1,-1],"loss_changes":[7.246971E1,3.8028984E1,1.717466E1,2.0622665E1,5.3675182E1,0E0,1.132052E0,0E0,0E0,0E0,0E0,0E0,0E0],"parents":[2147483647,0,0,1,1,2,2,3,3,4,4,6,6],"right_children":[2,4,6,8,10,-1,12,-1,-1,-1,-1,-1,-1],"split_conditions":[1.8476511E1,7.5155467E-1,2.7131855E0,5.322761E-1,7E0,5.9356432E-2,9.6E1,-5.3537115E-3,-2.4590803E-2,1.0896934E-3,4.8295703E-2,1.5578628E-2,5.2014046E-4],"split_indices":[7,7,6,12,11,0,3,0,0,0,0,0,0],"split_type":[0,0,0,0,0,0,0,0,0,0,0,0,0],"sum_hessian":[9.2948364E2,8.7831964E2,5.1164036E1,4.5367297E2,4.2464667E2,2.5598032E1,2.5566002E1,3.3963593E2,1.1403705E2,3.938529E2,3.0793753E1,1.2420373E1,1.3145629E1],"tree_param":{"num_deleted":"0","num_feature":"15","num_nodes":"13","size_leaf_vector":"1"}},{"base_weights":[-5.292739E-3,-2.7952433E-1,2.0332415E-1,-4.2970166E-2,-5.477544E-1,4.7550294E-1,-3.9410163E-2,2.4661088E-2,-5.585019E-3,5.6428723E-3,-2.5672056E-2,3.2880693E-3,3.0398771E-2,3.9913468E-2,-8.558437E-3],"categories":[],"categories_nodes":[],"categories_segments":[],"categories_sizes":[],"default_left":[0,0,0,0,0,0,0,0,0,0,0,0,0,0,0],"id":24,"left_children":[1,3,5,7,9,11,13,-1,-1,-1,-1,-1,-1,-1,-1],"loss_changes":[5.6124325E1,2.6605705E1,3.704741E1,1.621672E1,1.3885078E1,2.8748653E1,5.7908237E1,0E0,0E0,0E0,0E0,0E0,0E0,0E0,0E0],"parents":[2147483647,0,0,1,1,2,2,3,3,4,4,5,5,6,6],"right_children":[2,4,6,8,10,12,14,-1,-1,-1,-1,-1,-1,-1,-1],"split_conditions":[8.2E1,1E0,-5.574423E-1,6.8E1,6.5E1,5.131579E-1,0E0,2.4661088E-2,-5.585019E-3,5.6428723E-3,-2.5672056E-2,3.2880693E-3,3.0398771E-2,3.9913468E-2,-8.558437E-3],"split_indices":[3,11,4,1,1,13,10,0,0,0,0,0,0,0,0],"split_type":[0,0,0,0,0,0,0,0,0,0,0,0,0,0,0],"sum_hessian":[9.5711304E2,4.1176282E2,5.453502E2,2.2619878E2,1.8556406E2,2.5165796E2,2.9369223E2,2.0663618E1,2.0553516E2,2.1571112E1,1.6399294E2,1.12115486E2,1.3954248E2,3.4151554E1,2.5954068E2],"tree_param":{"num_deleted":"0","num_feature":"15","num_nodes":"15","size_leaf_vector":"1"}},{"base_weights":[1.9154166E-3,-1.7675492E-1,3.0126598E-1,8.0093616E-1,-2.305124E-1,4.513639E-1,-4.3169588E-1,6.651281E-3,3.986881E-2,-4.7826087E-3,-2.2749428E-2,-3.000402E-3,2.8722418E-2,-2.083193E-2,-1.7881849E-3],"categories":[],"categories_nodes":[],"categories_segments":[],"categories_sizes":[],"default_left":[0,0,0,0,0,0,0,0,0,0,0,0,0,0,0],"id":25,"left_children":[1,3,5,7,9,11,13,-1,-1,-1,-1,-1,-1,-1,-1],"loss_changes":[5.2803303E1,3.47137E1,4.2931736E1,2.348669E0,2.152707E1,4.4463474E1,2.0947123E0,0E0,0E0,0E0,0E0,0E0,0E0,0E0,0E0],"parents":[2147483647,0,0,1,1,2,2,3,3,4,4,5,5,6,6],"right_children":[2,4,6,8,10,12,14,-1,-1,-1,-1,-1,-1,-1,-1],"split_conditions":[5.3488374E-1,-2E-1,9.4E1,9.1E1,5.322761E-1,-2.3287463E0,1.02E2,6.651281E-3,3.986881E-2,-4.7826087E-3,-2.2749428E-2,-3.000402E-3,2.8722418E-2,-2.083193E-2,-1.7881849E-3],"split_indices":[13,10,1,3,12,5,1,0,0,0,0,0,0,0,0],"split_type":[0,0,0,0,0,0,0,0,0,0,0,0,0,0,0],"sum_hessian":[9.6330585E2,6.063277E2,3.5697815E2,2.2908073E1,5.834196E2,3.0012753E2,5.6850613E1,1.0632734E1,1.2275339E1,4.515425E2,1.3187708E2,1.0382839E2,1.9629915E2,4.2838223E1,1.401239E1],"tree_param":{"num_deleted":"0","num_feature":"15","num_nodes":"15","size_leaf_vector":"1"}},{"base_weights":[5.4646462E-2,-9.006954E-3,1.0166353E0,2.2473527E-1,-1.7136239E-1,6.2031884E-2,1.3660687E-1,-7.950777E-3,1.5558232E-2,9.86021E-3,-1.1108049E-2,1.0032476E-2,-1.2794612E-3],"categories":[],"categories_nodes":[],"categories_segments":[],"categories_sizes":[],"default_left":[0,0,0,0,0,0,0,0,0,0,0,0,0],"id":26,"left_children":[1,3,5,7,9,-1,11,-1,-1,-1,-1,-1,-1],"loss_changes":[5.8812737E1,3.50364E1,2.5475433E1,2.7260435E1,2.50139E1,0E0,7.831041E-1,0E0,0E0,0E0,0E0,0E0,0E0],"parents":[2147483647,0,0,1,1,2,2,3,3,4,4,6,6],"right_children":[2,4,6,8,10,-1,12,-1,-1,-1,-1,-1,-1],"split_conditions":[1.8504444E1,-1.7967218E0,2.64366E1,-5.94134E0,1.4532325E3,6.2031884E-2,2.0800102E-1,-7.950777E-3,1.5558232E-2,9.86021E-3,-1.1108049E-2,1.0032476E-2,-1.2794612E-3],"split_indices":[7,4,7,4,2,0,12,0,0,0,0,0,0],"split_type":[0,0,0,0,0,0,0,0,0,0,0,0,0],"sum_hessian":[9.4666626E2,8.9906415E2,4.760213E1,3.666252E2,5.324389E2,2.3930307E1,2.3671824E1,1.0173597E2,2.6488925E2,1.0480019E2,4.2763873E2,1.0623438E1,1.3048386E1],"tree_param":{"num_deleted":"0","num_feature":"15","num_nodes":"13","size_leaf_vector":"1"}},{"base_weights":[6.0705878E-2,2.7136213E-1,-2.2555767E-1,-7.892606E-3,7.0270085E-1,3.811389E-1,-3.0159938E-1,-6.2270514E-3,3.5834454E-2,7.028651E-3,4.004297E-2,3.6086168E-3,2.3915805E-2,1.2361298E-3,-1.7204955E-2],"categories":[],"categories_nodes":[],"categories_segments":[],"categories_sizes":[],"default_left":[0,0,0,0,0,0,0,0,0,0,0,0,0,0,0],"id":27,"left_children":[1,3,5,7,9,11,13,-1,-1,-1,-1,-1,-1,-1,-1],"loss_changes":[5.747663E1,6.601526E1,2.0084232E1,4.764606E1,3.174186E1,2.5346003E0,1.5842514E1,0E0,0E0,0E0,0E0,0E0,0E0,0E0,0E0],"parents":[2147483647,0,0,1,1,2,2,3,3,4,4,5,5,6,6],"right_children":[2,4,6,8,10,12,14,-1,-1,-1,-1,-1,-1,-1,-1],"split_conditions":[1E0,9.2E1,-7.108704E0,1.2533285E1,1.5112494E3,4.7058824E-1,4.7540984E-1,-6.2270514E-3,3.5834454E-2,7.028651E-3,4.004297E-2,3.6086168E-3,2.3915805E-2,1.2361298E-3,-1.7204955E-2],"split_indices":[14,3,6,7,0,13,13,0,0,0,0,0,0,0,0],"split_type":[0,0,0,0,0,0,0,0,0,0,0,0,0,0,0],"sum_hessian":[9.289473E2,5.355041E2,3.9344324E2,3.3220825E2,2.0329584E2,3.8458267E1,3.54985E2,2.940565E2,3.815177E1,8.038591E1,1.2290992E2,2.3675812E1,1.4782456E1,1.015032E2,2.5348178E2],"tree_param":{"num_deleted":"0","num_feature":"15","num_nodes":"15","size_leaf_vector":"1"}},{"base_weights":[2.6459156E-2,-4.9595464E-2,1.174044E0,2.365742E-1,-2.9565048E-1,5.6473497E-2,1.3304538E-2,-6.2493E-3,1.600878E-2,1.2548856E-2,-1.596706E-2],"categories":[],"categories_nodes":[],"categories_segments":[],"categories_sizes":[],"default_left":[0,0,0,0,0,0,0,0,0,0,0],"id":28,"left_children":[1,3,5,7,9,-1,-1,-1,-1,-1,-1],"loss_changes":[7.3945656E1,5.7069984E1,4.8990097E0,2.4910975E1,2.8927322E1,0E0,0E0,0E0,0E0,0E0,0E0],"parents":[2147483647,0,0,1,1,2,2,3,3,4,4],"right_children":[2,4,6,8,10,-1,-1,-1,-1,-1,-1],"split_conditions":[1.8504444E1,-1.7967218E0,2.64366E1,-5.8971214E0,0E0,5.6473497E-2,1.3304538E-2,-6.2493E-3,1.600878E-2,1.2548856E-2,-1.596706E-2],"split_indices":[7,4,7,4,10,0,0,0,0,0,0],"split_type":[0,0,0,0,0,0,0,0,0,0,0],"sum_hessian":[8.2722614E2,7.865781E2,4.0648E1,3.6386E2,4.2271814E2,2.534931E1,1.5298689E1,1.0716636E2,2.5669363E2,5.784836E1,3.6486978E2],"tree_param":{"num_deleted":"0","num_feature":"15","num_nodes":"11","size_leaf_vector":"1"}},{"base_weights":[-2.2512414E-2,-1.7241967E-1,2.4285015E-1,2.513898E-1,-2.4864107E-1,6.895047E-1,5.0858306E-3,1.650863E-2,-1.0502267E-2,-1.9575527E-3,-1.6433053E-2,2.9698247E-3,5.3032782E-2,1.3339698E-2,-1.1473929E-2],"categories":[],"categories_nodes":[],"categories_segments":[],"categories_sizes":[],"default_left":[0,0,0,0,0,0,0,0,0,0,0,0,0,0,0],"id":29,"left_children":[1,3,5,7,9,11,13,-1,-1,-1,-1,-1,-1,-1,-1],"loss_changes":[3.8232765E1,2.0555506E1,3.684828E1,9.543957E0,1.6784946E1,4.6028145E1,2.4041027E1,0E0,0E0,0E0,0E0,0E0,0E0,0E0,0E0],"parents":[2147483647,0,0,1,1,2,2,3,3,4,4,5,5,6,6],"right_children":[2,4,6,8,10,12,14,-1,-1,-1,-1,-1,-1,-1,-1],"split_conditions":[9.2E1,6.9E1,1.4543855E3,3.2166555E0,-1.6262131E0,1.4996561E3,-5.574423E-1,1.650863E-2,-1.0502267E-2,-1.9575527E-3,-1.6433053E-2,2.9698247E-3,5.3032782E-2,1.3339698E-2,-1.1473929E-2],"split_indices":[3,3,2,5,4,0,4,0,0,0,0,0,0,0,0],"split_type":[0,0,0,0,0,0,0,0,0,0,0,0,0,0,0],"sum_hessian":[9.3647943E2,6.011077E2,3.353717E2,8.742511E1,5.136826E2,1.0858635E2,2.2678535E2,6.833775E1,1.9087358E1,2.3721524E2,2.7646738E2,6.2019382E1,4.6566967E1,1.05921906E2,1.2086345E2],"tree_param":{"num_deleted":"0","num_feature":"15","num_nodes":"15","size_leaf_vector":"1"}},{"base_weights":[8.20158E-3,-8.327932E-2,5.0138813E-1,9.734806E-1,-1.3736087E-1,9.965655E-2,1.3243029E0,6.6908174E-3,4.749667E-2,1.5149416E-3,-1.35092735E-2,3.3630524E-2,-9.261135E-3,6.6197276E-2,1.2745254E-2],"categories":[],"categories_nodes":[],"categories_segments":[],"categories_sizes":[],"default_left":[0,0,0,0,0,0,0,0,0,0,0,0,0,0,0],"id":30,"left_children":[1,3,5,7,9,11,13,-1,-1,-1,-1,-1,-1,-1,-1],"loss_changes":[4.2355232E1,4.6915123E1,4.6966805E1,4.529869E0,2.7004803E1,2.9742275E1,9.366173E0,0E0,0E0,0E0,0E0,0E0,0E0,0E0,0E0],"parents":[2147483647,0,0,1,1,2,2,3,3,4,4,5,5,6,6],"right_children":[2,4,6,8,10,12,14,-1,-1,-1,-1,-1,-1,-1,-1],"split_conditions":[5.7746476E-1,-2E-1,4.1581962E-1,8.4E1,-3.309137E-1,-7.4990624E-1,1.4535858E3,6.6908174E-3,4.749667E-2,1.5149416E-3,-1.35092735E-2,3.3630524E-2,-9.261135E-3,6.6197276E-2,1.2745254E-2],"split_indices":[13,10,12,3,4,12,2,0,0,0,0,0,0,0,0],"split_type":[0,0,0,0,0,0,0,0,0,0,0,0,0,0,0],"sum_hessian":[9.1567773E2,7.8081793E2,1.348598E2,2.8082365E1,7.5273553E2,9.966059E1,3.5199207E1,1.0373329E1,1.7709036E1,4.067469E2,3.4598865E2,2.5078205E1,7.458238E1,2.0659807E1,1.4539399E1],"tree_param":{"num_deleted":"0","num_feature":"15","num_nodes":"15","size_leaf_vector":"1"}},{"base_weights":[2.599416E-2,4.3296447E-1,-1.1245847E-1,-2.2222626E-1,8.031756E-1,-2.4268834E-1,1.3364398E-1,-1.1330536E-3,-2.5541196E-2,9.326221E-3,4.829028E-2,-3.5199334E-3,-1.8786918E-2,1.9244308E-2,-8.569761E-3],"categories":[],"categories_nodes":[],"categories_segments":[],"categories_sizes":[],"default_left":[0,0,0,0,0,0,0,0,0,0,0,0,0,0,0],"id":31,"left_children":[1,3,5,7,9,11,13,-1,-1,-1,-1,-1,-1,-1,-1],"loss_changes":[5.4653637E1,6.1826313E1,2.3642414E1,7.7128057E0,3.3435295E1,1.6313065E1,3.252131E1,0E0,0E0,0E0,0E0,0E0,0E0,0E0,0E0],"parents":[2147483647,0,0,1,1,2,2,3,3,4,4,5,5,6,6],"right_children":[2,4,6,8,10,12,14,-1,-1,-1,-1,-1,-1,-1,-1],"split_conditions":[1.4623364E3,-4.7181666E-1,5.138889E-1,-8.0730027E-1,1.4925386E3,-2.4775455E0,-3.309137E-1,-1.1330536E-3,-2.5541196E-2,9.326221E-3,4.829028E-2,-3.5199334E-3,-1.8786918E-2,1.9244308E-2,-8.569761E-3],"split_indices":[2,5,13,5,0,7,4,0,0,0,0,0,0,0,0],"split_type":[0,0,0,0,0,0,0,0,0,0,0,0,0,0,0],"sum_hessian":[9.475933E2,2.3406175E2,7.1353156E2,8.623749E1,1.4782425E2,4.6672272E2,2.4680887E2,6.757834E1,1.8659155E1,6.917132E1,7.865294E1,2.8746652E2,1.792562E2,1.2118071E2,1.2562816E2],"tree_param":{"num_deleted":"0","num_feature":"15","num_nodes":"15","size_leaf_vector":"1"}},{"base_weights":[-1.0743786E-2,-5.5896714E-2,7.5851864E-1,4.5589775E-2,-3.369001E-1,1.1173592E-1,5.11171E-2,3.3816293E-2,-1.6691458E-3,-2.385538E-2,-4.185502E-3,1.2699902E-2,-4.6524657E-3],"categories":[],"categories_nodes":[],"categories_segments":[],"categories_sizes":[],"default_left":[0,0,0,0,0,0,0,0,0,0,0,0,0],"id":32,"left_children":[1,3,5,7,9,11,-1,-1,-1,-1,-1,-1,-1],"loss_changes":[3.1987782E1,2.4915344E1,1.5443043E1,4.565648E1,1.320495E1,2.127486E0,0E0,0E0,0E0,0E0,0E0,0E0,0E0],"parents":[2147483647,0,0,1,1,2,2,3,3,4,4,5,5],"right_children":[2,4,6,8,10,12,-1,-1,-1,-1,-1,-1,-1],"split_conditions":[1.8476511E1,4.6982378E-1,4.676688E-1,6.8E1,1.5183018E3,-2E0,5.11171E-2,3.3816293E-2,-1.6691458E-3,-2.385538E-2,-4.185502E-3,1.2699902E-2,-4.6524657E-3],"split_indices":[7,12,12,1,0,14,0,0,0,0,0,0,0],"split_type":[0,0,0,0,0,0,0,0,0,0,0,0,0],"sum_hessian":[8.9427594E2,8.552065E2,3.906949E1,6.3567926E2,2.1952722E2,2.3895542E1,1.5173948E1,5.231378E1,5.833655E2,9.480178E1,1.2472544E2,1.00872E1,1.3808341E1],"tree_param":{"num_deleted":"0","num_feature":"15","num_nodes":"13","size_leaf_vector":"1"}},{"base_weights":[-1.3149834E-3,1.3696976E-1,-3.3862534E-1,6.592985E-2,8.056757E-1,-5.8473665E-1,-1.0288419E-1,4.2176146E-2,2.5953888E-4,5.8508582E-2,1.4645235E-3,-6.510661E-3,-2.7800836E-2,-2.2252424E-2,3.946187E-3],"categories":[],"categories_nodes":[],"categories_segments":[],"categories_sizes":[],"default_left":[0,0,0,0,0,0,0,0,0,0,0,0,0,0,0],"id":33,"left_children":[1,3,5,7,9,11,13,-1,-1,-1,-1,-1,-1,-1,-1],"loss_changes":[4.3657223E1,3.0900658E1,1.5066351E1,3.5947613E1,3.1032822E1,4.7188606E0,1.4690706E1,0E0,0E0,0E0,0E0,0E0,0E0,0E0,0E0],"parents":[2147483647,0,0,1,1,2,2,3,3,4,4,5,5,6,6],"right_children":[2,4,6,8,10,12,14,-1,-1,-1,-1,-1,-1,-1,-1],"split_conditions":[5E0,7E0,8.1E1,1.3807637E3,7.9E1,-4.0817175E0,1.2E1,4.2176146E-2,2.5953888E-4,5.8508582E-2,1.4645235E-3,-6.510661E-3,-2.7800836E-2,-2.2252424E-2,3.946187E-3],"split_indices":[14,11,3,2,1,5,14,0,0,0,0,0,0,0,0],"split_type":[0,0,0,0,0,0,0,0,0,0,0,0,0,0,0],"sum_hessian":[9.1201685E2,6.518924E2,2.6012448E2,6.012064E2,5.0685974E1,1.1857177E2,1.415527E2,2.2708889E1,5.784975E2,2.1496973E1,2.9189001E1,3.0724424E1,8.784734E1,3.70571E1,1.0449561E2],"tree_param":{"num_deleted":"0","num_feature":"15","num_nodes":"15","size_leaf_vector":"1"}},{"base_weights":[7.056356E-2,5.129122E-1,-7.69423E-2,6.0017727E-2,8.843203E-1,7.993971E-2,-4.1553605E-1,1.0413686E-2,-1.5648266E-2,-1.2408977E-3,4.4508923E-2,-1.2499772E-2,8.703073E-3,-2.3460034E-2,-2.5816571E-3],"categories":[],"categories_nodes":[],"categories_segments":[],"categories_sizes":[],"default_left":[0,0,0,0,0,0,0,0,0,0,0,0,0,0,0],"id":34,"left_children":[1,3,5,7,9,11,13,-1,-1,-1,-1,-1,-1,-1,-1],"loss_changes":[6.176403E1,3.913863E1,3.837177E1,1.2016563E1,2.7393677E1,2.7746078E1,1.324453E1,0E0,0E0,0E0,0E0,0E0,0E0,0E0,0E0],"parents":[2147483647,0,0,1,1,2,2,3,3,4,4,5,5,6,6],"right_children":[2,4,6,8,10,12,14,-1,-1,-1,-1,-1,-1,-1,-1],"split_conditions":[1.4623364E3,1.4996561E3,5E0,9.3E1,-2.580783E0,1.4954031E3,7.003543E-1,1.0413686E-2,-1.5648266E-2,-1.2408977E-3,4.4508923E-2,-1.2499772E-2,8.703073E-3,-2.3460034E-2,-2.5816571E-3],"split_indices":[2,0,14,1,5,2,5,0,0,0,0,0,0,0,0],"split_type":[0,0,0,0,0,0,0,0,0,0,0,0,0,0,0],"sum_hessian":[9.273314E2,2.2446541E2,7.0286597E2,1.0741853E2,1.17046875E2,4.8658258E2,2.162834E2,7.7907364E1,2.9511173E1,2.544482E1,9.160205E1,1.2238647E2,3.641961E2,1.4002664E2,7.625676E1],"tree_param":{"num_deleted":"0","num_feature":"15","num_nodes":"15","size_leaf_vector":"1"}},{"base_weights":[4.881326E-2,-8.7544456E-2,2.9795098E-1,1.5678738E-1,-2.5044176E-1,5.5242985E-1,-1.5009929E-1,-3.1985664E-3,2.544335E-2,4.054063E-3,-2.0278191E-2,-3.142233E-3,3.211866E-2,1.5151643E-2,-1.0735976E-2],"categories":[],"categories_nodes":[],"categories_segments":[],"categories_sizes":[],"default_left":[0,0,0,0,0,0,0,0,0,0,0,0,0,0,0],"id":35,"left_children":[1,3,5,7,9,11,13,-1,-1,-1,-1,-1,-1,-1,-1],"loss_changes":[3.3781612E1,2.6181856E1,4.1039307E1,3.0769646E1,3.6008476E1,3.6571335E1,9.770168E0,0E0,0E0,0E0,0E0,0E0,0E0,0E0,0E0],"parents":[2147483647,0,0,1,1,2,2,3,3,4,4,5,5,6,6],"right_children":[2,4,6,8,10,12,14,-1,-1,-1,-1,-1,-1,-1,-1],"split_conditions":[5.3125E-1,-1E0,2.9602518E0,9.2E1,4.642857E-1,1.5136871E3,-5.7101617E0,-3.1985664E-3,2.544335E-2,4.054063E-3,-2.0278191E-2,-3.142233E-3,3.211866E-2,1.5151643E-2,-1.0735976E-2],"split_indices":[13,14,6,3,13,0,5,0,0,0,0,0,0,0,0],"split_type":[0,0,0,0,0,0,0,0,0,0,0,0,0,0,0],"sum_hessian":[9.731864E2,6.339804E2,3.39206E2,2.53781E2,3.8019943E2,2.1455164E2,1.2465435E2,1.7656403E2,7.721698E1,1.6338484E2,2.1681459E2,6.3318653E1,1.5123299E2,1.7955654E1,1.066987E2],"tree_param":{"num_deleted":"0","num_feature":"15","num_nodes":"15","size_leaf_vector":"1"}},{"base_weights":[4.1170128E-2,-1.3878756E-2,8.302603E-1,2.1550675E-1,-1.518177E-1,5.014486E-2,1.3723983E-1,-9.622827E-3,1.6405562E-2,-9.129359E-4,-2.134131E-2,1.1114349E-2,-3.8639184E-3],"categories":[],"categories_nodes":[],"categories_segments":[],"categories_sizes":[],"default_left":[0,0,0,0,0,0,0,0,0,0,0,0,0],"id":36,"left_children":[1,3,5,7,9,-1,11,-1,-1,-1,-1,-1,-1],"loss_changes":[4.249766E1,2.9609035E1,1.6651379E1,3.2404E1,2.8592808E1,0E0,1.5606252E0,0E0,0E0,0E0,0E0,0E0,0E0],"parents":[2147483647,0,0,1,1,2,2,3,3,4,4,6,6],"right_children":[2,4,6,8,10,-1,12,-1,-1,-1,-1,-1,-1],"split_conditions":[1.8504444E1,-1.9950346E0,2.64366E1,-5.8971214E0,3.2919555E0,5.014486E-2,-2E1,-9.622827E-3,1.6405562E-2,-9.129359E-4,-2.134131E-2,1.1114349E-2,-3.8639184E-3],"split_indices":[7,4,7,4,5,0,14,0,0,0,0,0,0],"split_type":[0,0,0,0,0,0,0,0,0,0,0,0,0],"sum_hessian":[9.631569E2,9.1136664E2,5.1790257E1,3.397055E2,5.7166113E2,2.6124125E1,2.5666132E1,1.00761375E2,2.3894414E2,4.3677707E2,1.3488408E2,1.4617071E1,1.1049061E1],"tree_param":{"num_deleted":"0","num_feature":"15","num_nodes":"13","size_leaf_vector":"1"}},{"base_weights":[1.4575934E-2,-1.59831E-1,3.5224786E-1,-8.766449E-2,-5.798451E-1,5.7081264E-1,-2.6325208E-1,2.835667E-3,-1.4047096E-2,-2.9511785E-2,-9.5854094E-4,4.3910544E-2,5.3909677E-3,-1.8636646E-2,1.0990792E-2],"categories":[],"categories_nodes":[],"categories_segments":[],"categories_sizes":[],"default_left":[0,0,0,0,0,0,0,0,0,0,0,0,0,0,0],"id":37,"left_children":[1,3,5,7,9,11,13,-1,-1,-1,-1,-1,-1,-1,-1],"loss_changes":[5.6761715E1,1.8675283E1,4.5941753E1,2.3575035E1,7.791191E0,5.4727936E1,1.1806614E1,0E0,0E0,0E0,0E0,0E0,0E0,0E0,0E0],"parents":[2147483647,0,0,1,1,2,2,3,3,4,4,5,5,6,6],"right_children":[2,4,6,8,10,12,14,-1,-1,-1,-1,-1,-1,-1,-1],"split_conditions":[9.2E1,3.2919555E0,1.9708418E0,4E0,3.5407693E0,9.8E1,1.5346696E3,2.835667E-3,-1.4047096E-2,-2.9511785E-2,-9.5854094E-4,4.3910544E-2,5.3909677E-3,-1.8636646E-2,1.0990792E-2],"split_indices":[3,5,6,14,4,3,0,0,0,0,0,0,0,0,0],"split_type":[0,0,0,0,0,0,0,0,0,0,0,0,0,0,0],"sum_hessian":[9.4035016E2,6.2424744E2,3.1610266E2,5.4509436E2,7.915311E1,2.339116E2,8.219107E1,3.457985E2,1.9929587E2,5.8580795E1,2.0572311E1,9.766852E1,1.3624309E2,6.087042E1,2.1320652E1],"tree_param":{"num_deleted":"0","num_feature":"15","num_nodes":"15","size_leaf_vector":"1"}},{"base_weights":[-3.4528054E-2,-7.895163E-2,8.7074786E-1,-2.1096352E-1,1.7346947E-1,8.598374E-3,4.2448383E-2,-6.106652E-5,-1.3089606E-2,3.9066173E-2,-2.0515954E-3],"categories":[],"categories_nodes":[],"categories_segments":[],"categories_sizes":[],"default_left":[0,0,0,0,0,0,0,0,0,0,0],"id":38,"left_children":[1,3,5,7,9,-1,-1,-1,-1,-1,-1],"loss_changes":[3.8519615E1,3.0578512E1,2.8634567E0,1.4588459E1,5.7858673E1,0E0,0E0,0E0,0E0,0E0,0E0],"parents":[2147483647,0,0,1,1,2,2,3,3,4,4],"right_children":[2,4,6,8,10,-1,-1,-1,-1,-1,-1],"split_conditions":[1.8533102E1,9.1E1,2.975099E0,4.642857E-1,9.5E1,8.598374E-3,4.2448383E-2,-6.106652E-5,-1.3089606E-2,3.9066173E-2,-2.0515954E-3],"split_indices":[7,3,4,13,3,0,0,0,0,0,0],"split_type":[0,0,0,0,0,0,0,0,0,0,0],"sum_hessian":[9.2531445E2,8.924726E2,3.2841843E1,5.872972E2,3.0517545E2,1.3140518E1,1.9701324E1,2.1399966E2,3.732975E2,5.794895E1,2.4722649E2],"tree_param":{"num_deleted":"0","num_feature":"15","num_nodes":"11","size_leaf_vector":"1"}},{"base_weights":[3.5113465E-2,-5.7445567E-2,3.9172736E-1,9.892678E-2,-2.2347678E-1,6.172702E-1,-1.7581367E-1,-2.7787557E-3,2.0420043E-2,-2.8141713E-2,-5.711681E-3,1.2802103E-2,4.9432125E-2,5.866669E-3,-1.454668E-2],"categories":[],"categories_nodes":[],"categories_segments":[],"categories_sizes":[],"default_left":[0,0,0,0,0,0,0,0,0,0,0,0,0,0,0],"id":39,"left_children":[1,3,5,7,9,11,13,-1,-1,-1,-1,-1,-1,-1,-1],"loss_changes":[3.0454597E1,1.9386606E1,2.5619968E1,2.7288818E1,1.27734165E1,2.073537E1,4.4787135E0,0E0,0E0,0E0,0E0,0E0,0E0,0E0,0E0],"parents":[2147483647,0,0,1,1,2,2,3,3,4,4,5,5,6,6],"right_children":[2,4,6,8,10,12,14,-1,-1,-1,-1,-1,-1,-1,-1],"split_conditions":[4E0,-2.6422772E-1,8.3E1,9.1E1,5.5226207E-2,1.2939966E1,1.4655239E3,-2.7787557E-3,2.0420043E-2,-2.8141713E-2,-5.711681E-3,1.2802103E-2,4.9432125E-2,5.866669E-3,-1.454668E-2],"split_indices":[11,4,1,3,4,7,2,0,0,0,0,0,0,0,0],"split_type":[0,0,0,0,0,0,0,0,0,0,0,0,0,0,0],"sum_hessian":[9.0246655E2,7.244919E2,1.7797469E2,3.755961E2,3.4889578E2,1.2660854E2,5.1366146E1,2.7361926E2,1.01976814E2,3.687248E1,3.1202332E2,9.781548E1,2.879306E1,1.987629E1,3.1489857E1],"tree_param":{"num_deleted":"0","num_feature":"15","num_nodes":"15","size_leaf_vector":"1"}},{"base_weights":[1.1297654E-2,-3.319439E-2,8.9693975E-1,9.6182704E-2,-3.4912196E-1,-1.8905492E-3,5.108693E-2,1.0889341E-2,-7.6284762E-3,-2.8543156E-3,-2.169701E-2],"categories":[],"categories_nodes":[],"categories_segments":[],"categories_sizes":[],"default_left":[0,0,0,0,0,0,0,0,0,0,0],"id":40,"left_children":[1,3,5,7,9,-1,-1,-1,-1,-1,-1],"loss_changes":[3.596702E1,3.6047024E1,1.6397736E1,3.234699E1,1.3278416E1,0E0,0E0,0E0,0E0,0E0,0E0],"parents":[2147483647,0,0,1,1,2,2,3,3,4,4],"right_children":[2,4,6,8,10,-1,-1,-1,-1,-1,-1],"split_conditions":[1.8504444E1,4.6982378E-1,1.7716536E-1,3E0,-1.7967218E0,-1.8905492E-3,5.108693E-2,1.0889341E-2,-7.6284762E-3,-2.8543156E-3,-2.169701E-2],"split_indices":[7,12,12,14,4,0,0,0,0,0,0],"split_type":[0,0,0,0,0,0,0,0,0,0,0],"sum_hessian":[8.917081E2,8.600519E2,3.1656233E1,6.160974E2,2.439545E2,1.2105067E1,1.9551167E1,3.8218533E2,2.3391208E2,1.0684914E2,1.3710536E2],"tree_param":{"num_deleted":"0","num_feature":"15","num_nodes":"11","size_leaf_vector":"1"}},{"base_weights":[6.020124E-2,-9.33166E-2,3.5095876E-1,-1.5524699E-1,5.6524175E-1,-6.0043782E-2,6.455562E-1,1.0450127E-2,-8.8377865E-3,-8.877796E-4,4.1385245E-2,1.222143E-2,-7.6762144E-3,3.5167616E-2,-1.35586625E-2],"categories":[],"categories_nodes":[],"categories_segments":[],"categories_sizes":[],"default_left":[0,0,0,0,0,0,0,0,0,0,0,0,0,0,0],"id":41,"left_children":[1,3,5,7,9,11,13,-1,-1,-1,-1,-1,-1,-1,-1],"loss_changes":[4.10483E1,2.5750715E1,3.8877544E1,1.609602E1,1.5341074E1,7.617968E0,4.631668E1,0E0,0E0,0E0,0E0,0E0,0E0,0E0,0E0],"parents":[2147483647,0,0,1,1,2,2,3,3,4,4,5,5,6,6],"right_children":[2,4,6,8,10,12,14,-1,-1,-1,-1,-1,-1,-1,-1],"split_conditions":[9.2E1,1.2939966E1,1.4996561E3,-4.4016236E-1,-2.580783E0,8.5E1,2.5725055E0,1.0450127E-2,-8.8377865E-3,-8.877796E-4,4.1385245E-2,1.222143E-2,-7.6762144E-3,3.5167616E-2,-1.35586625E-2],"split_indices":[3,7,0,12,5,1,6,0,0,0,0,0,0,0,0],"split_type":[0,0,0,0,0,0,0,0,0,0,0,0,0,0,0],"sum_hessian":[8.9880896E2,5.935615E2,3.0524744E2,5.5092413E2,4.2637386E1,1.314339E2,1.7381355E2,7.019479E1,4.8072934E2,2.4015198E1,1.8622189E1,3.0650846E1,1.0078305E2,1.4151492E2,3.229863E1],"tree_param":{"num_deleted":"0","num_feature":"15","num_nodes":"15","size_leaf_vector":"1"}},{"base_weights":[4.789855E-2,-1.1805492E-1,3.5957086E-1,8.451167E-3,-4.3165988E-1,-5.483846E-2,6.464696E-1,9.1061015E-3,-9.244863E-3,5.1483195E-3,-2.1717252E-2,4.420841E-3,-1.4178737E-2,-6.3917385E-3,3.6091194E-2],"categories":[],"categories_nodes":[],"categories_segments":[],"categories_sizes":[],"default_left":[0,0,0,0,0,0,0,0,0,0,0,0,0,0,0],"id":42,"left_children":[1,3,5,7,9,11,13,-1,-1,-1,-1,-1,-1,-1,-1],"loss_changes":[4.9657486E1,2.5001717E1,4.00316E1,2.4789967E1,1.2128029E1,7.770286E0,4.2523132E1,0E0,0E0,0E0,0E0,0E0,0E0,0E0,0E0],"parents":[2147483647,0,0,1,1,2,2,3,3,4,4,5,5,6,6],"right_children":[2,4,6,8,10,12,14,-1,-1,-1,-1,-1,-1,-1,-1],"split_conditions":[5.4022986E-1,4.7522467E-1,-1.2343552E0,-7.828445E-1,-7.657398E0,9.1E1,1.4846572E3,9.1061015E-3,-9.244863E-3,5.1483195E-3,-2.1717252E-2,4.420841E-3,-1.4178737E-2,-6.3917385E-3,3.6091194E-2],"split_indices":[13,12,5,6,6,1,0,0,0,0,0,0,0,0,0],"split_type":[0,0,0,0,0,0,0,0,0,0,0,0,0,0,0],"sum_hessian":[9.3821564E2,6.170924E2,3.2112323E2,4.4803485E2,1.6905756E2,1.3533934E2,1.8578389E2,2.3427647E2,2.1375838E2,2.7696476E1,1.4136108E2,9.2090324E1,4.3249012E1,4.5832645E1,1.3995125E2],"tree_param":{"num_deleted":"0","num_feature":"15","num_nodes":"15","size_leaf_vector":"1"}},{"base_weights":[2.607137E-3,1.0547978E-1,-2.3198712E-1,-7.416643E-2,3.266023E-1,9.342226E-2,-4.0732682E-1,1.6361356E-2,-1.0348529E-2,1.2443803E-3,2.1248113E-2,-7.0068245E-3,1.9285334E-2,-4.999945E-3,-2.482983E-2],"categories":[],"categories_nodes":[],"categories_segments":[],"categories_sizes":[],"default_left":[0,0,0,0,0,0,0,0,0,0,0,0,0,0,0],"id":43,"left_children":[1,3,5,7,9,11,13,-1,-1,-1,-1,-1,-1,-1,-1],"loss_changes":[2.3546509E1,2.7225405E1,1.742927E1,3.5502563E1,1.8311466E1,1.2907363E1,1.0851372E1,0E0,0E0,0E0,0E0,0E0,0E0,0E0,0E0],"parents":[2147483647,0,0,1,1,2,2,3,3,4,4,5,5,6,6],"right_children":[2,4,6,8,10,12,14,-1,-1,-1,-1,-1,-1,-1,-1],"split_conditions":[5E0,1.5219114E3,1.4856006E3,1.4522316E3,1.4242406E-1,1.5262172E3,1E0,1.6361356E-2,-1.0348529E-2,1.2443803E-3,2.1248113E-2,-7.0068245E-3,1.9285334E-2,-4.999945E-3,-2.482983E-2],"split_indices":[14,0,2,2,12,0,11,0,0,0,0,0,0,0,0],"split_type":[0,0,0,0,0,0,0,0,0,0,0,0,0,0,0],"sum_hessian":[9.515168E2,6.660498E2,2.85467E2,3.718905E2,2.9415927E2,1.0192073E2,1.835463E2,9.8745995E1,2.731445E2,1.26003815E2,1.6815547E2,6.417153E1,3.7749195E1,8.720829E1,9.6338E1],"tree_param":{"num_deleted":"0","num_feature":"15","num_nodes":"15","size_leaf_vector":"1"}},{"base_weights":[1.200689E-2,-1.2694491E-1,2.2988518E-1,8.7899655E-2,-2.6222345E-1,9.8491853E-1,1.22071326E-1,1.3416716E-2,-1.52271325E-2,-3.1026679E-3,-1.6556345E-2,8.176905E-3,5.6435637E-2,1.3701551E-2,-6.2698177E-3],"categories":[],"categories_nodes":[],"categories_segments":[],"categories_sizes":[],"default_left":[0,0,0,0,0,0,0,0,0,0,0,0,0,0,0],"id":44,"left_children":[1,3,5,7,9,11,13,-1,-1,-1,-1,-1,-1,-1,-1],"loss_changes":[2.9819454E1,1.777544E1,2.9760393E1,2.9555313E1,1.0047396E1,1.1898491E1,2.2104622E1,0E0,0E0,0E0,0E0,0E0,0E0,0E0,0E0],"parents":[2147483647,0,0,1,1,2,2,3,3,4,4,5,5,6,6],"right_children":[2,4,6,8,10,12,14,-1,-1,-1,-1,-1,-1,-1,-1],"split_conditions":[5.3125E-1,-1E0,1.3872607E3,3.7710804E-1,4.642857E-1,1.2533285E1,2.7131855E0,1.3416716E-2,-1.52271325E-2,-3.1026679E-3,-1.6556345E-2,8.176905E-3,5.6435637E-2,1.3701551E-2,-6.2698177E-3],"split_indices":[13,14,2,12,13,7,6,0,0,0,0,0,0,0,0],"split_type":[0,0,0,0,0,0,0,0,0,0,0,0,0,0,0],"sum_hessian":[9.6139954E2,5.9008276E2,3.7131677E2,2.296166E2,3.6046616E2,3.4198215E1,3.3711856E2,1.5248119E2,7.7135414E1,1.707441E2,1.8972206E2,1.8344648E1,1.5853567E1,1.8672661E2,1.5039195E2],"tree_param":{"num_deleted":"0","num_feature":"15","num_nodes":"15","size_leaf_vector":"1"}},{"base_weights":[-1.6825398E-2,-7.3585354E-2,7.9438424E-1,-2.0617731E-1,2.0291755E-1,6.3917827E-4,1.0696422E0,2.4611277E-3,-1.3050311E-2,3.2599222E-2,-6.5214944E-4,5.058062E-2,7.940237E-3],"categories":[],"categories_nodes":[],"categories_segments":[],"categories_sizes":[],"default_left":[0,0,0,0,0,0,0,0,0,0,0,0,0],"id":45,"left_children":[1,3,5,7,9,-1,11,-1,-1,-1,-1,-1,-1],"loss_changes":[4.1317924E1,3.1130116E1,1.2372627E1,1.858355E1,3.7301716E1,0E0,4.3189926E0,0E0,0E0,0E0,0E0,0E0,0E0],"parents":[2147483647,0,0,1,1,2,2,3,3,4,4,6,6],"right_children":[2,4,6,8,10,-1,12,-1,-1,-1,-1,-1,-1],"split_conditions":[1.8504444E1,9.1E1,-2.580783E0,4.642857E-1,9.5E1,6.3917827E-4,9.8E1,2.4611277E-3,-1.3050311E-2,3.2599222E-2,-6.5214944E-4,5.058062E-2,7.940237E-3],"split_indices":[7,3,5,13,3,0,3,0,0,0,0,0,0],"split_type":[0,0,0,0,0,0,0,0,0,0,0,0,0],"sum_hessian":[8.701185E2,8.23416E2,4.6702553E1,5.586011E2,2.6481494E2,1.5517391E1,3.1185163E1,1.7478639E2,3.8381467E2,6.123532E1,2.0357964E2,2.105607E1,1.0129092E1],"tree_param":{"num_deleted":"0","num_feature":"15","num_nodes":"13","size_leaf_vector":"1"}},{"base_weights":[4.7246045E-3,-4.0866405E-2,7.562257E-1,8.639366E-2,-1.7535575E-1,4.367675E-2,1.9739408E-3,-3.6065322E-3,1.0722358E-2,-2.1460835E-2,-6.4859167E-4],"categories":[],"categories_nodes":[],"categories_segments":[],"categories_sizes":[],"default_left":[0,0,0,0,0,0,0,0,0,0,0],"id":46,"left_children":[1,3,5,7,9,-1,-1,-1,-1,-1,-1],"loss_changes":[3.297451E1,1.57319565E1,1.24149685E1,1.5521057E1,2.5512459E1,0E0,0E0,0E0,0E0,0E0,0E0],"parents":[2147483647,0,0,1,1,2,2,3,3,4,4],"right_children":[2,4,6,8,10,-1,-1,-1,-1,-1,-1],"split_conditions":[1.8476511E1,1E0,2.7131855E0,1.5167313E3,-4.686914E-2,4.367675E-2,1.9739408E-3,-3.6065322E-3,1.0722358E-2,-2.1460835E-2,-6.4859167E-4],"split_indices":[7,11,6,2,12,0,0,0,0,0,0],"split_type":[0,0,0,0,0,0,0,0,0,0,0],"sum_hessian":[9.3960657E2,8.965626E2,4.3043953E1,4.628674E2,4.3369525E2,2.475257E1,1.8291384E1,2.3779921E2,2.2506819E2,1.2394648E2,3.0974875E2],"tree_param":{"num_deleted":"0","num_feature":"15","num_nodes":"11","size_leaf_vector":"1"}},{"base_weights":[-2.1487009E-2,-1.6670145E-1,1.9873983E-1,4.4660416E-1,-2.057708E-1,5.2654016E-1,-6.742311E-2,-7.3203854E-3,3.1504493E-2,-4.8596743E-3,-2.1272775E-2,-1.3781042E-3,3.663522E-2,-7.674467E-3,1.6519226E-2],"categories":[],"categories_nodes":[],"categories_segments":[],"categories_sizes":[],"default_left":[0,0,0,0,0,0,0,0,0,0,0,0,0,0,0],"id":47,"left_children":[1,3,5,7,9,11,13,-1,-1,-1,-1,-1,-1,-1,-1],"loss_changes":[2.9639875E1,1.4462901E1,3.2605183E1,9.711622E0,1.3854246E1,3.677496E1,1.3755036E1,0E0,0E0,0E0,0E0,0E0,0E0,0E0,0E0],"parents":[2147483647,0,0,1,1,2,2,3,3,4,4,5,5,6,6],"right_children":[2,4,6,8,10,12,14,-1,-1,-1,-1,-1,-1,-1,-1],"split_conditions":[5.3125E-1,-1.31E2,5.604928E-1,-1.65E2,5.090909E-1,-2.5834363E0,5.761475E-1,-7.3203854E-3,3.1504493E-2,-4.8596743E-3,-2.1272775E-2,-1.3781042E-3,3.663522E-2,-7.674467E-3,1.6519226E-2],"split_indices":[13,14,6,14,13,4,12,0,0,0,0,0,0,0,0],"split_type":[0,0,0,0,0,0,0,0,0,0,0,0,0,0,0],"sum_hessian":[9.0239044E2,5.455675E2,3.568229E2,2.5176548E1,5.20391E2,1.5463667E2,2.0218623E2,1.0798635E1,1.4377914E1,4.2659393E2,9.379706E1,6.783405E1,8.680262E1,1.6631364E2,3.587258E1],"tree_param":{"num_deleted":"0","num_feature":"15","num_nodes":"15","size_leaf_vector":"1"}},{"base_weights":[3.7404764E-2,8.07951E-1,4.9941447E-3,7.577065E-3,4.0684987E-2,-1.3507022E-1,1.769535E-1,1.7862935E-3,-1.2685382E-2,1.8520072E-2,-3.4104506E-3],"categories":[],"categories_nodes":[],"categories_segments":[],"categories_sizes":[],"default_left":[0,0,0,0,0,0,0,0,0,0,0],"id":48,"left_children":[1,3,5,-1,-1,7,9,-1,-1,-1,-1],"loss_changes":[2.2884153E1,2.4737053E0,2.1801607E1,0E0,0E0,1.6501371E1,3.0939356E1,0E0,0E0,0E0,0E0],"parents":[2147483647,0,0,1,1,2,2,5,5,6,6],"right_children":[2,4,6,-1,-1,8,10,-1,-1,-1,-1],"split_conditions":[-2E-1,6E0,5.185185E-1,7.577065E-3,4.0684987E-2,-2.4628394E0,5.604928E-1,1.7862935E-3,-1.2685382E-2,1.8520072E-2,-3.4104506E-3],"split_indices":[10,11,13,0,0,7,6,0,0,0,0],"split_type":[0,0,0,0,0,0,0,0,0,0,0],"sum_hessian":[9.0626227E2,2.4990181E1,8.812721E2,1.2094377E1,1.2895804E1,4.8709647E2,3.9417563E2,2.4967885E2,2.3741762E2,1.8412552E2,2.1005011E2],"tree_param":{"num_deleted":"0","num_feature":"15","num_nodes":"11","size_leaf_vector":"1"}},{"base_weights":[-1.2360743E-2,-5.8075875E-2,6.4099133E-1,8.204666E-2,-2.2501367E-1,4.093883E-2,3.5323072E-2,1.0625627E-2,-1.320166E-2,2.0347683E-2,-1.3010588E-2,5.4314546E-3,-4.123442E-3],"categories":[],"categories_nodes":[],"categories_segments":[],"categories_sizes":[],"default_left":[0,0,0,0,0,0,0,0,0,0,0,0,0],"id":49,"left_children":[1,3,5,7,9,-1,11,-1,-1,-1,-1,-1,-1],"loss_changes":[2.798879E1,2.0638453E1,1.3766378E1,3.7618412E1,3.151831E1,0E0,6.707183E-1,0E0,0E0,0E0,0E0,0E0,0E0],"parents":[2147483647,0,0,1,1,2,2,3,3,4,4,6,6],"right_children":[2,4,6,8,10,-1,12,-1,-1,-1,-1,-1,-1],"split_conditions":[1.8504444E1,-5.574423E-1,2.64366E1,4E0,0E0,4.093883E-2,3E0,1.0625627E-2,-1.320166E-2,2.0347683E-2,-1.3010588E-2,5.4314546E-3,-4.123442E-3],"split_indices":[7,4,7,14,10,0,14,0,0,0,0,0,0],"split_type":[0,0,0,0,0,0,0,0,0,0,0,0,0],"sum_hessian":[9.1012427E2,8.608255E2,4.9298748E1,4.7131784E2,3.895077E2,2.514306E1,2.4155687E1,3.290041E2,1.4231375E2,4.0946068E1,3.485616E2,1.4128214E1,1.0027473E1],"tree_param":{"num_deleted":"0","num_feature":"15","num_nodes":"13","size_leaf_vector":"1"}},{"base_weights":[1.8458576E-3,-3.389699E-2,7.1025383E-1,2.6595242E-2,-5.5765703E-2,8.446685E-4,4.412731E-2,2.4491226E-2,-3.1683242E-3],"categories":[],"categories_nodes":[],"categories_segments":[],"categories_sizes":[],"default_left":[0,0,0,0,0,0,0,0,0],"id":50,"left_children":[1,3,5,-1,7,-1,-1,-1,-1],"loss_changes":[2.4418337E1,1.4483026E1,1.22627735E1,0E0,1.4705259E1,0E0,0E0,0E0,0E0],"parents":[2147483647,0,0,1,1,2,2,4,4],"right_children":[2,4,6,-1,8,-1,-1,-1,-1],"split_conditions":[1.8504444E1,1.3514891E3,4.676688E-1,2.6595242E-2,-2E-1,8.446685E-4,4.412731E-2,2.4491226E-2,-3.1683242E-3],"split_indices":[7,2,12,0,10,0,0,0,0],"split_type":[0,0,0,0,0,0,0,0,0],"sum_hessian":[9.409596E2,9.066407E2,3.4318905E1,1.6805622E1,8.89835E2,1.7053894E1,1.7265013E1,1.9947987E1,8.698871E2],"tree_param":{"num_deleted":"0","num_feature":"15","num_nodes":"9","size_leaf_vector":"1"}},{"base_weights":[1.13062505E-2,-3.4318484E-2,6.913469E-1,-7.974194E-2,4.6419042E-1,9.254763E-1,-6.6071805E-3,-3.649239E-5,-1.1341772E-2,-4.4889185E-3,4.5824107E-2,4.407371E-2,9.784686E-3],"categories":[],"categories_nodes":[],"categories_segments":[],"categories_sizes":[],"default_left":[0,0,0,0,0,0,0,0,0,0,0,0,0],"id":51,"left_children":[1,3,5,7,9,11,-1,-1,-1,-1,-1,-1,-1],"loss_changes":[2.8486912E1,1.99916E1,1.34088745E1,1.2871929E1,3.0548674E1,2.4267654E0,0E0,0E0,0E0,0E0,0E0,0E0,0E0],"parents":[2147483647,0,0,1,1,2,2,3,3,4,4,5,5],"right_children":[2,4,6,8,10,12,-1,-1,-1,-1,-1,-1,-1],"split_conditions":[1.8504444E1,5.972222E-1,8.6E1,4.7590205E-1,3.720528E-1,9.8E1,-6.6071805E-3,-3.649239E-5,-1.1341772E-2,-4.4889185E-3,4.5824107E-2,4.407371E-2,9.784686E-3],"split_indices":[7,13,14,12,12,3,0,0,0,0,0,0,0],"split_type":[0,0,0,0,0,0,0,0,0,0,0,0,0],"sum_hessian":[8.9696625E2,8.512493E2,4.5716915E1,7.894007E2,6.1848648E1,3.514431E1,1.0572606E1,5.7791864E2,2.1148204E2,3.8936E1,2.2912647E1,2.2020483E1,1.3123826E1],"tree_param":{"num_deleted":"0","num_feature":"15","num_nodes":"13","size_leaf_vector":"1"}},{"base_weights":[2.4493152E-2,-9.854271E-2,2.3717009E-1,-1.3015227E-1,2.618326E-2,3.9341193E-1,-2.467815E-1,-8.9355215E-4,-1.3173258E-2,-2.7480311E-5,3.491639E-2,-1.8845417E-2,2.4183837E-3],"categories":[],"categories_nodes":[],"categories_segments":[],"categories_sizes":[],"default_left":[0,0,0,0,0,0,0,0,0,0,0,0,0],"id":52,"left_children":[1,3,5,7,-1,9,11,-1,-1,-1,-1,-1,-1],"loss_changes":[2.4981833E1,1.5460766E1,2.7591042E1,1.2626267E1,0E0,5.0805946E1,6.729504E0,0E0,0E0,0E0,0E0,0E0,0E0],"parents":[2147483647,0,0,1,1,2,2,3,3,5,5,6,6],"right_children":[2,4,6,8,-1,10,12,-1,-1,-1,-1,-1,-1],"split_conditions":[9.2E1,1.2E0,1.580355E3,5E0,2.618326E-2,1.5112494E3,5.16129E-1,-8.9355215E-4,-1.3173258E-2,-2.7480311E-5,3.491639E-2,-1.8845417E-2,2.4183837E-3],"split_indices":[3,9,0,14,0,0,13,0,0,0,0,0,0],"split_type":[0,0,0,0,0,0,0,0,0,0,0,0,0],"sum_hessian":[9.319935E2,5.945056E2,3.3748795E2,5.800849E2,1.4420672E1,2.5681973E2,8.066821E1,3.8502243E2,1.9506247E2,1.4753972E2,1.0928E2,4.292339E1,3.7744827E1],"tree_param":{"num_deleted":"0","num_feature":"15","num_nodes":"13","size_leaf_vector":"1"}},{"base_weights":[2.2892581E-2,-9.327009E-2,2.1091223E-1,-1.970784E-1,8.236884E-2,6.358341E-1,1.2306871E-2,2.3346664E-3,-1.3059723E-2,2.2180883E-2,2.3741818E-4,3.599061E-2,1.2622232E-3,1.3851802E-2,-1.1572494E-2],"categories":[],"categories_nodes":[],"categories_segments":[],"categories_sizes":[],"default_left":[0,0,0,0,0,0,0,0,0,0,0,0,0,0,0],"id":53,"left_children":[1,3,5,7,9,11,13,-1,-1,-1,-1,-1,-1,-1,-1],"loss_changes":[2.0378689E1,1.0740163E1,2.9938688E1,1.2363011E1,8.019581E0,1.7699745E1,2.6865688E1,0E0,0E0,0E0,0E0,0E0,0E0,0E0,0E0],"parents":[2147483647,0,0,1,1,2,2,3,3,4,4,5,5,6,6],"right_children":[2,4,6,8,10,12,14,-1,-1,-1,-1,-1,-1,-1,-1],"split_conditions":[9.2E1,1.5560847E3,1.4543855E3,4.642857E-1,-6.0157065E0,4.561661E0,-5.574423E-1,2.3346664E-3,-1.3059723E-2,2.2180883E-2,2.3741818E-4,3.599061E-2,1.2622232E-3,1.3851802E-2,-1.1572494E-2],"split_indices":[3,0,2,13,6,5,4,0,0,0,0,0,0,0,0],"split_type":[0,0,0,0,0,0,0,0,0,0,0,0,0,0,0],"sum_hessian":[9.10245E2,5.6637396E2,3.4387106E2,3.5505823E2,2.113157E2,1.0111489E2,2.4275618E2,1.2160878E2,2.3344945E2,1.8984259E1,1.9233145E2,6.629242E1,3.4822475E1,1.14353325E2,1.2840286E2],"tree_param":{"num_deleted":"0","num_feature":"15","num_nodes":"15","size_leaf_vector":"1"}},{"base_weights":[2.1715624E-2,-1.1871797E-1,2.0185642E-1,-4.00492E-2,-4.0387928E-1,4.913524E-1,-4.8495293E-2,-1.1927796E-2,3.8594063E-3,-2.0054145E-2,6.850977E-3,1.016888E-3,3.4601856E-2,-1.825493E-2,5.2246004E-3],"categories":[],"categories_nodes":[],"categories_segments":[],"categories_sizes":[],"default_left":[0,0,0,0,0,0,0,0,0,0,0,0,0,0,0],"id":54,"left_children":[1,3,5,7,9,11,13,-1,-1,-1,-1,-1,-1,-1,-1],"loss_changes":[2.3085707E1,1.1335777E1,2.922024E1,1.5012875E1,7.1866856E0,3.2159428E1,1.7153412E1,0E0,0E0,0E0,0E0,0E0,0E0,0E0,0E0],"parents":[2147483647,0,0,1,1,2,2,3,3,4,4,5,5,6,6],"right_children":[2,4,6,8,10,12,14,-1,-1,-1,-1,-1,-1,-1,-1],"split_conditions":[5.1724136E-1,5.761475E-1,5.604928E-1,-2.0197716E0,2.0476453E0,9.3E1,-1.4E1,-1.1927796E-2,3.8594063E-3,-2.0054145E-2,6.850977E-3,1.016888E-3,3.4601856E-2,-1.825493E-2,5.2246004E-3],"split_indices":[13,12,6,5,6,3,14,0,0,0,0,0,0,0,0],"split_type":[0,0,0,0,0,0,0,0,0,0,0,0,0,0,0],"sum_hessian":[8.891899E2,5.019629E2,3.87227E2,4.0415274E2,9.781016E1,1.7421753E2,2.1300948E2,1.3489612E2,2.6925662E2,8.495257E1,1.2857594E1,8.324371E1,9.0973816E1,5.9328335E1,1.5368114E2],"tree_param":{"num_deleted":"0","num_feature":"15","num_nodes":"15","size_leaf_vector":"1"}},{"base_weights":[6.869998E-2,2.706515E-2,6.674755E-1,-6.2464092E-2,2.3042332E-1,5.30439E-4,8.915431E-1,1.2106237E-2,-5.247913E-3,2.1653855E-2,-9.067539E-3,4.4142835E-2,4.3068305E-3],"categories":[],"categories_nodes":[],"categories_segments":[],"categories_sizes":[],"default_left":[0,0,0,0,0,0,0,0,0,0,0,0,0],"id":55,"left_children":[1,3,5,7,9,-1,11,-1,-1,-1,-1,-1,-1],"loss_changes":[2.2566135E1,1.5957247E1,8.493143E0,1.58201885E1,3.950192E1,0E0,5.8367195E0,0E0,0E0,0E0,0E0,0E0,0E0],"parents":[2147483647,0,0,1,1,2,2,3,3,4,4,6,6],"right_children":[2,4,6,8,10,-1,12,-1,-1,-1,-1,-1,-1],"split_conditions":[1.8504444E1,9.2E1,-2.580783E0,6.8E1,7.6117086E-1,5.30439E-4,9.8E1,1.2106237E-2,-5.247913E-3,2.1653855E-2,-9.067539E-3,4.4142835E-2,4.3068305E-3],"split_indices":[7,3,5,1,4,0,3,0,0,0,0,0,0],"split_type":[0,0,0,0,0,0,0,0,0,0,0,0,0],"sum_hessian":[9.018786E2,8.5497205E2,4.6906605E1,5.993985E2,2.5557353E2,1.5209455E1,3.169715E1,8.849026E1,5.1090823E2,1.5079376E2,1.0477977E2,2.1096626E1,1.0600522E1],"tree_param":{"num_deleted":"0","num_feature":"15","num_nodes":"13","size_leaf_vector":"1"}},{"base_weights":[1.5978733E-2,-1.665135E-1,1.4172348E-1,-3.1741506E-1,1.797457E-2,2.1641554E-1,-2.7699295E-1,-1.6946478E-2,2.1156508E-3,6.1157783E-3,-1.2177001E-2,8.3814804E-5,1.4809354E-2,-2.2669809E-2,4.9673044E-4],"categories":[],"categories_nodes":[],"categories_segments":[],"categories_sizes":[],"default_left":[0,0,0,0,0,0,0,0,0,0,0,0,0,0,0],"id":56,"left_children":[1,3,5,7,9,11,13,-1,-1,-1,-1,-1,-1,-1,-1],"loss_changes":[2.252262E1,1.1228752E1,1.886709E1,8.969999E0,8.898175E0,1.6446295E1,7.8919377E0,0E0,0E0,0E0,0E0,0E0,0E0,0E0,0E0],"parents":[2147483647,0,0,1,1,2,2,3,3,4,4,5,5,6,6],"right_children":[2,4,6,8,10,12,14,-1,-1,-1,-1,-1,-1,-1,-1],"split_conditions":[8E1,1.5560847E3,4.265445E0,9.4E1,5.905512E-1,7.5155467E-1,5.182939E0,-1.6946478E-2,2.1156508E-3,6.1157783E-3,-1.2177001E-2,8.3814804E-5,1.4809354E-2,-2.2669809E-2,4.9673044E-4],"split_indices":[3,0,4,1,12,7,4,0,0,0,0,0,0,0,0],"split_type":[0,0,0,0,0,0,0,0,0,0,0,0,0,0,0],"sum_hessian":[9.571465E2,3.888791E2,5.682674E2,2.0915504E2,1.7972406E2,4.871633E2,8.1104095E1,1.6118066E2,4.7974373E1,1.3114906E2,4.857499E1,2.0863237E2,2.785309E2,3.4781937E1,4.632216E1],"tree_param":{"num_deleted":"0","num_feature":"15","num_nodes":"15","size_leaf_vector":"1"}},{"base_weights":[1.9824713E-2,-1.3891327E-1,1.2792772E-1,1.2681116E-1,-2.18185E-1,4.163572E-2,7.446137E-2,1.8672392E-2,-3.7000335E-3,-1.0950273E-2,1.0815E-2,2.4844434E-2,5.5535015E-4],"categories":[],"categories_nodes":[],"categories_segments":[],"categories_sizes":[],"default_left":[0,0,0,0,0,0,0,0,0,0,0,0,0],"id":57,"left_children":[1,3,5,7,9,-1,11,-1,-1,-1,-1,-1,-1],"loss_changes":[1.6250708E1,8.428591E0,2.651299E1,7.669648E0,9.045837E0,0E0,1.7911934E1,0E0,0E0,0E0,0E0,0E0,0E0],"parents":[2147483647,0,0,1,1,2,2,3,3,4,4,6,6],"right_children":[2,4,6,8,10,-1,12,-1,-1,-1,-1,-1,-1],"split_conditions":[1.5116735E3,-4.144219E-1,1.3752761E3,8.2E1,7.498636E0,4.163572E-2,1.514896E3,1.8672392E-2,-3.7000335E-3,-1.0950273E-2,1.0815E-2,2.4844434E-2,5.5535015E-4],"split_indices":[0,12,2,1,5,0,0,0,0,0,0,0,0],"split_type":[0,0,0,0,0,0,0,0,0,0,0,0,0],"sum_hessian":[9.225808E2,3.723717E2,5.502091E2,8.390839E1,2.8846332E2,1.817879E1,5.3203033E2,2.7591364E1,5.6317024E1,2.637399E2,2.4723421E1,4.199867E1,4.9003165E2],"tree_param":{"num_deleted":"0","num_feature":"15","num_nodes":"13","size_leaf_vector":"1"}},{"base_weights":[-1.2585016E-2,4.7158557E-1,-6.110019E-2,-6.9792055E-2,1.0666379E0,5.9426886E-1,-9.067168E-2,1.4617368E-2,-1.1218073E-2,4.8220757E-2,1.2216111E-2,3.5598483E-2,-3.6511503E-3,-4.6177013E-3,1.9717632E-2],"categories":[],"categories_nodes":[],"categories_segments":[],"categories_sizes":[],"default_left":[0,0,0,0,0,0,0,0,0,0,0,0,0,0,0],"id":58,"left_children":[1,3,5,7,9,11,13,-1,-1,-1,-1,-1,-1,-1,-1],"loss_changes":[2.2484764E1,2.8989838E1,1.7454796E1,6.44952E0,5.2433014E-2,8.8871765E0,1.2830053E1,0E0,0E0,0E0,0E0,0E0,0E0,0E0,0E0],"parents":[2147483647,0,0,1,1,2,2,3,3,4,4,5,5,6,6],"right_children":[2,4,6,8,10,12,14,-1,-1,-1,-1,-1,-1,-1,-1],"split_conditions":[1.4041642E3,1.2533285E1,-2E-1,2.5541392E-1,9.9E1,1E0,6.617647E-1,1.4617368E-2,-1.1218073E-2,4.8220757E-2,1.2216111E-2,3.5598483E-2,-3.6511503E-3,-4.6177013E-3,1.9717632E-2],"split_indices":[2,7,10,5,3,14,13,0,0,0,0,0,0,0,0],"split_type":[0,0,0,0,0,0,0,0,0,0,0,0,0,0,0],"sum_hessian":[9.3050134E2,7.521618E1,8.5528516E2,4.4930786E1,3.0285397E1,2.7032557E1,8.282526E2,1.1778883E1,3.31519E1,1.9689573E1,1.0595823E1,1.6386526E1,1.064603E1,8.03764E2,2.4488644E1],"tree_param":{"num_deleted":"0","num_feature":"15","num_nodes":"15","size_leaf_vector":"1"}},{"base_weights":[5.0593846E-2,-1.7806748E-1,1.4761654E-1,-2.2045229E-2,-7.220102E-2,4.189035E-2,9.375537E-2,1.1453861E-3,-1.5941301E-2,-5.498305E-3,8.561164E-3],"categories":[],"categories_nodes":[],"categories_segments":[],"categories_sizes":[],"default_left":[0,0,0,0,0,0,0,0,0,0,0],"id":59,"left_children":[1,3,5,-1,7,-1,9,-1,-1,-1,-1],"loss_changes":[2.1125025E1,1.07734E1,3.1050613E1,0E0,7.893152E0,0E0,1.8170938E1,0E0,0E0,0E0,0E0],"parents":[2147483647,0,0,1,1,2,2,4,4,6,6],"right_children":[2,4,6,-1,8,-1,10,-1,-1,-1,-1],"split_conditions":[1.4846572E3,-8.7E1,1.3807637E3,-2.2045229E-2,4.3358555E0,4.189035E-2,7.4E1,1.1453861E-3,-1.5941301E-2,-5.498305E-3,8.561164E-3],"split_indices":[0,14,2,0,4,0,1,0,0,0,0],"split_type":[0,0,0,0,0,0,0,0,0,0,0],"sum_hessian":[9.259888E2,2.7286996E2,6.531188E2,4.9160877E1,2.2370908E2,2.4391068E1,6.287277E2,1.7926396E2,4.444511E1,2.1455496E2,4.1417276E2],"tree_param":{"num_deleted":"0","num_feature":"15","num_nodes":"11","size_leaf_vector":"1"}},{"base_weights":[4.0558334E-2,6.758768E-1,-5.2563287E-3,1.913829E-2,4.028935E-2,-1.6677926E-1,1.0082014E-1,1.1396099E-2,-9.96286E-3,-2.2614473E-2,-3.0051237E-3,-1.7257282E-3,1.50409E-2],"categories":[],"categories_nodes":[],"categories_segments":[],"categories_sizes":[],"default_left":[0,0,0,0,0,0,0,0,0,0,0,0,0],"id":60,"left_children":[1,3,5,7,-1,9,11,-1,-1,-1,-1,-1,-1],"loss_changes":[2.7494661E1,1.3593927E1,1.5478499E1,3.2420998E0,0E0,1.2566683E1,2.1813087E1,0E0,0E0,0E0,0E0,0E0,0E0],"parents":[2147483647,0,0,1,1,2,2,3,3,5,5,6,6],"right_children":[2,4,6,8,-1,10,12,-1,-1,-1,-1,-1,-1],"split_conditions":[1.389699E3,5.3125E-1,1.5116735E3,5.042044E0,4.028935E-2,-8.4E1,9.2E1,1.1396099E-2,-9.96286E-3,-2.2614473E-2,-3.0051237E-3,-1.7257282E-3,1.50409E-2],"split_indices":[2,13,0,7,0,14,3,0,0,0,0,0,0],"split_type":[0,0,0,0,0,0,0,0,0,0,0,0,0],"sum_hessian":[9.3114496E2,5.153082E1,8.7961414E2,2.153743E1,2.999339E1,3.4595715E2,5.33657E2,1.04429E1,1.1094529E1,5.308253E1,2.928746E2,3.5701483E2,1.7664215E2],"tree_param":{"num_deleted":"0","num_feature":"15","num_nodes":"13","size_leaf_vector":"1"}},{"base_weights":[5.987264E-3,3.01687E-2,-2.2813793E-2,-1.2991968E-1,1.5732983E-1,8.159605E-4,-1.0606405E-2,-1.1721618E-2,1.1639384E-2],"categories":[],"categories_nodes":[],"categories_segments":[],"categories_sizes":[],"default_left":[0,0,0,0,0,0,0,0,0],"id":61,"left_children":[1,-1,3,5,7,-1,-1,-1,-1],"loss_changes":[2.0868582E1,0E0,1.8283947E1,1.2117842E1,2.2333569E1,0E0,0E0,0E0,0E0],"parents":[2147483647,0,0,2,2,3,3,4,4],"right_children":[2,-1,4,6,8,-1,-1,-1,-1],"split_conditions":[-2E-1,3.01687E-2,5.3125E-1,-1.0811563E0,-5.2E1,8.159605E-4,-1.0606405E-2,-1.1721618E-2,1.1639384E-2],"split_indices":[10,0,13,4,14,0,0,0,0],"split_type":[0,0,0,0,0,0,0,0,0],"sum_hessian":[9.468061E2,2.3890955E1,9.2291516E2,5.808886E2,3.4202655E2,2.799341E2,3.009545E2,7.4998245E1,2.670283E2],"tree_param":{"num_deleted":"0","num_feature":"15","num_nodes":"9","size_leaf_vector":"1"}},{"base_weights":[-1.906111E-3,7.5797796E-2,-1.9311546E-1,2.8930068E-1,-5.644932E-2,3.5924074E-1,-2.7083963E-1,-4.920866E-3,1.7034689E-2,-8.0603035E-3,9.52431E-3,-2.7748916E-4,2.3962446E-2,-1.6743978E-2,-2.7172917E-3],"categories":[],"categories_nodes":[],"categories_segments":[],"categories_sizes":[],"default_left":[0,0,0,0,0,0,0,0,0,0,0,0,0,0,0],"id":62,"left_children":[1,3,5,7,9,11,13,-1,-1,-1,-1,-1,-1,-1,-1],"loss_changes":[1.383779E1,1.8900215E1,1.2719803E1,1.500676E1,1.8483274E1,3.4177852E0,6.9363155E0,0E0,0E0,0E0,0E0,0E0,0E0,0E0,0E0],"parents":[2147483647,0,0,1,1,2,2,3,3,4,4,5,5,6,6],"right_children":[2,4,6,8,10,12,14,-1,-1,-1,-1,-1,-1,-1,-1],"split_conditions":[5E0,-1.9950346E0,1.389699E3,-5.8971214E0,2.3319561E0,-9.714695E-2,4.5112872E-1,-4.920866E-3,1.7034689E-2,-8.0603035E-3,9.52431E-3,-2.7748916E-4,2.3962446E-2,-1.6743978E-2,-2.7172917E-3],"split_indices":[14,4,2,4,4,12,6,0,0,0,0,0,0,0,0],"split_type":[0,0,0,0,0,0,0,0,0,0,0,0,0,0,0],"sum_hessian":[9.0753156E2,6.504456E2,2.570859E2,2.4334032E2,4.071053E2,2.6351545E1,2.3073438E2,6.0840523E1,1.824998E2,2.7531418E2,1.3179112E2,1.5040032E1,1.1311512E1,1.2612926E2,1.0460512E2],"tree_param":{"num_deleted":"0","num_feature":"15","num_nodes":"15","size_leaf_vector":"1"}},{"base_weights":[-1.2490063E-2,-1.5990743E-1,1.7560454E-1,-1.3972967E-2,-3.7209687E-1,2.1725233E-1,-2.5655458E-2,-7.164283E-3,7.535278E-3,-2.4688756E-2,-4.9615465E-3,-3.1088288E-3,1.3869803E-2],"categories":[],"categories_nodes":[],"categories_segments":[],"categories_sizes":[],"default_left":[0,0,0,0,0,0,0,0,0,0,0,0,0],"id":63,"left_children":[1,3,5,7,9,11,-1,-1,-1,-1,-1,-1,-1],"loss_changes":[2.6546999E1,1.6541485E1,1.5998356E1,1.1437717E1,1.2338646E1,1.5968113E1,0E0,0E0,0E0,0E0,0E0,0E0,0E0],"parents":[2147483647,0,0,1,1,2,2,3,3,4,4,5,5],"right_children":[2,4,6,8,10,12,-1,-1,-1,-1,-1,-1,-1],"split_conditions":[5.1724136E-1,-2.0207548E0,1.2E0,2.473095E-1,-9.664699E-1,1.4996561E3,-2.5655458E-2,-7.164283E-3,7.535278E-3,-2.4688756E-2,-4.9615465E-3,-3.1088288E-3,1.3869803E-2],"split_indices":[13,7,8,12,6,0,0,0,0,0,0,0,0],"split_type":[0,0,0,0,0,0,0,0,0,0,0,0,0],"sum_hessian":[9.332411E2,5.242014E2,4.0903964E2,3.181691E2,2.0603233E2,3.9758112E2,1.14585285E1,1.7595642E2,1.4221268E2,9.46471E1,1.1138524E2,1.2275463E2,2.7482648E2],"tree_param":{"num_deleted":"0","num_feature":"15","num_nodes":"13","size_leaf_vector":"1"}},{"base_weights":[-1.8053308E-2,-5.5854723E-2,5.950964E-1,2.2469519E-2,-2.8327933E-1,8.556453E-1,2.0428677E-3,-3.4671812E-3,1.1164764E-2,-1.78338E-2,3.1511076E-3,9.091413E-3,3.985336E-2],"categories":[],"categories_nodes":[],"categories_segments":[],"categories_sizes":[],"default_left":[0,0,0,0,0,0,0,0,0,0,0,0,0],"id":64,"left_children":[1,3,5,7,9,11,-1,-1,-1,-1,-1,-1,-1],"loss_changes":[2.2562124E1,1.6315725E1,7.4924984E0,1.9598034E1,1.421924E1,5.960274E-1,0E0,0E0,0E0,0E0,0E0,0E0,0E0],"parents":[2147483647,0,0,1,1,2,2,3,3,4,4,5,5],"right_children":[2,4,6,8,10,12,-1,-1,-1,-1,-1,-1,-1],"split_conditions":[1.8504444E1,4.8890948E-1,2.64366E1,1.4994375E-1,4.3151727E0,4.4994375E-1,2.0428677E-3,-3.4671812E-3,1.1164764E-2,-1.78338E-2,3.1511076E-3,9.091413E-3,3.985336E-2],"split_indices":[7,12,7,12,7,12,0,0,0,0,0,0,0],"split_type":[0,0,0,0,0,0,0,0,0,0,0,0,0],"sum_hessian":[9.442226E2,8.9966406E2,4.4558502E1,6.7723956E2,2.2242455E2,2.5481174E1,1.9077328E1,4.8073685E2,1.9650269E2,1.5158496E2,7.0839584E1,1.0403246E1,1.5077929E1],"tree_param":{"num_deleted":"0","num_feature":"15","num_nodes":"13","size_leaf_vector":"1"}},{"base_weights":[-4.34533E-2,-1.7639484E-1,9.1711596E-2,-3.0788086E-2,-4.117285E-1,7.8830767E-1,-1.48509955E-2,1.4522438E-2,-6.1781732E-3,-2.1678885E-2,4.465605E-3,9.028515E-3,4.300527E-2,1.6816981E-2,-4.2720702E-3],"categories":[],"categories_nodes":[],"categories_segments":[],"categories_sizes":[],"default_left":[0,0,0,0,0,0,0,0,0,0,0,0,0,0,0],"id":65,"left_children":[1,3,5,7,9,11,13,-1,-1,-1,-1,-1,-1,-1,-1],"loss_changes":[1.6779852E1,1.5933819E1,3.470073E1,1.542963E1,1.2891165E1,7.0917015E0,1.7172056E1,0E0,0E0,0E0,0E0,0E0,0E0,0E0,0E0],"parents":[2147483647,0,0,1,1,2,2,3,3,4,4,5,5,6,6],"right_children":[2,4,6,8,10,12,14,-1,-1,-1,-1,-1,-1,-1,-1],"split_conditions":[7.5155467E-1,5E-1,1.5912335E0,-3.1496063E-1,5.1081014E0,9E1,1.4041642E3,1.4522438E-2,-6.1781732E-3,-2.1678885E-2,4.465605E-3,9.028515E-3,4.300527E-2,1.6816981E-2,-4.2720702E-3],"split_indices":[7,13,7,12,6,3,2,0,0,0,0,0,0,0,0],"split_type":[0,0,0,0,0,0,0,0,0,0,0,0,0,0,0],"sum_hessian":[9.110172E2,4.5744067E2,4.535765E2,2.9097635E2,1.6646431E2,4.9994293E1,4.035822E2,6.3981136E1,2.2699521E2,1.3295184E2,3.351247E1,2.4122393E1,2.58719E1,6.2910385E1,3.4067184E2],"tree_param":{"num_deleted":"0","num_feature":"15","num_nodes":"15","size_leaf_vector":"1"}},{"base_weights":[-6.9483775E-3,1.1578774E-1,-1.8278638E-1,1.2919886E-2,5.576045E-1,1.4561592E-1,-2.8963274E-1,2.9628055E-2,-1.3769718E-3,8.714027E-3,4.1789383E-2,1.2909996E-2,-1.4930288E-2,-1.2973514E-3,-1.6809078E-2],"categories":[],"categories_nodes":[],"categories_segments":[],"categories_sizes":[],"default_left":[0,0,0,0,0,0,0,0,0,0,0,0,0,0,0],"id":66,"left_children":[1,3,5,7,9,11,13,-1,-1,-1,-1,-1,-1,-1,-1],"loss_changes":[2.0736553E1,2.5650257E1,1.4358831E1,1.655616E1,1.492181E1,1.1087035E1,9.976625E0,0E0,0E0,0E0,0E0,0E0,0E0,0E0,0E0],"parents":[2147483647,0,0,1,1,2,2,3,3,4,4,5,5,6,6],"right_children":[2,4,6,8,10,12,14,-1,-1,-1,-1,-1,-1,-1,-1],"split_conditions":[8.5E1,5.714286E-1,-1.9950346E0,-2E-1,4.1581962E-1,1.5520404E3,4.7191012E-1,2.9628055E-2,-1.3769718E-3,8.714027E-3,4.1789383E-2,1.2909996E-2,-1.4930288E-2,-1.2973514E-3,-1.6809078E-2],"split_indices":[1,13,4,10,12,2,13,0,0,0,0,0,0,0,0],"split_type":[0,0,0,0,0,0,0,0,0,0,0,0,0,0,0],"sum_hessian":[9.3707294E2,5.542799E2,3.8279303E2,4.5961826E2,9.466166E1,9.290047E1,2.8989258E2,1.7339079E1,4.4227917E2,6.599756E1,2.86641E1,7.263868E1,2.0261793E1,1.0266977E2,1.872228E2],"tree_param":{"num_deleted":"0","num_feature":"15","num_nodes":"15","size_leaf_vector":"1"}},{"base_weights":[3.649344E-2,6.6413623E-1,7.878361E-3,5.860383E-3,3.1444393E-2,1.3166432E-1,-1.2951909E-1,1.0487128E-2,-7.991304E-3,-2.4994222E-2,-1.5222222E-3],"categories":[],"categories_nodes":[],"categories_segments":[],"categories_sizes":[],"default_left":[0,0,0,0,0,0,0,0,0,0,0],"id":67,"left_children":[1,3,5,-1,-1,7,9,-1,-1,-1,-1],"loss_changes":[1.6464697E1,1.1422234E0,1.53799925E1,0E0,0E0,2.1190481E1,1.9147274E1,0E0,0E0,0E0,0E0],"parents":[2147483647,0,0,1,1,2,2,5,5,6,6],"right_children":[2,4,6,-1,-1,8,10,-1,-1,-1,-1],"split_conditions":[-2E-1,8.4E1,-3.309137E-1,5.860383E-3,3.1444393E-2,5E0,-3.4349272E0,1.0487128E-2,-7.991304E-3,-2.4994222E-2,-1.5222222E-3],"split_indices":[10,3,4,0,0,14,6,0,0,0,0],"split_type":[0,0,0,0,0,0,0,0,0,0,0],"sum_hessian":[9.08236E2,2.7981365E1,8.8025464E2,1.0373329E1,1.7608036E1,4.6332785E2,4.1692682E2,3.3422708E2,1.2910077E2,5.407787E1,3.6284894E2],"tree_param":{"num_deleted":"0","num_feature":"15","num_nodes":"11","size_leaf_vector":"1"}},{"base_weights":[-1.5174931E-2,-4.3589883E-2,4.0231374E-1,-1.7983966E-1,5.3658128E-2,2.8770808E-2,-6.585196E-3,9.678953E-3,-1.0311312E-2,2.9778656E-2,3.069033E-4,4.522107E-3,-5.3069633E-3],"categories":[],"categories_nodes":[],"categories_segments":[],"categories_sizes":[],"default_left":[0,0,0,0,0,0,0,0,0,0,0,0,0],"id":68,"left_children":[1,3,5,7,9,-1,11,-1,-1,-1,-1,-1,-1],"loss_changes":[1.1123362E1,1.1671461E1,7.8063765E0,1.2781119E1,1.6391346E1,0E0,7.5323987E-1,0E0,0E0,0E0,0E0,0E0,0E0],"parents":[2147483647,0,0,1,1,2,2,3,3,4,4,6,6],"right_children":[2,4,6,8,10,-1,12,-1,-1,-1,-1,-1,-1],"split_conditions":[1.8504444E1,1.5143147E3,2.64366E1,4.027778E-1,1.514896E3,2.8770808E-2,-3.8E1,9.678953E-3,-1.0311312E-2,2.9778656E-2,3.069033E-4,4.522107E-3,-5.3069633E-3],"split_indices":[7,0,7,13,0,0,14,0,0,0,0,0,0],"split_type":[0,0,0,0,0,0,0,0,0,0,0,0,0],"sum_hessian":[9.079185E2,8.6012415E2,4.7794357E1,3.5398306E2,5.0614108E2,2.1793053E1,2.6001305E1,5.1269333E1,3.0271375E2,2.02138E1,4.8592728E2,1.3978575E1,1.202273E1],"tree_param":{"num_deleted":"0","num_feature":"15","num_nodes":"13","size_leaf_vector":"1"}},{"base_weights":[1.1717218E-2,5.5667114E-1,-2.8175822E-2,-6.380483E-4,8.149433E-1,-2.5987133E-1,3.4337256E-2,6.2835473E-3,4.220147E-2,-2.0735394E-2,-2.425163E-3,1.9087527E-2,-8.66989E-4],"categories":[],"categories_nodes":[],"categories_segments":[],"categories_sizes":[],"default_left":[0,0,0,0,0,0,0,0,0,0,0,0,0],"id":69,"left_children":[1,3,5,-1,7,9,11,-1,-1,-1,-1,-1,-1],"loss_changes":[2.0331673E1,9.5886135E0,1.2777497E1,0E0,4.9901257E0,9.268752E0,1.7475506E1,0E0,0E0,0E0,0E0,0E0,0E0],"parents":[2147483647,0,0,1,1,2,2,4,4,5,5,6,6],"right_children":[2,4,6,-1,8,10,12,-1,-1,-1,-1,-1,-1],"split_conditions":[1.3873263E3,5.3125E-1,7.5E1,-6.380483E-4,1.2533285E1,-5.6953053E0,0E0,6.2835473E-3,4.220147E-2,-2.0735394E-2,-2.425163E-3,1.9087527E-2,-8.66989E-4],"split_indices":[2,13,3,0,7,7,10,0,0,0,0,0,0],"split_type":[0,0,0,0,0,0,0,0,0,0,0,0,0],"sum_hessian":[9.1456757E2,5.1780285E1,8.627873E2,1.9594854E1,3.218543E1,1.7527425E2,6.8751306E2,1.391361E1,1.827182E1,6.7923386E1,1.0735085E2,6.7062225E1,6.204508E2],"tree_param":{"num_deleted":"0","num_feature":"15","num_nodes":"13","size_leaf_vector":"1"}},{"base_weights":[1.8902533E-2,1.7912817E-1,-6.0362104E-2,-1.8284625E-1,3.3585218E-1,3.0826467E-1,-1.2183301E-1,1.4019188E-2,-1.4498811E-2,2.0297918E-2,6.141403E-4,3.3590104E-2,-1.8688573E-3,-1.4610431E-2,-7.2006776E-4],"categories":[],"categories_nodes":[],"categories_segments":[],"categories_sizes":[],"default_left":[0,0,0,0,0,0,0,0,0,0,0,0,0,0,0],"id":70,"left_children":[1,3,5,7,9,11,13,-1,-1,-1,-1,-1,-1,-1,-1],"loss_changes":[1.21684675E1,1.87066E1,1.5024482E1,1.1437442E1,1.2296049E1,1.8455124E1,1.4071162E1,0E0,0E0,0E0,0E0,0E0,0E0,0E0,0E0],"parents":[2147483647,0,0,1,1,2,2,3,3,4,4,5,5,6,6],"right_children":[2,4,6,8,10,12,14,-1,-1,-1,-1,-1,-1,-1,-1],"split_conditions":[-2.2263117E0,-5.8971214E0,1.4041642E3,-3.4581825E-1,-2.3325307E0,7.6E1,-9E0,1.4019188E-2,-1.4498811E-2,2.0297918E-2,6.141403E-4,3.3590104E-2,-1.8688573E-3,-1.4610431E-2,-7.2006776E-4],"split_indices":[4,4,2,12,6,1,14,0,0,0,0,0,0,0,0],"split_type":[0,0,0,0,0,0,0,0,0,0,0,0,0,0,0],"sum_hessian":[9.359135E2,3.0475763E2,6.3115594E2,9.147776E1,2.1327986E2,8.332108E1,5.4783484E2,2.0171595E1,7.130617E1,1.3434924E2,7.893061E1,2.680352E1,5.6517563E1,1.5476991E2,3.930649E2],"tree_param":{"num_deleted":"0","num_feature":"15","num_nodes":"15","size_leaf_vector":"1"}},{"base_weights":[2.22236E-2,6.4977026E-1,-4.3294616E-3,8.540353E-3,3.225747E-2,2.9655749E-2,-5.186776E-1,-2.2298244E-3,8.151736E-3,3.7044662E-3,-2.7809836E-2],"categories":[],"categories_nodes":[],"categories_segments":[],"categories_sizes":[],"default_left":[0,0,0,0,0,0,0,0,0,0,0],"id":71,"left_children":[1,3,5,-1,-1,7,9,-1,-1,-1,-1],"loss_changes":[1.629506E1,6.468773E-1,1.6759007E1,0E0,0E0,1.3532134E1,7.185728E0,0E0,0E0,0E0,0E0],"parents":[2147483647,0,0,1,1,2,2,5,5,6,6],"right_children":[2,4,6,-1,-1,8,10,-1,-1,-1,-1],"split_conditions":[-2E-1,6E0,6.7777905E0,8.540353E-3,3.225747E-2,9.3E1,-1E0,-2.2298244E-3,8.151736E-3,3.7044662E-3,-2.7809836E-2],"split_indices":[10,11,5,0,0,3,11,0,0,0,0],"split_type":[0,0,0,0,0,0,0,0,0,0,0],"sum_hessian":[9.6387604E2,2.769494E1,9.3618115E2,1.4809511E1,1.2885429E1,8.887647E2,4.741642E1,6.0179047E2,2.869742E2,1.1905349E1,3.551107E1],"tree_param":{"num_deleted":"0","num_feature":"15","num_nodes":"11","size_leaf_vector":"1"}},{"base_weights":[-6.917036E-3,1.8908808E-1,-1.3267784E-1,1.1083212E-2,4.2251647E-1,2.52068E-2,-1.610522E-1,5.355093E-3,-1.392494E-2,2.5453942E-2,8.922371E-4,-1.579525E-2,-2.2832074E-3],"categories":[],"categories_nodes":[],"categories_segments":[],"categories_sizes":[],"default_left":[0,0,0,0,0,0,0,0,0,0,0,0,0],"id":72,"left_children":[1,3,5,7,9,-1,11,-1,-1,-1,-1,-1,-1],"loss_changes":[2.349141E1,1.5428077E1,1.3775221E1,1.0428532E1,1.35994625E1,0E0,1.356028E1,0E0,0E0,0E0,0E0,0E0,0E0],"parents":[2147483647,0,0,1,1,2,2,3,3,4,4,6,6],"right_children":[2,4,6,8,10,-1,12,-1,-1,-1,-1,-1,-1],"split_conditions":[-1.7967218E0,5.131579E-1,1.3657228E3,4E0,1.5998378E3,2.52068E-2,1.6446436E-2,5.355093E-3,-1.392494E-2,2.5453942E-2,8.922371E-4,-1.579525E-2,-2.2832074E-3],"split_indices":[4,13,0,14,0,0,4,0,0,0,0,0,0],"split_type":[0,0,0,0,0,0,0,0,0,0,0,0,0],"sum_hessian":[9.287945E2,3.606535E2,5.68141E2,2.117498E2,1.4890372E2,1.1247271E1,5.5689374E2,1.6341446E2,4.8335346E1,9.243525E1,5.6468464E1,1.6107245E2,3.9582126E2],"tree_param":{"num_deleted":"0","num_feature":"15","num_nodes":"13","size_leaf_vector":"1"}},{"base_weights":[-7.041949E-2,-1.608363E-1,7.252542E-2,2.0804996E-2,-1.9297291E-1,-1.8866947E-1,2.0817943E-1,4.2062922E-4,-1.3429559E-2,6.9297836E-3,-1.6495064E-2,1.3482704E-2,-1.425053E-2],"categories":[],"categories_nodes":[],"categories_segments":[],"categories_sizes":[],"default_left":[0,0,0,0,0,0,0,0,0,0,0,0,0],"id":73,"left_children":[1,3,5,-1,7,9,11,-1,-1,-1,-1,-1,-1],"loss_changes":[1.2174504E1,1.3767731E1,1.3547232E1,0E0,1.62231E1,1.158029E1,1.952648E1,0E0,0E0,0E0,0E0,0E0,0E0],"parents":[2147483647,0,0,1,1,2,2,4,4,5,5,6,6],"right_children":[2,4,6,-1,8,10,12,-1,-1,-1,-1,-1,-1],"split_conditions":[5.277778E-1,1.3657228E3,-9E0,2.0804996E-2,-2.294966E0,-8.9E1,9.4E1,4.2062922E-4,-1.3429559E-2,6.9297836E-3,-1.6495064E-2,1.3482704E-2,-1.425053E-2],"split_indices":[13,0,14,0,4,14,1,0,0,0,0,0,0],"split_type":[0,0,0,0,0,0,0,0,0,0,0,0,0],"sum_hessian":[9.19132E2,5.620911E2,3.570409E2,1.711946E1,5.449717E2,1.2044343E2,2.3659746E2,2.2928342E2,3.1568823E2,4.7043385E1,7.340004E1,1.9655003E2,4.0047424E1],"tree_param":{"num_deleted":"0","num_feature":"15","num_nodes":"13","size_leaf_vector":"1"}},{"base_weights":[-1.4626361E-2,1.4239529E-1,-1.1494118E-1,-1.4073753E-1,2.9039E-1,3.9804247E-1,-1.70166E-1,-2.0095274E-2,1.0881272E-2,2.1924214E-2,3.0163145E-3,-1.539006E-2,2.9001063E-2,-3.4838468E-3,-1.5497224E-2],"categories":[],"categories_nodes":[],"categories_segments":[],"categories_sizes":[],"default_left":[0,0,0,0,0,0,0,0,0,0,0,0,0,0,0],"id":74,"left_children":[1,3,5,7,9,11,13,-1,-1,-1,-1,-1,-1,-1,-1],"loss_changes":[1.5075501E1,1.6144524E1,1.7329473E1,2.1990017E1,1.3314165E1,1.8771242E1,9.246557E0,0E0,0E0,0E0,0E0,0E0,0E0,0E0,0E0],"parents":[2147483647,0,0,1,1,2,2,3,3,4,4,5,5,6,6],"right_children":[2,4,6,8,10,12,14,-1,-1,-1,-1,-1,-1,-1,-1],"split_conditions":[-1.9950346E0,1.5155149E3,0E0,-3.162209E0,-4.555024E0,8.1E1,3.2919555E0,-2.0095274E-2,1.0881272E-2,2.1924214E-2,3.0163145E-3,-1.539006E-2,2.9001063E-2,-3.4838468E-3,-1.5497224E-2],"split_indices":[4,0,10,4,6,3,5,0,0,0,0,0,0,0,0],"split_type":[0,0,0,0,0,0,0,0,0,0,0,0,0,0,0],"sum_hessian":[9.326087E2,3.6158694E2,5.710217E2,1.24325264E2,2.3726169E2,4.825828E1,5.227635E2,6.487787E1,5.9447395E1,9.944954E1,1.3781215E2,1.3594144E1,3.4664135E1,3.9033264E2,1.3243085E2],"tree_param":{"num_deleted":"0","num_feature":"15","num_nodes":"15","size_leaf_vector":"1"}},{"base_weights":[-2.9063698E-2,-1.49721E-1,9.8220415E-2,-5.8538426E-2,-4.600975E-1,-1.2383032E-1,3.231186E-1,1.834915E-2,-4.914267E-3,-2.1567697E-2,1.3701239E-3,-7.5979913E-3,1.2925252E-2,-8.640692E-3,2.3778653E-2],"categories":[],"categories_nodes":[],"categories_segments":[],"categories_sizes":[],"default_left":[0,0,0,0,0,0,0,0,0,0,0,0,0,0,0],"id":75,"left_children":[1,3,5,7,9,11,13,-1,-1,-1,-1,-1,-1,-1,-1],"loss_changes":[1.4065099E1,1.2950185E1,2.281931E1,1.3194349E1,4.3173866E0,7.644989E0,3.453965E1,0E0,0E0,0E0,0E0,0E0,0E0,0E0,0E0],"parents":[2147483647,0,0,1,1,2,2,3,3,4,4,5,5,6,6],"right_children":[2,4,6,8,10,12,14,-1,-1,-1,-1,-1,-1,-1,-1],"split_conditions":[1.5219114E3,4.6982378E-1,8.3E1,0E0,1.525644E3,4.1701026E0,1.4242406E-1,1.834915E-2,-4.914267E-3,-2.1567697E-2,1.3701239E-3,-7.5979913E-3,1.2925252E-2,-8.640692E-3,2.3778653E-2],"split_indices":[0,12,3,10,2,6,12,0,0,0,0,0,0,0,0],"split_type":[0,0,0,0,0,0,0,0,0,0,0,0,0,0,0],"sum_hessian":[8.9233966E2,4.5700885E2,4.353308E2,3.642597E2,9.274915E1,2.2176567E2,2.1356516E2,3.2145958E1,3.3211374E2,7.901796E1,1.3731192E1,1.9919832E2,2.2567354E1,7.232026E1,1.412449E2],"tree_param":{"num_deleted":"0","num_feature":"15","num_nodes":"15","size_leaf_vector":"1"}},{"base_weights":[-4.389614E-3,-1.6254787E-1,1.156431E-1,1.116981E-1,-3.146646E-1,6.452922E-1,4.1428905E-2,1.5330064E-2,-3.7560803E-3,-1.5049105E-2,4.964414E-3,3.3962023E-2,4.1204365E-3,-4.3937564E-3,1.5038083E-2],"categories":[],"categories_nodes":[],"categories_segments":[],"categories_sizes":[],"default_left":[0,0,0,0,0,0,0,0,0,0,0,0,0,0,0],"id":76,"left_children":[1,3,5,7,9,11,13,-1,-1,-1,-1,-1,-1,-1,-1],"loss_changes":[1.7878729E1,1.7367916E1,2.0735256E1,9.017838E0,7.7031593E0,6.1337776E0,2.4920458E1,0E0,0E0,0E0,0E0,0E0,0E0,0E0,0E0],"parents":[2147483647,0,0,1,1,2,2,3,3,4,4,5,5,6,6],"right_children":[2,4,6,8,10,12,14,-1,-1,-1,-1,-1,-1,-1,-1],"split_conditions":[-4.4905794E-1,-3.4651232E0,0E0,-1.9950346E0,3.2766232E0,1.6E1,5.3092136E0,1.5330064E-2,-3.7560803E-3,-1.5049105E-2,4.964414E-3,3.3962023E-2,4.1204365E-3,-4.3937564E-3,1.5038083E-2],"split_indices":[5,5,10,4,4,14,7,0,0,0,0,0,0,0,0],"split_type":[0,0,0,0,0,0,0,0,0,0,0,0,0,0,0],"sum_hessian":[9.178886E2,3.9421292E2,5.2367566E2,1.4178398E2,2.5242892E2,5.3010727E1,4.7066495E2,5.6625336E1,8.515865E1,2.2286948E2,2.9559456E1,3.3598072E1,1.9412655E1,3.2965378E2,1.4101117E2],"tree_param":{"num_deleted":"0","num_feature":"15","num_nodes":"15","size_leaf_vector":"1"}},{"base_weights":[4.512857E-2,8.7828465E-2,-2.645103E-1,-4.6114195E-3,2.887511E-1,-2.4807958E-2,3.2172024E-2,-3.124624E-3,1.5191353E-2,-3.7350634E-3,2.2347301E-2,-9.110427E-3,8.598302E-3],"categories":[],"categories_nodes":[],"categories_segments":[],"categories_sizes":[],"default_left":[0,0,0,0,0,0,0,0,0,0,0,0,0],"id":77,"left_children":[1,3,5,7,9,-1,11,-1,-1,-1,-1,-1,-1],"loss_changes":[1.3047349E1,1.5946459E1,1.2905697E1,1.7287699E1,2.8523203E1,0E0,4.238848E0,0E0,0E0,0E0,0E0,0E0,0E0],"parents":[2147483647,0,0,1,1,2,2,3,3,4,4,6,6],"right_children":[2,4,6,8,10,-1,12,-1,-1,-1,-1,-1,-1],"split_conditions":[4.3358555E0,9.2E1,5.182939E0,2.1067092E0,1.5109418E3,-2.4807958E-2,-1.8111007E-1,-3.124624E-3,1.5191353E-2,-3.7350634E-3,2.2347301E-2,-9.110427E-3,8.598302E-3],"split_indices":[4,3,4,4,0,0,12,0,0,0,0,0,0],"split_type":[0,0,0,0,0,0,0,0,0,0,0,0,0],"sum_hessian":[9.537394E2,8.4571027E2,1.0802914E2,5.872531E2,2.584571E2,4.3178093E1,6.485104E1,5.0101105E2,8.6242096E1,1.1024209E2,1.4821501E2,2.555605E1,3.9294994E1],"tree_param":{"num_deleted":"0","num_feature":"15","num_nodes":"13","size_leaf_vector":"1"}},{"base_weights":[-2.9902104E-3,-3.156852E-2,4.794318E-1,9.2231356E-2,-1.4516604E-1,7.003481E-1,-8.722429E-4,1.3158681E-2,-4.59158E-3,-1.9469123E-2,-1.0508884E-3,7.794547E-3,3.383918E-2],"categories":[],"categories_nodes":[],"categories_segments":[],"categories_sizes":[],"default_left":[0,0,0,0,0,0,0,0,0,0,0,0,0],"id":78,"left_children":[1,3,5,7,9,11,-1,-1,-1,-1,-1,-1,-1],"loss_changes":[1.2332214E1,1.2020162E1,5.723193E0,2.0589195E1,1.78946E1,6.047535E-1,0E0,0E0,0E0,0E0,0E0,0E0,0E0],"parents":[2147483647,0,0,1,1,2,2,3,3,4,4,5,5],"right_children":[2,4,6,8,10,12,-1,-1,-1,-1,-1,-1,-1],"split_conditions":[6.5217394E-1,1E0,1.5666769E3,-1.9830854E-1,-4.686914E-2,2.2962177E0,-8.722429E-4,1.3158681E-2,-4.59158E-3,-1.9469123E-2,-1.0508884E-3,7.794547E-3,3.383918E-2],"split_indices":[13,11,0,12,12,5,0,0,0,0,0,0,0],"split_type":[0,0,0,0,0,0,0,0,0,0,0,0,0],"sum_hessian":[8.693206E2,8.312904E2,3.8030254E1,3.9886252E2,4.324279E2,2.3087704E1,1.494255E1,1.827793E2,2.1608322E2,1.02070564E2,3.3035733E2,1.143919E1,1.1648514E1],"tree_param":{"num_deleted":"0","num_feature":"15","num_nodes":"13","size_leaf_vector":"1"}},{"base_weights":[1.5960423E-2,1.2735973E-1,-1.4871944E-1,6.4650637E-1,7.681561E-2,7.276235E-2,-2.3760393E-1,3.0994171E-2,3.0102467E-3,6.717694E-4,2.1413129E-2,1.1761752E-2,-8.319284E-3,-1.9720389E-2,-4.3042866E-3],"categories":[],"categories_nodes":[],"categories_segments":[],"categories_sizes":[],"default_left":[0,0,0,0,0,0,0,0,0,0,0,0,0,0,0],"id":79,"left_children":[1,3,5,7,9,11,13,-1,-1,-1,-1,-1,-1,-1,-1],"loss_changes":[1.7780241E1,1.4549639E1,7.9169044E0,2.936287E0,1.474238E1,8.2719145E0,8.73546E0,0E0,0E0,0E0,0E0,0E0,0E0,0E0,0E0],"parents":[2147483647,0,0,1,1,2,2,3,3,4,4,5,5,6,6],"right_children":[2,4,6,8,10,12,14,-1,-1,-1,-1,-1,-1,-1,-1],"split_conditions":[1E0,0E0,4.6376812E-1,8.2E1,5.972222E-1,1.4925386E3,4.9654582E-1,3.0994171E-2,3.0102467E-3,6.717694E-4,2.1413129E-2,1.1761752E-2,-8.319284E-3,-1.9720389E-2,-4.3042866E-3],"split_indices":[14,10,13,1,13,0,7,0,0,0,0,0,0,0,0],"split_type":[0,0,0,0,0,0,0,0,0,0,0,0,0,0,0],"sum_hessian":[9.448131E2,5.651985E2,3.796146E2,3.7592175E1,5.276063E2,1.0933958E2,2.7027502E2,2.720317E1,1.0389004E1,4.7753442E2,5.0071888E1,6.082731E1,4.8512268E1,7.986123E1,1.904138E2],"tree_param":{"num_deleted":"0","num_feature":"15","num_nodes":"15","size_leaf_vector":"1"}},{"base_weights":[-2.36661E-2,1.06506005E-1,-1.439518E-1,1.7343308E-1,-2.5798398E-1,-1.9371505E-1,2.3037229E-2,1.6716793E-2,3.9403533E-4,-1.7648805E-2,8.457245E-3,-1.9462321E-2,-3.238394E-3],"categories":[],"categories_nodes":[],"categories_segments":[],"categories_sizes":[],"default_left":[0,0,0,0,0,0,0,0,0,0,0,0,0],"id":80,"left_children":[1,3,5,7,9,11,-1,-1,-1,-1,-1,-1,-1],"loss_changes":[1.4523743E1,1.1434599E1,1.857315E1,1.5332358E1,7.4953947E0,1.4682026E1,0E0,0E0,0E0,0E0,0E0,0E0,0E0],"parents":[2147483647,0,0,1,1,2,2,3,3,4,4,5,5],"right_children":[2,4,6,8,10,12,-1,-1,-1,-1,-1,-1,-1],"split_conditions":[1E0,4.3358555E0,6.5217394E-1,-3.374578E-1,1.5160001E3,-3.274019E-2,2.3037229E-2,1.6716793E-2,3.9403533E-4,-1.7648805E-2,8.457245E-3,-1.9462321E-2,-3.238394E-3],"split_indices":[11,4,13,12,0,12,0,0,0,0,0,0,0],"split_type":[0,0,0,0,0,0,0,0,0,0,0,0,0],"sum_hessian":[9.0381976E2,4.347317E2,4.6908807E2,3.7260474E2,6.212697E1,4.4696185E2,2.2126207E1,1.4188643E2,2.307183E2,4.520282E1,1.6924149E1,1.13194885E2,3.3376697E2],"tree_param":{"num_deleted":"0","num_feature":"15","num_nodes":"13","size_leaf_vector":"1"}},{"base_weights":[-5.6243897E-3,-1.3276467E-1,9.101346E-2,1.8469933E-2,-2.927988E-1,4.8345655E-1,1.7080728E-2,2.1368222E-2,-3.3362429E-3,-1.420458E-2,4.573552E-3,-1.0357517E-2,2.6810177E-2,5.3858426E-3,-5.063197E-3],"categories":[],"categories_nodes":[],"categories_segments":[],"categories_sizes":[],"default_left":[0,0,0,0,0,0,0,0,0,0,0,0,0,0,0],"id":81,"left_children":[1,3,5,7,9,11,13,-1,-1,-1,-1,-1,-1,-1,-1],"loss_changes":[1.1342558E1,9.708487E0,1.5130997E1,1.1891192E1,5.416979E0,1.3561457E1,7.8747573E0,0E0,0E0,0E0,0E0,0E0,0E0,0E0,0E0],"parents":[2147483647,0,0,1,1,2,2,3,3,4,4,5,5,6,6],"right_children":[2,4,6,8,10,12,14,-1,-1,-1,-1,-1,-1,-1,-1],"split_conditions":[1.5143147E3,0E0,1.5236791E3,1.4324357E3,4.4506683E0,-3E0,-1.7967218E0,2.1368222E-2,-3.3362429E-3,-1.420458E-2,4.573552E-3,-1.0357517E-2,2.6810177E-2,5.3858426E-3,-5.063197E-3],"split_indices":[0,11,0,2,4,11,4,0,0,0,0,0,0,0,0],"split_type":[0,0,0,0,0,0,0,0,0,0,0,0,0,0,0],"sum_hessian":[8.993661E2,3.8645102E2,5.1291504E2,2.0414554E2,1.8230547E2,7.077324E1,4.421418E2,2.52741E1,1.7887143E2,1.5943585E2,2.286962E1,1.3296071E1,5.747717E1,2.4356902E2,1.985728E2],"tree_param":{"num_deleted":"0","num_feature":"15","num_nodes":"15","size_leaf_vector":"1"}},{"base_weights":[3.7363548E-2,4.1577572E-1,-5.5802544E-3,3.1107001E-2,1.440261E-1,1.3830927E-1,-1.0570786E-1,-7.661571E-3,1.655424E-2,-7.126733E-4,1.7023254E-2,1.0589622E-2,-6.6001546E-3],"categories":[],"categories_nodes":[],"categories_segments":[],"categories_sizes":[],"default_left":[0,0,0,0,0,0,0,0,0,0,0,0,0],"id":82,"left_children":[1,3,5,-1,7,9,11,-1,-1,-1,-1,-1,-1],"loss_changes":[1.544321E1,8.179722E0,1.2620073E1,0E0,7.2926936E0,1.622064E1,1.1861826E1,0E0,0E0,0E0,0E0,0E0,0E0],"parents":[2147483647,0,0,1,1,2,2,4,4,5,5,6,6],"right_children":[2,4,6,-1,8,10,12,-1,-1,-1,-1,-1,-1],"split_conditions":[1.4041642E3,7.6E1,-1.9950346E0,3.1107001E-2,8.3E1,5.125167E-1,0E0,-7.661571E-3,1.655424E-2,-7.126733E-4,1.7023254E-2,1.0589622E-2,-6.6001546E-3],"split_indices":[2,1,4,0,1,13,10,0,0,0,0,0,0],"split_type":[0,0,0,0,0,0,0,0,0,0,0,0,0],"sum_hessian":[9.366113E2,8.483959E1,8.517717E2,2.680352E1,5.803607E1,3.4763007E2,5.041417E2,2.7419039E1,3.0617033E1,2.325176E2,1.15112465E2,6.3824574E1,4.403171E2],"tree_param":{"num_deleted":"0","num_feature":"15","num_nodes":"13","size_leaf_vector":"1"}},{"base_weights":[1.8111879E-2,-1.4248979E-1,1.0846689E-1,-2.1149692E-1,2.7153042E-1,7.978384E-1,5.8726642E-2,4.497115E-3,-1.2030816E-2,-4.7113206E-3,2.8561959E-2,3.826658E-2,8.836684E-3,1.4355093E-2,-2.2646745E-3],"categories":[],"categories_nodes":[],"categories_segments":[],"categories_sizes":[],"default_left":[0,0,0,0,0,0,0,0,0,0,0,0,0,0,0],"id":83,"left_children":[1,3,5,7,9,11,13,-1,-1,-1,-1,-1,-1,-1,-1],"loss_changes":[1.4054745E1,1.0668837E1,2.0644554E1,9.258868E0,1.0511599E1,1.1902447E0,2.0662811E1,0E0,0E0,0E0,0E0,0E0,0E0,0E0,0E0],"parents":[2147483647,0,0,1,1,2,2,3,3,4,4,5,5,6,6],"right_children":[2,4,6,8,10,12,14,-1,-1,-1,-1,-1,-1,-1,-1],"split_conditions":[-1.3513219E0,9.9E1,-1.1387854E0,6.8E1,8.6527646E-2,1.5155149E3,1.4543855E3,4.497115E-3,-1.2030816E-2,-4.7113206E-3,2.8561959E-2,3.826658E-2,8.836684E-3,1.4355093E-2,-2.2646745E-3],"split_indices":[5,1,5,3,12,2,2,0,0,0,0,0,0,0,0],"split_type":[0,0,0,0,0,0,0,0,0,0,0,0,0,0,0],"sum_hessian":[9.437661E2,3.3730276E2,6.064633E2,2.9414575E2,4.3157017E1,2.8667465E1,5.777959E2,6.2879158E1,2.3126659E2,2.7643332E1,1.5513684E1,1.6285418E1,1.2382048E1,1.5336578E2,4.2443008E2],"tree_param":{"num_deleted":"0","num_feature":"15","num_nodes":"15","size_leaf_vector":"1"}},{"base_weights":[-2.2754725E-2,-1.2973477E-1,8.642293E-2,-4.6380673E-2,-4.9621347E-1,-1.4821714E-2,6.1336243E-1,2.0415585E-2,-3.1634558E-3,-2.2378352E-2,-1.3927041E-3,5.4895263E-3,-1.7011188E-2,2.9787032E-2,1.3510901E-3],"categories":[],"categories_nodes":[],"categories_segments":[],"categories_sizes":[],"default_left":[0,0,0,0,0,0,0,0,0,0,0,0,0,0,0],"id":84,"left_children":[1,3,5,7,9,11,13,-1,-1,-1,-1,-1,-1,-1,-1],"loss_changes":[1.0640599E1,1.3748863E1,2.4243568E1,7.5366573E0,2.2127419E0,2.5116062E1,5.268732E0,0E0,0E0,0E0,0E0,0E0,0E0,0E0,0E0],"parents":[2147483647,0,0,1,1,2,2,3,3,4,4,5,5,6,6],"right_children":[2,4,6,8,10,12,14,-1,-1,-1,-1,-1,-1,-1,-1],"split_conditions":[1.5219114E3,3E0,2.1067092E0,-6.2096834E0,6.417693E-1,-1.3374801E0,1.6292433E0,2.0415585E-2,-3.1634558E-3,-2.2378352E-2,-1.3927041E-3,5.4895263E-3,-1.7011188E-2,2.9787032E-2,1.3510901E-3],"split_indices":[0,11,4,5,12,4,5,0,0,0,0,0,0,0,0],"split_type":[0,0,0,0,0,0,0,0,0,0,0,0,0,0,0],"sum_hessian":[8.87504E2,4.4712225E2,4.4038174E2,3.7528412E2,7.183816E1,3.7918808E2,6.1193645E1,1.1097537E1,3.6418658E2,6.0935123E1,1.0903035E1,