{"learner":{"attributes":{"scikit_learn":"{\"_estimator_type\": \"regressor\"}"},"feature_names":[],"feature_types":[],"gradient_booster":{"model":{"gbtree_model_param":{"num_parallel_tree":"1","num_trees":"200"},"iteration_indptr":[0,1,2,3,4,5,6,7,8,9,10,11,12,13,14,15,16,17,18,19,20,21,22,23,24,25,26,27,28,29,30,31,32,33,34,35,36,37,38,39,40,41,42,43,44,45,46,47,48,49,50,51,52,53,54,55,56,57,58,59,60,61,62,63,64,65,66,67,68,69,70,71,72,73,74,75,76,77,78,79,80,81,82,83,84,85,86,87,88,89,90,91,92,93,94,95,96,97,98,99,100,101,102,103,104,105,106,107,108,109,110,111,112,113,114,115,116,117,118,119,120,121,122,123,124,125,126,127,128,129,130,131,132,133,134,135,136,137,138,139,140,141,142,143,144,145,146,147,148,149,150,151,152,153,154,155,156,157,158,159,160,161,162,163,164,165,166,167,168,169,170,171,172,173,174,175,176,177,178,179,180,181,182,183,184,185,186,187,188,189,190,191,192,193,194,195,196,197,198,199,200],"tree_info":[0,0,0,0,0,0,0,0,0,0,0,0,0,0,0,0,0,0,0,0,0,0,0,0,0,0,0,0,0,0,0,0,0,0,0,0,0,0,0,0,0,0,0,0,0,0,0,0,0,0,0,0,0,0,0,0,0,0,0,0,0,0,0,0,0,0,0,0,0,0,0,0,0,0,0,0,0,0,0,0,0,0,0,0,0,0,0,0,0,0,0,0,0,0,0,0,0,0,0,0,0,0,0,0,0,0,0,0,0,0,0,0,0,0,0,0,0,0,0,0,0,0,0,0,0,0,0,0,0,0,0,0,0,0,0,0,0,0,0,0,0,0,0,0,0,0,0,0,0,0,0,0,0,0,0,0,0,0,0,0,0,0,0,0,0,0,0,0,0,0,0,0,0,0,0,0,0,0,0,0,0,0,0,0,0,0,0,0,0,0,0,0,0,0,0,0,0,0,0,0],"trees":[{"base_weights":[3.1607587E-2,-4.1240054E-1,2.3332927E-1,-4.9676132E-1,1.3263188E-1,4.4559598E-1,-3.9605471E-1,1.2080283E-3,-2.4764039E-2,-3.6148808E-3,1.663474E-2,-7.7868876E-4,2.792299E-2,1.7418763E-2,-2.1840548E-2],"categories":[],"categories_nodes":[],"categories_segments":[],"categories_sizes":[],"default_left":[0,0,0,0,0,0,0,0,0,0,0,0,0,0,0],"id":0,"left_children":[1,3,5,7,9,11,13,-1,-1,-1,-1,-1,-1,-1,-1],"loss_changes":[8.517018E1,1.4463516E1,8.931112E1,1.6988747E1,3.5667706E0,5.813295E1,2.417047E1,0E0,0E0,0E0,0E0,0E0,0E0,0E0,0E0],"parents":[2147483647,0,0,1,1,2,2,3,3,4,4,5,5,6,6],"right_children":[2,4,6,8,10,12,14,-1,-1,-1,-1,-1,-1,-1,-1],"split_conditions":[1.4714641E3,2E-1,1.5998378E3,1.4499799E3,5.72006E-1,-1.524E-1,1.4891503E3,1.2080283E-3,-2.4764039E-2,-3.6148808E-3,1.663474E-2,-7.7868876E-4,2.792299E-2,1.7418763E-2,-2.1840548E-2],"split_indices":[2,9,0,0,13,11,2,0,0,0,0,0,0,0,0],"split_type":[0,0,0,0,0,0,0,0,0,0,0,0,0,0,0],"sum_hessian":[9.26028E2,2.853698E2,6.406582E2,2.4804057E2,3.732923E1,4.8170276E2,1.5895544E2,4.8437996E1,1.9960257E2,2.545703E1,1.1872202E1,1.7339177E2,3.08311E2,2.0795761E1,1.3815968E2],"tree_param":{"num_deleted":"0","num_feature":"15","num_nodes":"15","size_leaf_vector":"1"}},{"base_weights":[-3.5899173E-2,5.6196266E-1,-2.2474243E-1,7.908432E-1,-5.0456554E-1,-6.4799565E-1,-7.266479E-2,-7.130117E-3,4.2700905E-2,-2.8367404E-2,-3.4062683E-3,-2.8355714E-2,-4.1514705E-3,-1.0605137E-2,1.1267698E-2],"categories":[],"categories_nodes":[],"categories_segments":[],"categories_sizes":[],"default_left":[0,0,0,0,0,0,0,0,0,0,0,0,0,0,0],"id":1,"left_children":[1,3,5,7,9,11,13,-1,-1,-1,-1,-1,-1,-1,-1],"loss_changes":[1.1000954E2,6.1933723E1,4.6993206E1,5.521511E1,3.4536648E0,5.5393677E0,3.8888863E1,0E0,0E0,0E0,0E0,0E0,0E0,0E0,0E0],"parents":[2147483647,0,0,1,1,2,2,3,3,4,4,5,5,6,6],"right_children":[2,4,6,8,10,12,14,-1,-1,-1,-1,-1,-1,-1,-1],"split_conditions":[7.5E1,1.6483695E3,7.7E1,6.9E1,1.5560847E3,1.7526722E1,1.5006493E3,-7.130117E-3,4.2700905E-2,-2.8367404E-2,-3.4062683E-3,-2.8355714E-2,-4.1514705E-3,-1.0605137E-2,1.1267698E-2],"split_indices":[3,2,1,1,0,6,2,0,0,0,0,0,0,0,0],"split_type":[0,0,0,0,0,0,0,0,0,0,0,0,0,0,0],"sum_hessian":[9.489557E2,2.2209903E2,7.268566E2,1.8541106E2,3.6687973E1,1.8178691E2,5.4506976E2,4.212681E1,1.4328424E2,1.9085579E1,1.7602394E1,1.6022618E2,2.1560722E1,3.5518057E2,1.8988916E2],"tree_param":{"num_deleted":"0","num_feature":"15","num_nodes":"15","size_leaf_vector":"1"}},{"base_weights":[2.9609043E-3,9.528168E-1,-9.125512E-2,1.0445204E0,1.099223E-2,-2.9605314E-1,2.1323638E-1,4.5950007E-2,1.2112985E-2,-1.4292964E-2,2.8160872E-2,2.1796577E-2,-6.3306815E-3],"categories":[],"categories_nodes":[],"categories_segments":[],"categories_sizes":[],"default_left":[0,0,0,0,0,0,0,0,0,0,0,0,0],"id":2,"left_children":[1,3,5,7,-1,9,11,-1,-1,-1,-1,-1,-1],"loss_changes":[8.240169E1,1.7215118E0,5.3016445E1,1.1522675E0,0E0,3.402795E1,4.3418503E1,0E0,0E0,0E0,0E0,0E0,0E0],"parents":[2147483647,0,0,1,1,2,2,3,3,5,5,6,6],"right_children":[2,4,6,8,-1,10,12,-1,-1,-1,-1,-1,-1],"split_conditions":[3.846154E-1,1E0,1.5155149E3,9.588E-1,1.099223E-2,8.8E1,1.5498108E3,4.5950007E-2,1.2112985E-2,-1.4292964E-2,2.8160872E-2,2.1796577E-2,-6.3306815E-3],"split_indices":[13,8,2,11,0,14,0,0,0,0,0,0,0],"split_type":[0,0,0,0,0,0,0,0,0,0,0,0,0],"sum_hessian":[8.97116E2,7.108658E1,8.260295E2,5.6903393E1,1.4183186E1,4.9406125E2,3.319682E2,4.411777E1,1.2785623E1,4.7280652E2,2.1254707E1,1.7242546E2,1.5954276E2],"tree_param":{"num_deleted":"0","num_feature":"15","num_nodes":"13","size_leaf_vector":"1"}},{"base_weights":[2.101714E-2,-2.5753117E-1,3.0207786E-1,-5.208298E-1,-1.668389E-2,1.6440383E0,9.135501E-2,1.40074855E-2,-2.649087E-2,4.206515E-2,-7.6612597E-3,2.253342E-2,7.636283E-2,-1.5585668E-3,2.0538487E-2],"categories":[],"categories_nodes":[],"categories_segments":[],"categories_sizes":[],"default_left":[0,0,0,0,0,0,0,0,0,0,0,0,0,0,0],"id":3,"left_children":[1,3,5,7,9,11,13,-1,-1,-1,-1,-1,-1,-1,-1],"loss_changes":[7.348423E1,2.9821774E1,1.3019852E2,3.050882E1,5.0769978E1,5.0375366E0,2.3131878E1,0E0,0E0,0E0,0E0,0E0,0E0,0E0,0E0],"parents":[2147483647,0,0,1,1,2,2,3,3,4,4,5,5,6,6],"right_children":[2,4,6,8,10,12,14,-1,-1,-1,-1,-1,-1,-1,-1],"split_conditions":[8.2E1,2.19E-1,7.2E1,1.4429745E3,-7.4479213E0,-7.828445E-1,7.968E-1,1.40074855E-2,-2.649087E-2,4.206515E-2,-7.6612597E-3,2.253342E-2,7.636283E-2,-1.5585668E-3,2.0538487E-2],"split_indices":[1,11,3,0,6,5,11,0,0,0,0,0,0,0,0],"split_type":[0,0,0,0,0,0,0,0,0,0,0,0,0,0,0],"sum_hessian":[9.1470386E2,4.599098E2,4.5479404E2,2.1304988E2,2.4685992E2,5.064504E1,4.0414902E2,2.7289265E1,1.857606E2,2.6256865E1,2.2060306E2,1.7360775E1,3.3284264E1,3.171317E2,8.701731E1],"tree_param":{"num_deleted":"0","num_feature":"15","num_nodes":"15","size_leaf_vector":"1"}},{"base_weights":[-4.959703E-2,-3.4314746E-1,2.0972556E-1,1.6989583E-2,-3.9796752E-1,-1.0273209E-1,5.772902E-1,-1.7409312E-2,1.5410215E-2,-1.3007383E-2,1.5992368E-2,5.4684654E-2,1.2353501E-2],"categories":[],"categories_nodes":[],"categories_segments":[],"categories_sizes":[],"default_left":[0,0,0,0,0,0,0,0,0,0,0,0,0],"id":4,"left_children":[1,3,5,-1,7,9,11,-1,-1,-1,-1,-1,-1],"loss_changes":[7.0150925E1,2.0191433E1,5.706961E1,0E0,1.3947159E1,3.2350693E1,4.3125443E1,0E0,0E0,0E0,0E0,0E0,0E0],"parents":[2147483647,0,0,1,1,2,2,4,4,5,5,6,6],"right_children":[2,4,6,-1,8,10,12,-1,-1,-1,-1,-1,-1],"split_conditions":[1.5006493E3,-1.4636272E1,8.2E1,1.6989583E-2,6.6233766E-1,5.138889E-1,7.1E1,-1.7409312E-2,1.5410215E-2,-1.3007383E-2,1.5992368E-2,5.4684654E-2,1.2353501E-2],"split_indices":[2,6,1,0,13,13,3,0,0,0,0,0,0],"split_type":[0,0,0,0,0,0,0,0,0,0,0,0,0],"sum_hessian":[8.981872E2,4.1947125E2,4.7871594E2,2.2555292E1,3.9691595E2,2.634282E2,2.1528777E2,3.8397815E2,1.2937811E1,1.8553514E2,7.789305E1,4.215393E1,1.7313383E2],"tree_param":{"num_deleted":"0","num_feature":"15","num_nodes":"13","size_leaf_vector":"1"}},{"base_weights":[2.8233735E-2,-2.4853414E-1,2.7917942E-1,-5.3601843E-1,-2.270056E-2,-6.653896E-2,6.916917E-1,-2.806675E-2,-1.2232813E-3,2.781618E-2,-6.3001714E-3,-6.3879695E-3,2.4120536E-2,3.7989177E-2,1.0183513E-2],"categories":[],"categories_nodes":[],"categories_segments":[],"categories_sizes":[],"default_left":[0,0,0,0,0,0,0,0,0,0,0,0,0,0,0],"id":5,"left_children":[1,3,5,7,9,11,13,-1,-1,-1,-1,-1,-1,-1,-1],"loss_changes":[6.6785324E1,2.9583261E1,7.238371E1,1.6565262E1,2.7352938E1,1.8930946E1,2.311995E1,0E0,0E0,0E0,0E0,0E0,0E0,0E0,0E0],"parents":[2147483647,0,0,1,1,2,2,3,3,4,4,5,5,6,6],"right_children":[2,4,6,8,10,12,14,-1,-1,-1,-1,-1,-1,-1,-1],"split_conditions":[8.1E1,2.19E-1,1.5065159E3,3E0,6.8E1,8.6E1,8.7E1,-2.806675E-2,-1.2232813E-3,2.781618E-2,-6.3001714E-3,-6.3879695E-3,2.4120536E-2,3.7989177E-2,1.0183513E-2],"split_indices":[1,11,2,14,3,14,3,0,0,0,0,0,0,0,0],"split_type":[0,0,0,0,0,0,0,0,0,0,0,0,0,0,0],"sum_hessian":[9.3759216E2,4.4591168E2,4.9168045E2,1.8892702E2,2.5698468E2,2.729722E2,2.1870824E2,1.3878355E2,5.0143467E1,3.2729504E1,2.2425517E2,2.4765215E2,2.5320065E1,1.2867407E2,9.0034164E1],"tree_param":{"num_deleted":"0","num_feature":"15","num_nodes":"15","size_leaf_vector":"1"}},{"base_weights":[-5.3609096E-2,3.1168994E-2,-1.22404866E-1,-4.1053596E-1,1.162519E-2,-3.4137547E-2,-3.1158659E-3,-4.0620784E-3,1.4575492E-2],"categories":[],"categories_nodes":[],"categories_segments":[],"categories_sizes":[],"default_left":[0,0,0,0,0,0,0,0,0],"id":6,"left_children":[1,-1,3,5,7,-1,-1,-1,-1],"loss_changes":[5.3273212E1,0E0,3.2912567E1,3.9045048E1,2.4092737E1,0E0,0E0,0E0,0E0],"parents":[2147483647,0,0,2,2,3,3,4,4],"right_children":[2,-1,4,6,8,-1,-1,-1,-1],"split_conditions":[3.75E-1,3.1168994E-2,7.7E1,2.19E-1,3.543652E0,-3.4137547E-2,-3.1158659E-3,-4.0620784E-3,1.4575492E-2],"split_indices":[13,0,1,11,5,0,0,0,0],"split_type":[0,0,0,0,0,0,0,0,0],"sum_hessian":[8.978217E2,5.9049946E1,8.387718E2,2.5843817E2,5.803336E2,1.0278889E2,1.5564928E2,4.4583972E2,1.3449388E2],"tree_param":{"num_deleted":"0","num_feature":"15","num_nodes":"9","size_leaf_vector":"1"}},{"base_weights":[4.3545503E-2,-1.4676538E-1,3.8236406E-1,-5.521018E-1,3.2992256E-3,-1.1042229E-1,6.966812E-1,-2.681865E-2,1.357205E-2,5.302898E-3,-1.4464049E-2,-2.0842683E-2,2.5634157E-2,3.76814E-2,-5.2525644E-4],"categories":[],"categories_nodes":[],"categories_segments":[],"categories_sizes":[],"default_left":[0,0,0,0,0,0,0,0,0,0,0,0,0,0,0],"id":7,"left_children":[1,3,5,7,9,11,13,-1,-1,-1,-1,-1,-1,-1,-1],"loss_changes":[6.1696575E1,3.7409966E1,5.416076E1,2.0260338E1,2.2298737E1,4.8497646E1,3.6981873E1,0E0,0E0,0E0,0E0,0E0,0E0,0E0,0E0],"parents":[2147483647,0,0,1,1,2,2,3,3,4,4,5,5,6,6],"right_children":[2,4,6,8,10,12,14,-1,-1,-1,-1,-1,-1,-1,-1],"split_conditions":[1.5272124E3,7.7E1,-1.1952851E-1,1.3174E0,1.01E2,4.7102395E-1,9.174E-1,-2.681865E-2,1.357205E-2,5.302898E-3,-1.4464049E-2,-2.0842683E-2,2.5634157E-2,3.76814E-2,-5.2525644E-4],"split_indices":[2,1,11,11,3,4,11,0,0,0,0,0,0,0,0],"split_type":[0,0,0,0,0,0,0,0,0,0,0,0,0,0,0],"sum_hessian":[9.3437634E2,6.026666E2,3.3170966E2,1.5414897E2,4.4851767E2,1.3221202E2,1.9949765E2,1.3870529E2,1.5443676E1,3.3682944E2,1.1168825E2,8.7863335E1,4.434868E1,1.4533517E2,5.4162483E1],"tree_param":{"num_deleted":"0","num_feature":"15","num_nodes":"15","size_leaf_vector":"1"}},{"base_weights":[3.1122912E-2,5.8918065E-1,-1.1326837E-1,-2.2211604E-2,8.7541604E-1,-5.7979417E-1,3.9467636E-2,-3.2853987E-3,4.474916E-2,-2.9643135E-2,-1.1657617E-3,5.9712157E-3,-1.2878966E-2],"categories":[],"categories_nodes":[],"categories_segments":[],"categories_sizes":[],"default_left":[0,0,0,0,0,0,0,0,0,0,0,0,0],"id":8,"left_children":[1,3,5,-1,7,9,11,-1,-1,-1,-1,-1,-1],"loss_changes":[7.014202E1,6.441347E1,4.9705658E1,0E0,3.5515335E1,1.5004326E1,2.1765894E1,0E0,0E0,0E0,0E0,0E0,0E0],"parents":[2147483647,0,0,1,1,2,2,4,4,5,5,6,6],"right_children":[2,4,6,-1,8,10,12,-1,-1,-1,-1,-1,-1],"split_conditions":[7.5E1,6.4E1,7.7E1,-2.2211604E-2,6.9E1,1.1048E0,1.01E2,-3.2853987E-3,4.474916E-2,-2.9643135E-2,-1.1657617E-3,5.9712157E-3,-1.2878966E-2],"split_indices":[3,3,1,0,1,12,3,0,0,0,0,0,0],"split_type":[0,0,0,0,0,0,0,0,0,0,0,0,0],"sum_hessian":[8.4854034E2,1.6682259E2,6.817178E2,3.1118807E1,1.3570377E2,1.5986478E2,5.21853E2,2.9106234E1,1.0659754E2,1.2043867E2,3.9426113E1,4.0565216E2,1.1620086E2],"tree_param":{"num_deleted":"0","num_feature":"15","num_nodes":"13","size_leaf_vector":"1"}},{"base_weights":[-4.420366E-3,8.127802E-1,-8.262749E-2,9.703281E-1,2.4492538E-1,-6.90992E-1,1.2254115E-2,4.5247134E-2,1.5041867E-2,2.3659577E-3,1.2108922E-2,-4.313171E-3,-3.0339226E-2,-1.004415E-2,6.585028E-3],"categories":[],"categories_nodes":[],"categories_segments":[],"categories_sizes":[],"default_left":[0,0,0,0,0,0,0,0,0,0,0,0,0,0,0],"id":9,"left_children":[1,3,5,7,9,11,13,-1,-1,-1,-1,-1,-1,-1,-1],"loss_changes":[6.0897182E1,4.5941963E0,5.0262863E1,7.3622894E-1,1.5157962E-1,3.6412163E0,3.1136011E1,0E0,0E0,0E0,0E0,0E0,0E0,0E0,0E0],"parents":[2147483647,0,0,1,1,2,2,3,3,4,4,5,5,6,6],"right_children":[2,4,6,8,10,12,14,-1,-1,-1,-1,-1,-1,-1,-1],"split_conditions":[3.846154E-1,1.27E-1,-6.480312E0,-6.9876027E0,-6.589057E0,-1.0708969E1,7.3E-2,4.5247134E-2,1.5041867E-2,2.3659577E-3,1.2108922E-2,-4.313171E-3,-3.0339226E-2,-1.004415E-2,6.585028E-3],"split_indices":[13,12,5,6,5,6,11,0,0,0,0,0,0,0,0],"split_type":[0,0,0,0,0,0,0,0,0,0,0,0,0,0,0],"sum_hessian":[9.282352E2,7.122981E1,8.570054E2,4.9101715E1,2.2128101E1,1.0545486E2,7.5155054E2,3.0110605E1,1.899111E1,1.1012304E1,1.1115796E1,1.4171674E1,9.128318E1,2.7260556E2,4.7894498E2],"tree_param":{"num_deleted":"0","num_feature":"15","num_nodes":"15","size_leaf_vector":"1"}},{"base_weights":[1.2790566E-2,7.988876E-1,-5.971581E-2,9.657024E-1,1.0317701E-2,-5.930486E-1,4.9207445E-2,1.216353E-2,4.651329E-2,9.078329E-3,-2.735172E-2,4.5091543E-2,-1.1113242E-3],"categories":[],"categories_nodes":[],"categories_segments":[],"categories_sizes":[],"default_left":[0,0,0,0,0,0,0,0,0,0,0,0,0],"id":10,"left_children":[1,3,5,7,-1,9,11,-1,-1,-1,-1,-1,-1],"loss_changes":[5.2872513E1,4.0784836E0,4.9802433E1,2.9938278E0,0E0,1.2673515E1,5.996961E1,0E0,0E0,0E0,0E0,0E0,0E0],"parents":[2147483647,0,0,1,1,2,2,3,3,5,5,6,6],"right_children":[2,4,6,8,-1,10,12,-1,-1,-1,-1,-1,-1],"split_conditions":[3.846154E-1,1.27E-1,-5.9118404E0,1.5148671E3,1.0317701E-2,4.1558442E-1,6.7E1,1.216353E-2,4.651329E-2,9.078329E-3,-2.735172E-2,4.5091543E-2,-1.1113242E-3],"split_indices":[13,12,5,2,0,13,3,0,0,0,0,0,0],"split_type":[0,0,0,0,0,0,0,0,0,0,0,0,0],"sum_hessian":[9.0559204E2,6.632239E1,8.3926965E2,4.3488873E1,2.283351E1,1.3329028E2,7.059794E2,1.6987104E1,2.650177E1,1.1485889E1,1.2180439E2,3.6145084E1,6.698343E2],"tree_param":{"num_deleted":"0","num_feature":"15","num_nodes":"13","size_leaf_vector":"1"}},{"base_weights":[-4.3293834E-2,7.597575E-1,-1.1922653E-1,9.0071374E-1,2.3402399E-1,-2.998871E-1,7.570735E-2,4.3564226E-2,1.2328051E-2,2.304142E-3,1.1526881E-2,-2.717686E-2,-7.75512E-3,5.2972212E-2,-1.7913104E-3],"categories":[],"categories_nodes":[],"categories_segments":[],"categories_sizes":[],"default_left":[0,0,0,0,0,0,0,0,0,0,0,0,0,0,0],"id":11,"left_children":[1,3,5,7,9,11,13,-1,-1,-1,-1,-1,-1,-1,-1],"loss_changes":[5.8759533E1,3.6458855E0,3.1068275E1,2.8370628E0,1.2398374E-1,1.6776752E1,6.543208E1,0E0,0E0,0E0,0E0,0E0,0E0,0E0,0E0],"parents":[2147483647,0,0,1,1,2,2,3,3,4,4,5,5,6,6],"right_children":[2,4,6,8,10,12,14,-1,-1,-1,-1,-1,-1,-1,-1],"split_conditions":[3.846154E-1,1.27E-1,8.2E1,-6.9876027E0,-6.589057E0,-6.0157065E0,7.1E1,4.3564226E-2,1.2328051E-2,2.304142E-3,1.1526881E-2,-2.717686E-2,-7.75512E-3,5.2972212E-2,-1.7913104E-3],"split_indices":[13,12,1,6,5,5,3,0,0,0,0,0,0,0,0],"split_type":[0,0,0,0,0,0,0,0,0,0,0,0,0,0,0],"sum_hessian":[9.337947E2,7.1331955E1,8.624627E2,4.950104E1,2.1830912E1,4.442658E2,4.181969E2,2.9927944E1,1.95731E1,1.0943039E1,1.0887872E1,8.282526E1,3.6144055E2,2.6253103E1,3.9194382E2],"tree_param":{"num_deleted":"0","num_feature":"15","num_nodes":"15","size_leaf_vector":"1"}},{"base_weights":[4.3961387E-2,-5.4915667E-1,1.3946766E-1,-1.9505125E-3,-6.398565E-1,1.1827092E0,2.128903E-2,-2.838153E-2,-1.5025899E-4,5.8191117E-2,2.9462825E-3,-8.8688275E-3,7.7626533E-3],"categories":[],"categories_nodes":[],"categories_segments":[],"categories_sizes":[],"default_left":[0,0,0,0,0,0,0,0,0,0,0,0,0],"id":12,"left_children":[1,3,5,-1,7,9,11,-1,-1,-1,-1,-1,-1],"loss_changes":[4.9360718E1,5.118759E0,9.1686584E1,0E0,4.4656944E0,2.1555977E1,2.9168936E1,0E0,0E0,0E0,0E0,0E0,0E0],"parents":[2147483647,0,0,1,1,2,2,4,4,5,5,6,6],"right_children":[2,4,6,-1,8,10,12,-1,-1,-1,-1,-1,-1],"split_conditions":[6.9E1,-1.2214319E1,7.1E1,-1.9505125E-3,7.5E1,9.174E-1,7.3E-2,-2.838153E-2,-1.5025899E-4,5.8191117E-2,2.9462825E-3,-8.8688275E-3,7.7626533E-3],"split_indices":[1,10,3,0,14,11,11,0,0,0,0,0,0],"split_type":[0,0,0,0,0,0,0,0,0,0,0,0,0],"sum_hessian":[8.43157E2,1.09033295E2,7.3412366E2,1.9561806E1,8.947149E1,6.3700775E1,6.704229E2,7.938935E1,1.0082138E1,4.8148407E1,1.5552367E1,2.7717685E2,3.9324603E2],"tree_param":{"num_deleted":"0","num_feature":"15","num_nodes":"13","size_leaf_vector":"1"}},{"base_weights":[4.08887E-2,2.1077494E-1,-2.3896329E-1,-7.456911E-2,5.0288486E-1,2.2118118E-1,-4.0645424E-1,8.354107E-4,-2.138929E-2,1.108282E-2,4.0674787E-2,-1.7208401E-2,1.8997576E-2,-2.6163688E-2,-1.0622408E-2],"categories":[],"categories_nodes":[],"categories_segments":[],"categories_sizes":[],"default_left":[0,0,0,0,0,0,0,0,0,0,0,0,0,0,0],"id":13,"left_children":[1,3,5,7,9,11,13,-1,-1,-1,-1,-1,-1,-1,-1],"loss_changes":[4.4717747E1,4.910604E1,2.852489E1,1.3563594E1,3.0278114E1,1.9445147E1,7.172577E0,0E0,0E0,0E0,0E0,0E0,0E0,0E0,0E0],"parents":[2147483647,0,0,1,1,2,2,3,3,4,4,5,5,6,6],"right_children":[2,4,6,8,10,12,14,-1,-1,-1,-1,-1,-1,-1,-1],"split_conditions":[1.5498108E3,1.5001237E3,4.8314607E-1,1.4885178E3,5.180723E-1,-1.0666618E1,-5.0426593E0,8.354107E-4,-2.138929E-2,1.108282E-2,4.0674787E-2,-1.7208401E-2,1.8997576E-2,-2.6163688E-2,-1.0622408E-2],"split_indices":[0,2,13,2,13,10,5,0,0,0,0,0,0,0,0],"split_type":[0,0,0,0,0,0,0,0,0,0,0,0,0,0,0],"sum_hessian":[9.158618E2,5.71743E2,3.4411884E2,2.9374164E2,2.7800134E2,9.0805115E1,2.5331372E2,2.5276454E2,4.0977093E1,2.0597635E2,7.2024994E1,2.3117867E1,6.768725E1,7.600922E1,1.773045E2],"tree_param":{"num_deleted":"0","num_feature":"15","num_nodes":"15","size_leaf_vector":"1"}},{"base_weights":[9.666048E-3,4.5862436E-1,-1.1083429E-1,-3.2273646E-2,9.411909E-1,-4.3435544E-1,4.2707454E-3,-1.4753103E-2,2.2295384E-2,5.7970017E-2,1.06840255E-2,-2.1162955E-2,3.1677852E-3,-4.891476E-3,9.738455E-3],"categories":[],"categories_nodes":[],"categories_segments":[],"categories_sizes":[],"default_left":[0,0,0,0,0,0,0,0,0,0,0,0,0,0,0],"id":14,"left_children":[1,3,5,7,9,11,13,-1,-1,-1,-1,-1,-1,-1,-1],"loss_changes":[5.2523457E1,4.9019478E1,2.8554735E1,2.4974974E1,3.0962845E1,1.0288948E1,1.7824352E1,0E0,0E0,0E0,0E0,0E0,0E0,0E0,0E0],"parents":[2147483647,0,0,1,1,2,2,3,3,4,4,5,5,6,6],"right_children":[2,4,6,8,10,12,14,-1,-1,-1,-1,-1,-1,-1,-1],"split_conditions":[7.5E1,2E-1,7.7E1,8.2E1,7.206E-1,1.3174E0,1.5065159E3,-1.4753103E-2,2.2295384E-2,5.7970017E-2,1.06840255E-2,-2.1162955E-2,3.1677852E-3,-4.891476E-3,9.738455E-3],"split_indices":[3,11,1,1,11,11,2,0,0,0,0,0,0,0,0],"split_type":[0,0,0,0,0,0,0,0,0,0,0,0,0,0,0],"sum_hessian":[9.475902E2,1.9338974E2,7.542005E2,1.01418106E2,9.197163E1,1.891845E2,5.65016E2,6.742731E1,3.39908E1,4.4575787E1,4.7395844E1,1.594188E2,2.9765707E1,3.733425E2,1.9167351E2],"tree_param":{"num_deleted":"0","num_feature":"15","num_nodes":"15","size_leaf_vector":"1"}},{"base_weights":[4.0637583E-2,-1.7434609E-1,2.4281889E-1,-2.3017544E-1,5.805934E-1,-3.642362E-2,5.511465E-1,-1.07743535E-2,2.3678023E-2,2.9169437E-2,3.9763236E-3,-1.41319465E-2,9.37164E-3,4.6751473E-2,1.14621045E-2],"categories":[],"categories_nodes":[],"categories_segments":[],"categories_sizes":[],"default_left":[0,0,0,0,0,0,0,0,0,0,0,0,0,0,0],"id":15,"left_children":[1,3,5,7,9,11,13,-1,-1,-1,-1,-1,-1,-1,-1],"loss_changes":[4.2439983E1,2.1604424E1,4.3477287E1,1.642421E1,1.710947E0,2.4564058E1,3.510508E1,0E0,0E0,0E0,0E0,0E0,0E0,0E0,0E0],"parents":[2147483647,0,0,1,1,2,2,3,3,4,4,5,5,6,6],"right_children":[2,4,6,8,10,12,14,-1,-1,-1,-1,-1,-1,-1,-1],"split_conditions":[1.5039073E3,8.8E1,8.2E1,2.6254E0,9.1E1,2.19E-1,7.2E1,-1.07743535E-2,2.3678023E-2,2.9169437E-2,3.9763236E-3,-1.41319465E-2,9.37164E-3,4.6751473E-2,1.14621045E-2],"split_indices":[2,14,1,12,1,11,3,0,0,0,0,0,0,0,0],"split_type":[0,0,0,0,0,0,0,0,0,0,0,0,0,0,0],"sum_hessian":[9.5271454E2,4.6253903E2,4.901755E2,4.3845563E2,2.408341E1,2.627729E2,2.2740262E2,4.2621033E2,1.2245289E1,1.3673539E1,1.0409871E1,1.19378296E2,1.4339459E2,5.5902424E1,1.7150018E2],"tree_param":{"num_deleted":"0","num_feature":"15","num_nodes":"15","size_leaf_vector":"1"}},{"base_weights":[3.6190063E-2,7.359644E-1,-2.752819E-2,8.6128354E-1,1.0119742E-2,-4.3442348E-1,5.6573223E-2,3.8866423E-2,8.338277E-3,-2.1505756E-2,4.377646E-3,2.4546918E-2,-1.6412133E-3],"categories":[],"categories_nodes":[],"categories_segments":[],"categories_sizes":[],"default_left":[0,0,0,0,0,0,0,0,0,0,0,0,0],"id":16,"left_children":[1,3,5,7,-1,9,11,-1,-1,-1,-1,-1,-1],"loss_changes":[4.203006E1,2.1452637E0,3.0084707E1,1.70924E0,0E0,9.154421E0,4.0106377E1,0E0,0E0,0E0,0E0,0E0,0E0],"parents":[2147483647,0,0,1,1,2,2,3,3,5,5,6,6],"right_children":[2,4,6,8,-1,10,12,-1,-1,-1,-1,-1,-1],"split_conditions":[3.846154E-1,-6.9876027E0,6.9E1,4.8265707E-1,1.0119742E-2,1.891073E1,7.3E1,3.8866423E-2,8.338277E-3,-2.1505756E-2,4.377646E-3,2.4546918E-2,-1.6412133E-3],"split_indices":[13,6,1,12,0,10,3,0,0,0,0,0,0],"split_type":[0,0,0,0,0,0,0,0,0,0,0,0,0],"sum_hessian":[9.2517084E2,6.6645454E1,8.585253E2,4.5452103E1,2.1193354E1,1.3849245E2,7.200329E2,3.386558E1,1.1586519E1,1.1651604E2,2.1976404E1,9.788394E1,6.22149E2],"tree_param":{"num_deleted":"0","num_feature":"15","num_nodes":"13","size_leaf_vector":"1"}},{"base_weights":[-8.21967E-2,5.110729E-1,-1.4354157E-1,6.7348546E-1,-9.065301E-3,-4.8251542E-1,-4.8504537E-3,4.350692E-3,3.0241817E-2,8.278808E-3,-2.386681E-2,-7.972418E-3,7.387973E-3],"categories":[],"categories_nodes":[],"categories_segments":[],"categories_sizes":[],"default_left":[0,0,0,0,0,0,0,0,0,0,0,0,0],"id":17,"left_children":[1,3,5,7,-1,9,11,-1,-1,-1,-1,-1,-1],"loss_changes":[3.5701332E1,1.2889397E1,4.117782E1,2.680626E0,0E0,2.1502705E1,2.3815226E1,0E0,0E0,0E0,0E0,0E0,0E0],"parents":[2147483647,0,0,1,1,2,2,3,3,5,5,6,6],"right_children":[2,4,6,8,-1,10,12,-1,-1,-1,-1,-1,-1],"split_conditions":[-1.4456596E1,8.254E-1,-3.4349272E0,-8.26E-2,-9.065301E-3,6.9E1,1.5001237E3,4.350692E-3,3.0241817E-2,8.278808E-3,-2.386681E-2,-7.972418E-3,7.387973E-3],"split_indices":[6,12,5,11,0,3,2,0,0,0,0,0,0],"split_type":[0,0,0,0,0,0,0,0,0,0,0,0,0],"sum_hessian":[9.4477747E2,8.029234E1,8.6448517E2,6.6660965E1,1.3631379E1,2.4236763E2,6.221175E2,1.2049618E1,5.4611347E1,3.304171E1,2.0932593E2,3.0677634E2,3.153412E2],"tree_param":{"num_deleted":"0","num_feature":"15","num_nodes":"13","size_leaf_vector":"1"}},{"base_weights":[-9.572367E-3,-3.1738985E-1,1.2901135E-1,-4.73859E-1,1.20638795E-1,9.56994E-1,5.738729E-2,-2.6564004E-2,1.0691998E-2,2.8359674E-2,-6.826461E-3,-5.3200005E-3,5.6426167E-2,-5.486165E-3,7.2468603E-3],"categories":[],"categories_nodes":[],"categories_segments":[],"categories_sizes":[],"default_left":[0,0,0,0,0,0,0,0,0,0,0,0,0,0,0],"id":18,"left_children":[1,3,5,7,9,11,13,-1,-1,-1,-1,-1,-1,-1,-1],"loss_changes":[3.9994553E1,2.062725E1,3.7715157E1,3.2700104E1,1.6215654E1,2.734822E1,1.4947432E1,0E0,0E0,0E0,0E0,0E0,0E0,0E0,0E0],"parents":[2147483647,0,0,1,1,2,2,3,3,4,4,5,5,6,6],"right_children":[2,4,6,8,10,12,14,-1,-1,-1,-1,-1,-1,-1,-1],"split_conditions":[7.7E1,5E0,7.1E1,1.3174E0,6E0,1.451126E3,7.3E-2,-2.6564004E-2,1.0691998E-2,2.8359674E-2,-6.826461E-3,-5.3200005E-3,5.6426167E-2,-5.486165E-3,7.2468603E-3],"split_indices":[1,14,3,11,14,0,11,0,0,0,0,0,0,0,0],"split_type":[0,0,0,0,0,0,0,0,0,0,0,0,0,0,0],"sum_hessian":[9.1403357E2,2.7895197E2,6.350816E2,2.0480981E2,7.414214E1,3.8753246E1,5.9632837E2,1.6396965E2,4.084017E1,1.8854393E1,5.5287754E1,1.3881818E1,2.4871428E1,2.3138445E2,3.6494394E2],"tree_param":{"num_deleted":"0","num_feature":"15","num_nodes":"15","size_leaf_vector":"1"}},{"base_weights":[2.5217548E-2,7.0652103E-1,-3.1207167E-2,8.295995E-1,8.871135E-3,-4.5726678E-1,4.718626E-2,1.2309861E-2,4.168167E-2,-2.4379103E-2,-6.1797434E-3,2.8769271E-2,6.444436E-5],"categories":[],"categories_nodes":[],"categories_segments":[],"categories_sizes":[],"default_left":[0,0,0,0,0,0,0,0,0,0,0,0,0],"id":19,"left_children":[1,3,5,7,-1,9,11,-1,-1,-1,-1,-1,-1],"loss_changes":[3.6357674E1,2.1067467E0,2.9603422E1,2.060341E0,0E0,5.2139454E0,2.3046837E1,0E0,0E0,0E0,0E0,0E0,0E0],"parents":[2147483647,0,0,1,1,2,2,3,3,5,5,6,6],"right_children":[2,4,6,8,-1,10,12,-1,-1,-1,-1,-1,-1],"split_conditions":[3.6507937E-1,-6.9876027E0,-5.9118404E0,1.5148671E3,8.871135E-3,8.2E1,6.7E1,1.2309861E-2,4.168167E-2,-2.4379103E-2,-6.1797434E-3,2.8769271E-2,6.444436E-5],"split_indices":[13,6,5,2,0,1,3,0,0,0,0,0,0],"split_type":[0,0,0,0,0,0,0,0,0,0,0,0,0],"sum_hessian":[9.2688873E2,6.031798E1,8.6657074E2,4.129573E1,1.9022251E1,1.2565485E2,7.409159E2,2.0448486E1,2.0847244E1,7.552896E1,5.012589E1,3.578976E1,7.051261E2],"tree_param":{"num_deleted":"0","num_feature":"15","num_nodes":"13","size_leaf_vector":"1"}},{"base_weights":[1.9089077E-2,-2.8858447E-1,1.4448754E-1,4.0942368E-1,-4.8513156E-1,8.2389355E-1,7.393164E-2,-5.2951323E-3,2.4261918E-2,-2.5158167E-2,-1.5152788E-3,4.9673464E-2,-9.402403E-3,2.422075E-2,-3.8340988E-4],"categories":[],"categories_nodes":[],"categories_segments":[],"categories_sizes":[],"default_left":[0,0,0,0,0,0,0,0,0,0,0,0,0,0,0],"id":20,"left_children":[1,3,5,7,9,11,13,-1,-1,-1,-1,-1,-1,-1,-1],"loss_changes":[3.6695583E1,4.020007E1,3.1601694E1,8.126947E0,1.3902576E1,3.1063808E1,2.7782898E1,0E0,0E0,0E0,0E0,0E0,0E0,0E0,0E0],"parents":[2147483647,0,0,1,1,2,2,3,3,4,4,5,5,6,6],"right_children":[2,4,6,8,10,12,14,-1,-1,-1,-1,-1,-1,-1,-1],"split_conditions":[-3.8773496E0,4.1269842E-1,6.7E1,1.450057E3,-1.6173776E0,1.5339218E3,-3.7339473E0,-5.2951323E-3,2.4261918E-2,-2.5158167E-2,-1.5152788E-3,4.9673464E-2,-9.402403E-3,2.422075E-2,-3.8340988E-4],"split_indices":[5,13,3,0,4,0,4,0,0,0,0,0,0,0,0],"split_type":[0,0,0,0,0,0,0,0,0,0,0,0,0,0,0],"sum_hessian":[9.2614264E2,2.6364816E2,6.6249445E2,5.5071793E1,2.0857635E2,5.0273006E1,6.122215E2,1.574303E1,3.9328766E1,1.5413554E2,5.4440807E1,3.4560432E1,1.5712575E1,7.294183E1,5.3927966E2],"tree_param":{"num_deleted":"0","num_feature":"15","num_nodes":"15","size_leaf_vector":"1"}},{"base_weights":[-1.957918E-2,-3.6720625E-1,4.519115E-2,3.400625E-1,-5.503972E-1,5.338706E-1,3.3878062E-3,-7.3064654E-3,2.4888933E-2,-2.5762567E-2,-8.827778E-3,-6.23076E-3,4.0674668E-2,-1.6375169E-3,1.993549E-2],"categories":[],"categories_nodes":[],"categories_segments":[],"categories_sizes":[],"default_left":[0,0,0,0,0,0,0,0,0,0,0,0,0,0,0],"id":21,"left_children":[1,3,5,7,9,11,13,-1,-1,-1,-1,-1,-1,-1,-1],"loss_changes":[2.0870613E1,2.1098722E1,1.6005949E1,6.8729973E0,2.0049782E0,2.2469213E1,1.6367804E1,0E0,0E0,0E0,0E0,0E0,0E0,0E0,0E0],"parents":[2147483647,0,0,1,1,2,2,3,3,4,4,5,5,6,6],"right_children":[2,4,6,8,10,12,14,-1,-1,-1,-1,-1,-1,-1,-1],"split_conditions":[-6.773556E0,4.2028984E-1,6.7E1,6.604E-1,8.2E1,6.4E1,6.1333334E-1,-7.3064654E-3,2.4888933E-2,-2.5762567E-2,-8.827778E-3,-6.23076E-3,4.0674668E-2,-1.6375169E-3,1.993549E-2],"split_indices":[5,13,3,11,1,3,13,0,0,0,0,0,0,0,0],"split_type":[0,0,0,0,0,0,0,0,0,0,0,0,0,0,0],"sum_hessian":[9.0608295E2,1.335073E2,7.725757E2,2.5351934E1,1.0815536E2,4.974985E1,7.228258E2,1.0370814E1,1.498112E1,7.5316635E1,3.2838722E1,2.3840063E1,2.5909786E1,6.7352155E2,4.9304283E1],"tree_param":{"num_deleted":"0","num_feature":"15","num_nodes":"15","size_leaf_vector":"1"}},{"base_weights":[-2.0845596E-2,-2.4448606E-1,1.7378499E-1,3.768741E-1,-2.9814324E-1,3.1496152E-1,-4.0948796E-1,4.7764955E-3,1.8220266E-2,-1.3541201E-2,1.6162962E-2,5.4183337E-3,2.7836075E-2,8.673464E-5,-2.5189437E-2],"categories":[],"categories_nodes":[],"categories_segments":[],"categories_sizes":[],"default_left":[0,0,0,0,0,0,0,0,0,0,0,0,0,0,0],"id":22,"left_children":[1,3,5,7,9,11,13,-1,-1,-1,-1,-1,-1,-1,-1],"loss_changes":[4.1742447E1,1.6210732E1,4.3831985E1,1.7195654E-1,1.3468925E1,2.7603405E1,9.5623E0,0E0,0E0,0E0,0E0,0E0,0E0,0E0,0E0],"parents":[2147483647,0,0,1,1,2,2,3,3,4,4,5,5,6,6],"right_children":[2,4,6,8,10,12,14,-1,-1,-1,-1,-1,-1,-1,-1],"split_conditions":[1.5006493E3,-1.4456596E1,1.6180934E3,1.4041642E3,8.8E1,5.16129E-1,7.5E1,4.7764955E-3,1.8220266E-2,-1.3541201E-2,1.6162962E-2,5.4183337E-3,2.7836075E-2,8.673464E-5,-2.5189437E-2],"split_indices":[2,6,0,0,14,13,3,0,0,0,0,0,0,0,0],"split_type":[0,0,0,0,0,0,0,0,0,0,0,0,0,0,0],"sum_hessian":[9.3528174E2,4.3377652E2,5.015052E2,2.8734993E1,4.0504153E2,4.0821915E2,9.328606E1,1.3793882E1,1.494111E1,3.8889014E2,1.6151388E1,2.885285E2,1.1969065E2,3.66559E1,5.6630157E1],"tree_param":{"num_deleted":"0","num_feature":"15","num_nodes":"15","size_leaf_vector":"1"}},{"base_weights":[3.6682297E-2,5.2765083E-1,-9.501715E-2,6.734448E-1,-1.8584564E-2,-3.9550674E-1,1.5852166E-2,-1.9254505E-4,3.2763228E-2,-2.0398378E-2,2.2289393E-4,2.5550773E-2,-1.0859234E-3],"categories":[],"categories_nodes":[],"categories_segments":[],"categories_sizes":[],"default_left":[0,0,0,0,0,0,0,0,0,0,0,0,0],"id":23,"left_children":[1,3,5,7,-1,9,11,-1,-1,-1,-1,-1,-1],"loss_changes":[6.1478233E1,3.2827232E1,2.5145527E1,1.7839043E1,0E0,9.365664E0,1.5241223E1,0E0,0E0,0E0,0E0,0E0,0E0],"parents":[2147483647,0,0,1,1,2,2,3,3,5,5,6,6],"right_children":[2,4,6,8,-1,10,12,-1,-1,-1,-1,-1,-1],"split_conditions":[7.5E1,1.6483695E3,7.7E1,-7.1E1,-1.8584564E-2,1.1048E0,3.846154E-1,-1.9254505E-4,3.2763228E-2,-2.0398378E-2,2.2289393E-4,2.5550773E-2,-1.0859234E-3],"split_indices":[3,2,1,14,0,12,13,0,0,0,0,0,0],"split_type":[0,0,0,0,0,0,0,0,0,0,0,0,0],"sum_hessian":[9.2948364E2,1.8896277E2,7.4052094E2,1.6811693E2,2.0845833E1,1.9128163E2,5.4923926E2,3.176831E1,1.3634862E2,1.4628098E2,4.500065E1,2.4730093E1,5.245092E2],"tree_param":{"num_deleted":"0","num_feature":"15","num_nodes":"13","size_leaf_vector":"1"}},{"base_weights":[9.870691E-3,5.9388316E-1,-4.1917518E-2,3.51204E-2,3.0918673E-1,-3.5091618E-1,6.910844E-2,-2.9386973E-4,1.6249396E-2,-2.0018782E-2,-4.3008775E-3,1.9699791E-2,-1.5433835E-3],"categories":[],"categories_nodes":[],"categories_segments":[],"categories_sizes":[],"default_left":[0,0,0,0,0,0,0,0,0,0,0,0,0],"id":24,"left_children":[1,3,5,-1,7,9,11,-1,-1,-1,-1,-1,-1],"loss_changes":[2.9609516E1,3.1916256E0,3.121469E1,0E0,1.8281803E0,8.099073E0,3.0920591E1,0E0,0E0,0E0,0E0,0E0,0E0],"parents":[2147483647,0,0,1,1,2,2,4,4,5,5,6,6],"right_children":[2,4,6,-1,8,10,12,-1,-1,-1,-1,-1,-1],"split_conditions":[3.846154E-1,3.5E-1,-3.8773496E0,3.51204E-2,-5.0781345E0,-2.4753346E0,-2.5834363E0,-2.9386973E-4,1.6249396E-2,-2.0018782E-2,-4.3008775E-3,1.9699791E-2,-1.5433835E-3],"split_indices":[13,13,5,0,5,4,4,0,0,0,0,0,0],"split_type":[0,0,0,0,0,0,0,0,0,0,0,0,0],"sum_hessian":[9.5711304E2,6.772882E1,8.893842E2,2.1381668E1,4.6347153E1,2.2823914E2,6.611451E2,1.3478169E1,3.286898E1,1.3352208E2,9.471705E1,1.2537315E2,5.357719E2],"tree_param":{"num_deleted":"0","num_feature":"15","num_nodes":"13","size_leaf_vector":"1"}},{"base_weights":[-1.2912546E-2,6.84538E-1,-6.684884E-2,2.9674682E-1,3.7193082E-2,-3.8374075E-1,4.252835E-2,1.3876388E-2,4.1485983E-3,-2.5099747E-2,-6.6350526E-3,1.6647153E-2,-1.6408411E-3],"categories":[],"categories_nodes":[],"categories_segments":[],"categories_sizes":[],"default_left":[0,0,0,0,0,0,0,0,0,0,0,0,0],"id":25,"left_children":[1,3,5,7,-1,9,11,-1,-1,-1,-1,-1,-1],"loss_changes":[3.723808E1,3.4498634E0,3.1953005E1,5.567789E-3,0E0,1.1299374E1,2.1805859E1,0E0,0E0,0E0,0E0,0E0,0E0],"parents":[2147483647,0,0,1,1,2,2,3,3,5,5,6,6],"right_children":[2,4,6,8,-1,10,12,-1,-1,-1,-1,-1,-1],"split_conditions":[3.846154E-1,1.5148671E3,-3.8773496E0,1.4349304E3,3.7193082E-2,2E-1,7.5E1,1.3876388E-2,4.1485983E-3,-2.5099747E-2,-6.6350526E-3,1.6647153E-2,-1.6408411E-3],"split_indices":[13,2,5,0,0,11,3,0,0,0,0,0,0],"split_type":[0,0,0,0,0,0,0,0,0,0,0,0,0],"sum_hessian":[9.6330585E2,5.9077328E1,9.042285E2,3.3163975E1,2.5913353E1,2.2429402E2,6.799345E2,1.8730543E1,1.4433432E1,9.520903E1,1.2908499E2,1.15521805E2,5.6441266E2],"tree_param":{"num_deleted":"0","num_feature":"15","num_nodes":"13","size_leaf_vector":"1"}},{"base_weights":[5.0660938E-2,-1.3559458E-1,2.1575892E-1,-2.211855E-1,3.334186E-1,4.7879014E-3,4.569265E-1,-1.6149594E-2,-1.3787571E-3,2.3969881E-2,-2.272064E-3,-1.4314989E-2,1.5075455E-2,5.0136812E-2,1.2473543E-2],"categories":[],"categories_nodes":[],"categories_segments":[],"categories_sizes":[],"default_left":[0,0,0,0,0,0,0,0,0,0,0,0,0,0,0],"id":26,"left_children":[1,3,5,7,9,11,13,-1,-1,-1,-1,-1,-1,-1,-1],"loss_changes":[2.9830446E1,1.9264084E1,2.606613E1,1.3276316E1,8.2342825E0,4.01681E1,2.2947594E1,0E0,0E0,0E0,0E0,0E0,0E0,0E0,0E0],"parents":[2147483647,0,0,1,1,2,2,3,3,4,4,5,5,6,6],"right_children":[2,4,6,8,10,12,14,-1,-1,-1,-1,-1,-1,-1,-1],"split_conditions":[1.5006493E3,4.784531E0,8.2E1,0E0,4.3358555E0,2.19E-1,6.7E1,-1.6149594E-2,-1.3787571E-3,2.3969881E-2,-2.272064E-3,-1.4314989E-2,1.5075455E-2,5.0136812E-2,1.2473543E-2],"split_indices":[2,5,1,14,4,11,3,0,0,0,0,0,0,0,0],"split_type":[0,0,0,0,0,0,0,0,0,0,0,0,0,0,0],"sum_hessian":[9.4666626E2,4.4583798E2,5.008283E2,3.8239496E2,6.344301E1,2.736661E2,2.2716219E2,1.8630006E2,1.960949E2,3.3912766E1,2.9530245E1,1.3882257E2,1.3484354E2,2.087816E1,2.0628403E2],"tree_param":{"num_deleted":"0","num_feature":"15","num_nodes":"15","size_leaf_vector":"1"}},{"base_weights":[2.465874E-2,7.46104E-1,-1.803085E-2,1.22707505E-2,3.6610615E-2,-3.709723E-1,4.291989E-2,8.07203E-3,-2.0122625E-2,1.1462946E-2,-4.111595E-3],"categories":[],"categories_nodes":[],"categories_segments":[],"categories_sizes":[],"default_left":[0,0,0,0,0,0,0,0,0,0,0],"id":27,"left_children":[1,3,5,-1,-1,7,9,-1,-1,-1,-1],"loss_changes":[2.914092E1,5.5848503E-1,1.9553984E1,0E0,0E0,1.1341072E1,2.7985332E1,0E0,0E0,0E0,0E0],"parents":[2147483647,0,0,1,1,2,2,5,5,6,6],"right_children":[2,4,6,-1,-1,8,10,-1,-1,-1,-1],"split_conditions":[3.5880175E-1,1.5249408E3,-6.0157065E0,1.22707505E-2,3.6610615E-2,4.2028984E-1,-1.3549669E0,8.07203E-3,-2.0122625E-2,1.1462946E-2,-4.111595E-3],"split_indices":[13,2,5,0,0,13,4,0,0,0,0],"split_type":[0,0,0,0,0,0,0,0,0,0,0],"sum_hessian":[9.289473E2,4.0850655E1,8.880967E2,2.0742132E1,2.0108522E1,1.2179474E2,7.6630194E2,2.1637836E1,1.001569E2,2.8242834E2,4.838736E2],"tree_param":{"num_deleted":"0","num_feature":"15","num_nodes":"11","size_leaf_vector":"1"}},{"base_weights":[4.3007288E-2,-1.5059973E-1,2.3043199E-1,-3.543239E-1,6.0907066E-2,-7.3520556E-2,5.267993E-1,-6.2685874E-3,-2.1464663E-2,-1.3678306E-2,1.5079511E-2,-1.3649358E-2,7.948199E-3,3.360093E-2,1.6128895E-3],"categories":[],"categories_nodes":[],"categories_segments":[],"categories_sizes":[],"default_left":[0,0,0,0,0,0,0,0,0,0,0,0,0,0,0],"id":28,"left_children":[1,3,5,7,9,11,13,-1,-1,-1,-1,-1,-1,-1,-1],"loss_changes":[3.0869219E1,1.8359032E1,3.9304737E1,6.7619476E0,2.9094475E1,1.7093866E1,3.308215E1,0E0,0E0,0E0,0E0,0E0,0E0,0E0,0E0],"parents":[2147483647,0,0,1,1,2,2,3,3,4,4,5,5,6,6],"right_children":[2,4,6,8,10,12,14,-1,-1,-1,-1,-1,-1,-1,-1],"split_conditions":[1.5006493E3,4.73E-1,6.98E-2,9.5E1,4.214726E0,8.3E1,1.5699443E3,-6.2685874E-3,-2.1464663E-2,-1.3678306E-2,1.5079511E-2,-1.3649358E-2,7.948199E-3,3.360093E-2,1.6128895E-3],"split_indices":[2,12,11,3,6,1,0,0,0,0,0,0,0,0,0],"split_type":[0,0,0,0,0,0,0,0,0,0,0,0,0,0,0],"sum_hessian":[8.2722614E2,4.0806186E2,4.1916428E2,2.0372772E2,2.0433414E2,2.1138857E2,2.0777573E2,1.0846526E2,9.526245E1,8.940255E1,1.1493158E2,1.0504385E2,1.0634472E2,1.21089714E2,8.6686005E1],"tree_param":{"num_deleted":"0","num_feature":"15","num_nodes":"15","size_leaf_vector":"1"}},{"base_weights":[-2.242089E-3,-1.7475216E-1,1.6621919E-1,1.68553E-2,-2.2338417E-1,4.3179348E-2,7.685693E-2,-1.9744176E-2,-3.6406317E-3,2.071133E-2,5.935304E-4],"categories":[],"categories_nodes":[],"categories_segments":[],"categories_sizes":[],"default_left":[0,0,0,0,0,0,0,0,0,0,0],"id":29,"left_children":[1,3,5,-1,7,-1,9,-1,-1,-1,-1],"loss_changes":[2.7912582E1,1.4884689E1,3.8669266E1,0E0,1.5432095E1,0E0,1.2367113E1,0E0,0E0,0E0,0E0],"parents":[2147483647,0,0,1,1,2,2,4,4,6,6],"right_children":[2,4,6,-1,8,-1,10,-1,-1,-1,-1],"split_conditions":[8.2E1,-1.4008388E1,6.9E1,1.68553E-2,1.520841E3,4.3179348E-2,-1.4636272E1,-1.9744176E-2,-3.6406317E-3,2.071133E-2,5.935304E-4],"split_indices":[1,10,3,0,0,0,6,0,0,0,0],"split_type":[0,0,0,0,0,0,0,0,0,0,0],"sum_hessian":[9.3647943E2,4.624583E2,4.7402112E2,2.7943857E1,4.3451443E2,3.039829E1,4.4362283E2,1.3209796E2,3.0241647E2,4.382929E1,3.9979355E2],"tree_param":{"num_deleted":"0","num_feature":"15","num_nodes":"11","size_leaf_vector":"1"}},{"base_weights":[2.4055645E-2,-2.634753E-1,1.4867657E-1,-5.502768E-1,-1.8053826E-2,-4.3839663E-2,3.3758932E-1,-2.4195837E-2,-2.1853996E-3,1.926054E-2,-7.3692272E-3,1.6916242E-3,-1.3858576E-2,2.1683803E-2,2.4972723E-3],"categories":[],"categories_nodes":[],"categories_segments":[],"categories_sizes":[],"default_left":[0,0,0,0,0,0,0,0,0,0,0,0,0,0,0],"id":30,"left_children":[1,3,5,7,9,11,13,-1,-1,-1,-1,-1,-1,-1,-1],"loss_changes":[3.3710964E1,1.9929007E1,2.3993694E1,3.1480026E0,1.4836407E1,8.906416E0,1.8270184E1,0E0,0E0,0E0,0E0,0E0,0E0,0E0,0E0],"parents":[2147483647,0,0,1,1,2,2,3,3,4,4,5,5,6,6],"right_children":[2,4,6,8,10,12,14,-1,-1,-1,-1,-1,-1,-1,-1],"split_conditions":[7.7E1,2.19E-1,1.5006493E3,1.0986062E1,6.8E1,9.7E1,1.27E-1,-2.4195837E-2,-2.1853996E-3,1.926054E-2,-7.3692272E-3,1.6916242E-3,-1.3858576E-2,2.1683803E-2,2.4972723E-3],"split_indices":[1,11,2,6,3,1,12,0,0,0,0,0,0,0,0],"split_type":[0,0,0,0,0,0,0,0,0,0,0,0,0,0,0],"sum_hessian":[9.1567773E2,2.7282748E2,6.428502E2,1.189341E2,1.5389339E2,3.229526E2,3.1989764E2,1.04746056E2,1.4188044E1,3.2729504E1,1.2116388E2,2.5943707E2,6.351554E1,1.7683029E2,1.4306734E2],"tree_param":{"num_deleted":"0","num_feature":"15","num_nodes":"15","size_leaf_vector":"1"}},{"base_weights":[-2.1817204E-2,-1.8209444E-1,1.5874171E-1,-6.0182285E-1,-9.068869E-2,8.830525E-1,5.673048E-2,7.4512437E-3,-2.9313557E-2,1.7284703E-2,-8.482888E-3,5.398549E-3,4.7190137E-2,-6.193519E-3,7.1859146E-3],"categories":[],"categories_nodes":[],"categories_segments":[],"categories_sizes":[],"default_left":[0,0,0,0,0,0,0,0,0,0,0,0,0,0,0],"id":31,"left_children":[1,3,5,7,9,11,13,-1,-1,-1,-1,-1,-1,-1,-1],"loss_changes":[2.8117008E1,1.9062525E1,3.3214153E1,1.0908096E1,2.8778328E1,1.0446838E1,1.10995865E1,0E0,0E0,0E0,0E0,0E0,0E0,0E0,0E0],"parents":[2147483647,0,0,1,1,2,2,3,3,4,4,5,5,6,6],"right_children":[2,4,6,8,10,12,14,-1,-1,-1,-1,-1,-1,-1,-1],"split_conditions":[8.2E1,4.476927E-1,7.2E1,-1.4254E0,4.8314607E-1,-7.828445E-1,-2.2307436E0,7.4512437E-3,-2.9313557E-2,1.7284703E-2,-8.482888E-3,5.398549E-3,4.7190137E-2,-6.193519E-3,7.1859146E-3],"split_indices":[1,13,3,12,13,5,5,0,0,0,0,0,0,0,0],"split_type":[0,0,0,0,0,0,0,0,0,0,0,0,0,0,0],"sum_hessian":[9.475933E2,5.019362E2,4.4565714E2,7.777771E1,4.2415848E2,4.3674908E1,4.019822E2,1.0365295E1,6.741242E1,7.413505E1,3.5002344E2,1.7360775E1,2.6314135E1,1.4657588E2,2.5540634E2],"tree_param":{"num_deleted":"0","num_feature":"15","num_nodes":"15","size_leaf_vector":"1"}},{"base_weights":[-1.3698133E-2,-1.8482621E-1,1.4596882E-1,-4.8782367E-1,-4.1862685E-2,9.225227E-1,5.2395266E-2,1.3688854E-2,-2.5901811E-2,-1.5355856E-2,5.6290696E-3,4.7950327E-2,4.169662E-3,4.5377776E-4,1.9504163E-2],"categories":[],"categories_nodes":[],"categories_segments":[],"categories_sizes":[],"default_left":[0,0,0,0,0,0,0,0,0,0,0,0,0,0,0],"id":32,"left_children":[1,3,5,7,9,11,13,-1,-1,-1,-1,-1,-1,-1,-1],"loss_changes":[2.5086378E1,1.8933079E1,3.3975243E1,2.1326275E1,2.0253826E1,9.896721E0,7.743164E0,0E0,0E0,0E0,0E0,0E0,0E0,0E0,0E0],"parents":[2147483647,0,0,1,1,2,2,3,3,4,4,5,5,6,6],"right_children":[2,4,6,8,10,12,14,-1,-1,-1,-1,-1,-1,-1,-1],"split_conditions":[8.2E1,1.5169796E3,7.2E1,1.4429745E3,4.76E-2,-3.016298E0,1.6E0,1.3688854E-2,-2.5901811E-2,-1.5355856E-2,5.6290696E-3,4.7950327E-2,4.169662E-3,4.5377776E-4,1.9504163E-2],"split_indices":[1,0,3,0,11,10,12,0,0,0,0,0,0,0,0],"split_type":[0,0,0,0,0,0,0,0,0,0,0,0,0,0,0],"sum_hessian":[8.9427594E2,4.3073325E2,4.6354272E2,1.2880234E2,3.0193088E2,3.841731E1,4.2512543E2,1.8572586E1,1.1022976E2,1.0047918E2,2.014517E2,2.4550045E1,1.3867264E1,3.9973358E2,2.5391842E1],"tree_param":{"num_deleted":"0","num_feature":"15","num_nodes":"15","size_leaf_vector":"1"}},{"base_weights":[5.7461396E-2,-2.979134E-1,1.1931027E-1,3.843694E-2,-4.540038E-1,5.420786E-1,3.0055651E-2,-1.4420459E-2,1.1273942E-2,-2.1208636E-2,1.6184413E-3,2.9158026E-2,-1.8077165E-2,-1.314562E-3,1.6479462E-2],"categories":[],"categories_nodes":[],"categories_segments":[],"categories_sizes":[],"default_left":[0,0,0,0,0,0,0,0,0,0,0,0,0,0,0],"id":33,"left_children":[1,3,5,7,9,11,13,-1,-1,-1,-1,-1,-1,-1,-1],"loss_changes":[2.0735985E1,7.580924E0,2.9826054E1,6.6155076E0,3.9067154E0,2.9584133E1,1.6254232E1,0E0,0E0,0E0,0E0,0E0,0E0,0E0,0E0],"parents":[2147483647,0,0,1,1,2,2,3,3,4,4,5,5,6,6],"right_children":[2,4,6,8,10,12,14,-1,-1,-1,-1,-1,-1,-1,-1],"split_conditions":[6.9E1,-1.9645276E0,7.3E1,-6.480312E0,1E1,1.6483695E3,5.6264615E0,-1.4420459E-2,1.1273942E-2,-2.1208636E-2,1.6184413E-3,2.9158026E-2,-1.8077165E-2,-1.314562E-3,1.6479462E-2],"split_indices":[1,4,3,5,14,2,5,0,0,0,0,0,0,0,0],"split_type":[0,0,0,0,0,0,0,0,0,0,0,0,0,0,0],"sum_hessian":[9.1201685E2,1.28407E2,7.8360986E2,4.356858E1,8.483842E1,1.25984406E2,6.576254E2,1.4322031E1,2.9246552E1,7.275676E1,1.2081662E1,1.087411E2,1.724331E1,5.7402704E2,8.359838E1],"tree_param":{"num_deleted":"0","num_feature":"15","num_nodes":"15","size_leaf_vector":"1"}},{"base_weights":[1.6502386E-2,-1.2290818E-1,1.7070533E-1,-3.034163E-1,-2.609623E-3,4.9397466E-1,1.1444913E-2,-1.841312E-2,2.0426193E-3,2.7272794E-2,-4.098218E-3,2.6789274E-2,-1.2870792E-3,2.3178557E-2,-3.2553463E-3],"categories":[],"categories_nodes":[],"categories_segments":[],"categories_sizes":[],"default_left":[0,0,0,0,0,0,0,0,0,0,0,0,0,0,0],"id":34,"left_children":[1,3,5,7,9,11,13,-1,-1,-1,-1,-1,-1,-1,-1],"loss_changes":[2.0445066E1,1.0854543E1,2.3152836E1,1.1405298E1,2.2181887E1,1.399836E1,1.7146288E1,0E0,0E0,0E0,0E0,0E0,0E0,0E0,0E0],"parents":[2147483647,0,0,1,1,2,2,3,3,4,4,5,5,6,6],"right_children":[2,4,6,8,10,12,14,-1,-1,-1,-1,-1,-1,-1,-1],"split_conditions":[8.3E1,9.84E-2,8.9E1,1E0,-7.4479213E0,6.494199E0,-1.5684804E1,-1.841312E-2,2.0426193E-3,2.7272794E-2,-4.098218E-3,2.6789274E-2,-1.2870792E-3,2.3178557E-2,-3.2553463E-3],"split_indices":[1,11,1,12,6,6,6,0,0,0,0,0,0,0,0],"split_type":[0,0,0,0,0,0,0,0,0,0,0,0,0,0,0],"sum_hessian":[9.273314E2,4.8830438E2,4.39027E2,1.8797754E2,3.0032684E2,1.3657822E2,3.024488E2,1.2781637E2,6.0161167E1,2.9329874E1,2.7099698E2,9.99245E1,3.6653713E1,3.3648098E1,2.688007E2],"tree_param":{"num_deleted":"0","num_feature":"15","num_nodes":"15","size_leaf_vector":"1"}},{"base_weights":[9.742165E-3,-2.7807394E-1,6.4258754E-2,-3.6269766E-1,1.1669343E-1,-6.310779E-2,2.4017493E-1,-1.780351E-3,-1.6497321E-2,1.4714694E-2,-9.912461E-3,5.0193653E-3,-1.3096236E-2,3.5250247E-2,3.4758535E-3],"categories":[],"categories_nodes":[],"categories_segments":[],"categories_sizes":[],"default_left":[0,0,0,0,0,0,0,0,0,0,0,0,0,0,0],"id":35,"left_children":[1,3,5,7,9,11,13,-1,-1,-1,-1,-1,-1,-1,-1],"loss_changes":[1.5672739E1,5.824359E0,1.8958931E1,1.8998585E0,4.4971504E0,2.5196016E1,3.390989E1,0E0,0E0,0E0,0E0,0E0,0E0,0E0,0E0],"parents":[2147483647,0,0,1,1,2,2,3,3,4,4,5,5,6,6],"right_children":[2,4,6,8,10,12,14,-1,-1,-1,-1,-1,-1,-1,-1],"split_conditions":[6.9E1,1.0171946E1,5.16129E-1,-1.2214319E1,-1.9645276E0,-2.3595235E0,7.9E1,-1.780351E-3,-1.6497321E-2,1.4714694E-2,-9.912461E-3,5.0193653E-3,-1.3096236E-2,3.5250247E-2,3.4758535E-3],"split_indices":[1,10,13,10,4,6,3,0,0,0,0,0,0,0,0],"split_type":[0,0,0,0,0,0,0,0,0,0,0,0,0,0,0],"sum_hessian":[9.731864E2,1.4714375E2,8.2604266E2,1.219722E2,2.5171553E1,4.8360147E2,3.424412E2,1.9561806E1,1.0241039E2,1.4836967E1,1.0334586E1,2.858988E2,1.9770267E2,5.507979E1,2.8736142E2],"tree_param":{"num_deleted":"0","num_feature":"15","num_nodes":"15","size_leaf_vector":"1"}},{"base_weights":[-3.3850156E-2,-8.356165E-2,3.097623E-1,-3.9265957E-1,-3.586812E-2,4.313222E-1,-1.9499303E-1,7.3179975E-3,-1.878788E-2,-2.2124777E-2,-5.0688162E-5,2.1394193E-2,4.2175062E-4,2.2142762E-3,-1.3723079E-2],"categories":[],"categories_nodes":[],"categories_segments":[],"categories_sizes":[],"default_left":[0,0,0,0,0,0,0,0,0,0,0,0,0,0,0],"id":36,"left_children":[1,3,5,7,9,11,13,-1,-1,-1,-1,-1,-1,-1,-1],"loss_changes":[1.6967743E1,1.2529125E1,8.727954E0,6.0834236E0,1.3583294E1,4.5117188E0,1.4394299E0,0E0,0E0,0E0,0E0,0E0,0E0,0E0,0E0],"parents":[2147483647,0,0,1,1,2,2,3,3,4,4,5,5,6,6],"right_children":[2,4,6,8,10,12,14,-1,-1,-1,-1,-1,-1,-1,-1],"split_conditions":[5.3627667E0,-5.8971214E0,9.895806E0,4.1269842E-1,-1.59E2,1.0888E0,1.2939966E1,7.3179975E-3,-1.878788E-2,-2.2124777E-2,-5.0688162E-5,2.1394193E-2,4.2175062E-4,2.2142762E-3,-1.3723079E-2],"split_indices":[5,4,5,13,14,11,6,0,0,0,0,0,0,0,0],"split_type":[0,0,0,0,0,0,0,0,0,0,0,0,0,0,0],"sum_hessian":[9.631569E2,8.493592E2,1.1379771E2,1.0193448E2,7.4742474E2,9.3117966E1,2.0679747E1,1.0084807E1,9.184967E1,3.5588074E1,7.118367E2,7.211961E1,2.0998346E1,1.0478683E1,1.0201062E1],"tree_param":{"num_deleted":"0","num_feature":"15","num_nodes":"15","size_leaf_vector":"1"}},{"base_weights":[-2.6918793E-2,4.7613776E-1,-5.8103766E-2,2.2981796E-1,2.467076E-2,-3.2542494E-1,1.8309826E-2,1.1582996E-2,2.3990443E-3,-1.7561076E-2,1.5687037E-2,2.1943597E-2,-1.3072535E-3],"categories":[],"categories_nodes":[],"categories_segments":[],"categories_sizes":[],"default_left":[0,0,0,0,0,0,0,0,0,0,0,0,0],"id":37,"left_children":[1,3,5,7,-1,9,11,-1,-1,-1,-1,-1,-1],"loss_changes":[1.5272268E1,2.699604E-1,1.860804E1,1.9557929E-1,0E0,1.8563475E1,1.9604815E1,0E0,0E0,0E0,0E0,0E0,0E0],"parents":[2147483647,0,0,1,1,2,2,3,3,5,5,6,6],"right_children":[2,4,6,8,-1,10,12,-1,-1,-1,-1,-1,-1],"split_conditions":[3.5880175E-1,1.5249408E3,-6.2009516E0,1.4458442E3,2.467076E-2,8.5691535E-1,6.7E1,1.1582996E-2,2.3990443E-3,-1.7561076E-2,1.5687037E-2,2.1943597E-2,-1.3072535E-3],"split_indices":[13,2,10,0,0,11,3,0,0,0,0,0,0],"split_type":[0,0,0,0,0,0,0,0,0,0,0,0,0],"sum_hessian":[9.4035016E2,4.4896095E1,8.9545404E2,2.7805029E1,1.7091066E1,1.9036981E2,7.050842E2,1.431045E1,1.349458E1,1.6837337E2,2.1996433E1,5.157984E1,6.535044E2],"tree_param":{"num_deleted":"0","num_feature":"15","num_nodes":"13","size_leaf_vector":"1"}},{"base_weights":[9.926447E-3,6.114607E-1,-3.3002798E-2,2.7685644E-2,5.119096E-3,-1.6166161E-1,1.3185886E-1,-1.6930524E-2,-1.8252855E-3,3.056609E-2,1.9955277E-3],"categories":[],"categories_nodes":[],"categories_segments":[],"categories_sizes":[],"default_left":[0,0,0,0,0,0,0,0,0,0,0],"id":38,"left_children":[1,3,5,-1,-1,7,9,-1,-1,-1,-1],"loss_changes":[2.4446814E1,1.3965397E0,1.9054243E1,0E0,0E0,1.5041439E1,2.0019592E1,0E0,0E0,0E0,0E0],"parents":[2147483647,0,0,1,1,2,2,5,5,6,6],"right_children":[2,4,6,-1,-1,8,10,-1,-1,-1,-1],"split_conditions":[3.5880175E-1,-6.9876027E0,5.16129E-1,2.7685644E-2,5.119096E-3,-5.6993933E0,-1.0948255E1,-1.6930524E-2,-1.8252855E-3,3.056609E-2,1.9955277E-3],"split_indices":[13,6,13,0,0,10,10,0,0,0,0],"split_type":[0,0,0,0,0,0,0,0,0,0,0],"sum_hessian":[9.2531445E2,5.1051254E1,8.742632E2,3.9312233E1,1.1739023E1,4.9117825E2,3.8308493E2,1.4115462E2,3.5002365E2,3.250275E1,3.5058218E2],"tree_param":{"num_deleted":"0","num_feature":"15","num_nodes":"11","size_leaf_vector":"1"}},{"base_weights":[-1.2340205E-2,5.466701E-1,-4.8872415E-2,2.4002954E-1,3.295065E-2,-1.2243017E-1,2.308591E-1,1.2022702E-2,2.2112702E-3,-1.2553235E-2,-5.891554E-4,2.0963663E-2,1.364289E-4],"categories":[],"categories_nodes":[],"categories_segments":[],"categories_sizes":[],"default_left":[0,0,0,0,0,0,0,0,0,0,0,0,0],"id":39,"left_children":[1,3,5,7,-1,9,11,-1,-1,-1,-1,-1,-1],"loss_changes":[1.8995733E1,2.4773426E0,1.8228018E1,2.9305434E-1,0E0,1.4296361E1,1.2328636E1,0E0,0E0,0E0,0E0,0E0,0E0],"parents":[2147483647,0,0,1,1,2,2,3,3,5,5,6,6],"right_children":[2,4,6,8,-1,10,12,-1,-1,-1,-1,-1,-1],"split_conditions":[3.5880175E-1,1.5249408E3,3.543652E0,1.4222485E3,3.295065E-2,1.4714641E3,1.4604055E3,1.2022702E-2,2.2112702E-3,-1.2553235E-2,-5.891554E-4,2.0963663E-2,1.364289E-4],"split_indices":[13,2,5,0,0,2,0,0,0,0,0,0,0],"split_type":[0,0,0,0,0,0,0,0,0,0,0,0,0],"sum_hessian":[9.0246655E2,4.508065E1,8.573859E2,3.2030167E1,1.3050484E1,6.8421405E2,1.7317186E2,1.8458733E1,1.3571435E1,2.3810329E2,4.4611075E2,6.8809784E1,1.04362076E2],"tree_param":{"num_deleted":"0","num_feature":"15","num_nodes":"13","size_leaf_vector":"1"}},{"base_weights":[1.0293974E-2,4.1670907E-1,-7.093597E-2,-1.876407E-2,5.6176436E-1,4.364096E-1,-1.09670214E-1,3.392395E-2,-4.2987345E-3,2.1135433E-2,2.7431825E-3,-1.2115785E-2,-1.2489736E-4],"categories":[],"categories_nodes":[],"categories_segments":[],"categories_sizes":[],"default_left":[0,0,0,0,0,0,0,0,0,0,0,0,0],"id":40,"left_children":[1,3,5,-1,7,9,11,-1,-1,-1,-1,-1,-1],"loss_changes":[3.0188902E1,2.2729202E1,1.55769205E1,0E0,2.7214901E1,1.4787102E0,1.478839E1,0E0,0E0,0E0,0E0,0E0,0E0],"parents":[2147483647,0,0,1,1,2,2,4,4,5,5,6,6],"right_children":[2,4,6,-1,8,10,12,-1,-1,-1,-1,-1,-1],"split_conditions":[7.2E1,-7.1E1,3.846154E-1,-1.876407E-2,9E0,1.238E-1,-3.230466E0,3.392395E-2,-4.2987345E-3,2.1135433E-2,2.7431825E-3,-1.2115785E-2,-1.2489736E-4],"split_indices":[3,14,13,0,14,12,5,0,0,0,0,0,0],"split_type":[0,0,0,0,0,0,0,0,0,0,0,0,0],"sum_hessian":[8.917081E2,1.4028165E2,7.514265E2,1.5967196E1,1.2431445E2,4.456095E1,7.0686554E2,8.48176E1,3.9496857E1,3.1457129E1,1.3103821E1,2.4338078E2,4.6348474E2],"tree_param":{"num_deleted":"0","num_feature":"15","num_nodes":"13","size_leaf_vector":"1"}},{"base_weights":[-5.235065E-3,-1.9297214E-1,1.04222886E-1,-3.2845557E-1,6.299072E-2,3.5485953E-2,7.191098E-1,-1.8082554E-2,-3.1104786E-4,9.574175E-3,-5.935757E-3,1.822558E-2,-2.0226303E-3,3.283163E-2,9.184686E-3],"categories":[],"categories_nodes":[],"categories_segments":[],"categories_sizes":[],"default_left":[0,0,0,0,0,0,0,0,0,0,0,0,0,0,0],"id":41,"left_children":[1,3,5,7,9,11,13,-1,-1,-1,-1,-1,-1,-1,-1],"loss_changes":[1.8957846E1,1.2027332E1,2.4340725E1,8.838173E0,5.184325E0,1.969657E1,6.257343E-1,0E0,0E0,0E0,0E0,0E0,0E0,0E0,0E0],"parents":[2147483647,0,0,1,1,2,2,3,3,4,4,5,5,6,6],"right_children":[2,4,6,8,10,12,14,-1,-1,-1,-1,-1,-1,-1,-1],"split_conditions":[6.98E-2,9.1E1,6.011542E-1,9.2209643E-1,-3.143531E0,7.3E1,9.2E1,-1.8082554E-2,-3.1104786E-4,9.574175E-3,-5.935757E-3,1.822558E-2,-2.0226303E-3,3.283163E-2,9.184686E-3],"split_indices":[11,1,13,12,6,3,1,0,0,0,0,0,0,0,0],"split_type":[0,0,0,0,0,0,0,0,0,0,0,0,0,0,0],"sum_hessian":[8.9880896E2,3.2766235E2,5.711466E2,2.1203287E2,1.15629486E2,5.251354E2,4.601126E1,1.4949312E2,6.253974E1,6.21709E1,5.3458588E1,8.050833E1,4.4462704E2,3.1372498E1,1.46387615E1],"tree_param":{"num_deleted":"0","num_feature":"15","num_nodes":"15","size_leaf_vector":"1"}},{"base_weights":[1.7583157E-3,5.319109E-1,-3.189383E-2,2.2867362E-1,3.2332607E-2,-1.8422782E-1,1.4728987E-1,1.1745635E-2,1.7078711E-3,-1.6692597E-2,-2.896635E-3,2.3412036E-2,2.777551E-4],"categories":[],"categories_nodes":[],"categories_segments":[],"categories_sizes":[],"default_left":[0,0,0,0,0,0,0,0,0,0,0,0,0],"id":42,"left_children":[1,3,5,7,-1,9,11,-1,-1,-1,-1,-1,-1],"loss_changes":[1.7156157E1,2.592533E0,2.5023396E1,3.824215E-1,0E0,1.2521923E1,2.5919804E1,0E0,0E0,0E0,0E0,0E0,0E0],"parents":[2147483647,0,0,1,1,2,2,3,3,5,5,6,6],"right_children":[2,4,6,8,-1,10,12,-1,-1,-1,-1,-1,-1],"split_conditions":[3.5880175E-1,1.5217942E3,5.16129E-1,1.4417622E3,3.2332607E-2,-5.6993933E0,7.9E1,1.1745635E-2,1.7078711E-3,-1.6692597E-2,-2.896635E-3,2.3412036E-2,2.777551E-4],"split_indices":[13,2,13,0,0,10,3,0,0,0,0,0,0],"split_type":[0,0,0,0,0,0,0,0,0,0,0,0,0],"sum_hessian":[9.3821564E2,4.539491E1,8.9282074E2,3.210309E1,1.32918215E1,4.8238266E2,4.1043808E2,1.8643444E1,1.3459643E1,1.4575311E2,3.3662955E2,9.036611E1,3.2007196E2],"tree_param":{"num_deleted":"0","num_feature":"15","num_nodes":"13","size_leaf_vector":"1"}},{"base_weights":[5.0472587E-2,-9.916733E-2,1.9797538E-1,-1.4560106E-1,5.301806E-1,-3.3214928E-3,4.0638992E-1,-1.2257572E-3,-1.522629E-2,2.7071744E-2,3.0642091E-3,-2.3277191E-2,7.487114E-3,4.097654E-2,1.1665792E-2],"categories":[],"categories_nodes":[],"categories_segments":[],"categories_sizes":[],"default_left":[0,0,0,0,0,0,0,0,0,0,0,0,0,0,0],"id":43,"left_children":[1,3,5,7,9,11,13,-1,-1,-1,-1,-1,-1,-1,-1],"loss_changes":[2.1502628E1,1.5137136E1,2.0540882E1,1.2351731E1,1.77178E0,3.0049934E1,1.346722E1,0E0,0E0,0E0,0E0,0E0,0E0,0E0,0E0],"parents":[2147483647,0,0,1,1,2,2,3,3,4,4,5,5,6,6],"right_children":[2,4,6,8,10,12,14,-1,-1,-1,-1,-1,-1,-1,-1],"split_conditions":[1.5006493E3,8.8E1,8.2E1,9.7E1,9.1E1,4.476927E-1,6.7E1,-1.2257572E-3,-1.522629E-2,2.7071744E-2,3.0642091E-3,-2.3277191E-2,7.487114E-3,4.097654E-2,1.1665792E-2],"split_indices":[2,14,1,3,1,13,3,0,0,0,0,0,0,0,0],"split_type":[0,0,0,0,0,0,0,0,0,0,0,0,0,0,0],"sum_hessian":[9.515168E2,4.7428867E2,4.7722815E2,4.5028973E2,2.3998922E1,2.4876631E2,2.2846182E2,3.1150754E2,1.3878218E2,1.3673539E1,1.0325383E1,5.5509335E1,1.9325699E2,2.087816E1,2.0758366E2],"tree_param":{"num_deleted":"0","num_feature":"15","num_nodes":"15","size_leaf_vector":"1"}},{"base_weights":[1.8919365E-2,-1.2703706E-1,1.7280318E-1,-3.016227E-1,2.6825178E-2,7.0821875E-1,9.954991E-2,1.4033042E-2,-1.6239228E-2,2.1443402E-2,-6.3308254E-3,1.8712551E-3,3.9731007E-2,1.1660222E-2,-1.0388395E-3],"categories":[],"categories_nodes":[],"categories_segments":[],"categories_sizes":[],"default_left":[0,0,0,0,0,0,0,0,0,0,0,0,0,0,0],"id":44,"left_children":[1,3,5,7,9,11,13,-1,-1,-1,-1,-1,-1,-1,-1],"loss_changes":[2.2126307E1,1.3702318E1,1.7937511E1,1.7930723E1,2.7434092E1,9.93973E0,1.0577745E1,0E0,0E0,0E0,0E0,0E0,0E0,0E0,0E0],"parents":[2147483647,0,0,1,1,2,2,3,3,4,4,5,5,6,6],"right_children":[2,4,6,8,10,12,14,-1,-1,-1,-1,-1,-1,-1,-1],"split_conditions":[8.2E1,2.19E-1,7.2E1,1.450057E3,4.698E-1,-7.828445E-1,-9.833125E-2,1.4033042E-2,-1.6239228E-2,2.1443402E-2,-6.3308254E-3,1.8712551E-3,3.9731007E-2,1.1660222E-2,-1.0388395E-3],"split_indices":[1,11,3,0,11,5,4,0,0,0,0,0,0,0,0],"split_type":[0,0,0,0,0,0,0,0,0,0,0,0,0,0,0],"sum_hessian":[9.6139954E2,4.944833E2,4.6691623E2,2.2624344E2,2.6823987E2,4.3674908E1,4.2324133E2,2.7289265E1,1.9895418E2,6.543938E1,2.0280048E2,1.7360775E1,2.6314135E1,1.610633E2,2.6217804E2],"tree_param":{"num_deleted":"0","num_feature":"15","num_nodes":"15","size_leaf_vector":"1"}},{"base_weights":[1.946746E-2,2.9737252E-1,-4.868922E-2,-1.4374256E-1,5.3408486E-1,3.8019827E-1,-8.449225E-2,1.3183208E-2,-1.3133822E-2,-5.4612486E-3,2.8732074E-2,1.8243562E-2,2.6919385E-3,-1.4966299E-2,-4.978923E-4],"categories":[],"categories_nodes":[],"categories_segments":[],"categories_sizes":[],"default_left":[0,0,0,0,0,0,0,0,0,0,0,0,0,0,0],"id":45,"left_children":[1,3,5,7,9,11,13,-1,-1,-1,-1,-1,-1,-1,-1],"loss_changes":[1.688203E1,1.9238268E1,1.1421422E1,7.4775496E0,1.559444E1,9.9839306E-1,1.3991855E1,0E0,0E0,0E0,0E0,0E0,0E0,0E0,0E0],"parents":[2147483647,0,0,1,1,2,2,3,3,4,4,5,5,6,6],"right_children":[2,4,6,8,10,12,14,-1,-1,-1,-1,-1,-1,-1,-1],"split_conditions":[7.3E1,6.9E1,3.846154E-1,-3.6940503E0,-8.1E1,1.238E-1,-6.4305534E0,1.3183208E-2,-1.3133822E-2,-5.4612486E-3,2.8732074E-2,1.8243562E-2,2.6919385E-3,-1.4966299E-2,-4.978923E-4],"split_indices":[3,1,13,4,14,12,10,0,0,0,0,0,0,0,0],"split_type":[0,0,0,0,0,0,0,0,0,0,0,0,0,0,0],"sum_hessian":[8.701185E2,1.6342114E2,7.066974E2,5.8716187E1,1.0470495E2,4.55554E1,6.61142E2,1.3830524E1,4.4885662E1,2.3233381E1,8.147157E1,3.2243595E1,1.3311808E1,1.2166256E2,5.3947943E2],"tree_param":{"num_deleted":"0","num_feature":"15","num_nodes":"15","size_leaf_vector":"1"}},{"base_weights":[3.793532E-3,-1.5333003E-1,1.6463137E-1,-3.7092486E-1,3.912893E-2,3.8196698E-2,1.0320436E-1,-1.731097E-2,7.5093172E-3,2.612517E-2,-3.7150474E-3,7.0991097E-3,-1.0893853E-2],"categories":[],"categories_nodes":[],"categories_segments":[],"categories_sizes":[],"default_left":[0,0,0,0,0,0,0,0,0,0,0,0,0],"id":46,"left_children":[1,3,5,7,9,-1,11,-1,-1,-1,-1,-1,-1],"loss_changes":[2.4351357E1,2.0592854E1,2.192631E1,8.921661E0,2.2578203E1,0E0,1.3275824E1,0E0,0E0,0E0,0E0,0E0,0E0],"parents":[2147483647,0,0,1,1,2,2,3,3,4,4,6,6],"right_children":[2,4,6,8,10,-1,12,-1,-1,-1,-1,-1,-1],"split_conditions":[8.2E1,2.19E-1,6.7E1,1.0986062E1,-7.4479213E0,3.8196698E-2,1.2956919E1,-1.731097E-2,7.5093172E-3,2.612517E-2,-3.7150474E-3,7.0991097E-3,-1.0893853E-2],"split_indices":[1,11,3,6,6,0,6,0,0,0,0,0,0],"split_type":[0,0,0,0,0,0,0,0,0,0,0,0,0],"sum_hessian":[9.3960657E2,4.7557468E2,4.6403192E2,2.1798851E2,2.5758615E2,2.087816E1,4.4315378E2,1.9869485E2,1.9293653E1,3.719705E1,2.2038911E2,3.7526578E2,6.788799E1],"tree_param":{"num_deleted":"0","num_feature":"15","num_nodes":"13","size_leaf_vector":"1"}},{"base_weights":[2.4380814E-2,4.3428993E-1,-1.3554703E-2,1.1802367E-1,6.201103E-1,-1.578769E-1,1.2801516E-1,-5.2352687E-3,1.1410453E-2,2.9979164E-2,6.022952E-3,5.7615493E-3,-9.011841E-3,-1.0759163E-3,1.671352E-2],"categories":[],"categories_nodes":[],"categories_segments":[],"categories_sizes":[],"default_left":[0,0,0,0,0,0,0,0,0,0,0,0,0,0,0],"id":47,"left_children":[1,3,5,7,9,11,13,-1,-1,-1,-1,-1,-1,-1,-1],"loss_changes":[1.4289516E1,3.6950312E0,1.7580275E1,2.2638123E0,1.4519577E0,9.051942E0,1.96651E1,0E0,0E0,0E0,0E0,0E0,0E0,0E0,0E0],"parents":[2147483647,0,0,1,1,2,2,3,3,4,4,5,5,6,6],"right_children":[2,4,6,8,10,12,14,-1,-1,-1,-1,-1,-1,-1,-1],"split_conditions":[-1.4456596E1,1.5031804E-1,5.16129E-1,9.1E1,1.2158E0,0E0,1.5112494E3,-5.2352687E-3,1.1410453E-2,2.9979164E-2,6.022952E-3,5.7615493E-3,-9.011841E-3,-1.0759163E-3,1.671352E-2],"split_indices":[6,11,13,1,11,9,2,0,0,0,0,0,0,0,0],"split_type":[0,0,0,0,0,0,0,0,0,0,0,0,0,0,0],"sum_hessian":[9.0239044E2,6.581835E1,8.365721E2,3.1621073E1,3.419728E1,4.1357468E2,4.229974E2,1.3756102E1,1.7864973E1,2.1201279E1,1.2996E1,7.3005356E1,3.4056934E2,2.8275073E2,1.4024664E2],"tree_param":{"num_deleted":"0","num_feature":"15","num_nodes":"15","size_leaf_vector":"1"}},{"base_weights":[1.4145502E-2,-2.0246592E-1,9.96466E-2,-3.134116E-1,2.3136172E-1,1.6115052E-1,-1.6465779E-1,-1.899059E-2,3.2717093E-5,-3.05173E-3,1.656991E-2,2.3613467E-3,1.6398892E-2,-1.2541435E-2,7.195186E-3],"categories":[],"categories_nodes":[],"categories_segments":[],"categories_sizes":[],"default_left":[0,0,0,0,0,0,0,0,0,0,0,0,0,0,0],"id":48,"left_children":[1,3,5,7,9,11,13,-1,-1,-1,-1,-1,-1,-1,-1],"loss_changes":[1.724879E1,1.3568912E1,1.1151676E1,1.0915764E1,3.7909384E0,1.3600295E1,7.434209E0,0E0,0E0,0E0,0E0,0E0,0E0,0E0,0E0],"parents":[2147483647,0,0,1,1,2,2,3,3,4,4,5,5,6,6],"right_children":[2,4,6,8,10,12,14,-1,-1,-1,-1,-1,-1,-1,-1],"split_conditions":[7.7E1,1.3174E0,9.020272E0,1E0,2.1149488E-1,5.3488374E-1,4.6390457E0,-1.899059E-2,3.2717093E-5,-3.05173E-3,1.656991E-2,2.3613467E-3,1.6398892E-2,-1.2541435E-2,7.195186E-3],"split_indices":[1,11,6,14,6,13,5,0,0,0,0,0,0,0,0],"split_type":[0,0,0,0,0,0,0,0,0,0,0,0,0,0,0],"sum_hessian":[9.0626227E2,2.518361E2,6.5442615E2,2.0320094E2,4.8635155E1,5.3468726E2,1.19738884E2,1.3020935E2,7.299159E1,2.073997E1,2.7895184E1,3.896297E2,1.4505757E2,8.436408E1,3.5374805E1],"tree_param":{"num_deleted":"0","num_feature":"15","num_nodes":"15","size_leaf_vector":"1"}},{"base_weights":[4.3731816E-2,-2.12474E-1,1.4409308E-1,-4.0939423E-1,-1.6100021E-2,2.0183599E-1,-1.4951476E-1,3.1112134E-3,-2.2486214E-2,9.29329E-3,-1.6165165E-2,9.538707E-3,-1.437644E-2,1.1073715E-2,-1.3142119E-2],"categories":[],"categories_nodes":[],"categories_segments":[],"categories_sizes":[],"default_left":[0,0,0,0,0,0,0,0,0,0,0,0,0,0,0],"id":49,"left_children":[1,3,5,7,9,11,13,-1,-1,-1,-1,-1,-1,-1,-1],"loss_changes":[2.4078104E1,1.0145074E1,1.171656E1,1.0312803E1,1.5092265E1,1.263982E1,1.0019585E1,0E0,0E0,0E0,0E0,0E0,0E0,0E0,0E0],"parents":[2147483647,0,0,1,1,2,2,3,3,4,4,5,5,6,6],"right_children":[2,4,6,8,10,12,14,-1,-1,-1,-1,-1,-1,-1,-1],"split_conditions":[7.7E1,5.3125E-1,1.01E2,6.8E1,5.697674E-1,1.6E0,1.3398961E0,3.1112134E-3,-2.2486214E-2,9.29329E-3,-1.6165165E-2,9.538707E-3,-1.437644E-2,1.1073715E-2,-1.3142119E-2],"split_indices":[1,13,3,1,13,11,6,0,0,0,0,0,0,0,0],"split_type":[0,0,0,0,0,0,0,0,0,0,0,0,0,0,0],"sum_hessian":[9.1012427E2,2.5239532E2,6.5772894E2,1.1952282E2,1.3287251E2,5.527685E2,1.0496043E2,2.9937716E1,8.9585106E1,8.394345E1,4.8929058E1,5.2537915E2,2.738934E1,2.9102068E1,7.585836E1],"tree_param":{"num_deleted":"0","num_feature":"15","num_nodes":"15","size_leaf_vector":"1"}},{"base_weights":[2.4777278E-2,3.638931E-1,-4.297804E-2,5.389808E-1,-2.0440213E-2,-2.6522702E-1,3.9936043E-2,2.5983062E-2,-5.767303E-4,-1.49620045E-2,8.498165E-3,4.018801E-3,-8.538836E-3],"categories":[],"categories_nodes":[],"categories_segments":[],"categories_sizes":[],"default_left":[0,0,0,0,0,0,0,0,0,0,0,0,0],"id":50,"left_children":[1,3,5,7,-1,9,11,-1,-1,-1,-1,-1,-1],"loss_changes":[2.2083729E1,2.7808636E1,1.496126E1,8.627518E0,0E0,1.2404988E1,9.41068E0,0E0,0E0,0E0,0E0,0E0,0E0],"parents":[2147483647,0,0,1,1,2,2,3,3,5,5,6,6],"right_children":[2,4,6,8,-1,10,12,-1,-1,-1,-1,-1,-1],"split_conditions":[7.3E1,1.6483695E3,7.7E1,9.174E-1,-2.0440213E-2,1E1,1.01E2,2.5983062E-2,-5.767303E-4,-1.49620045E-2,8.498165E-3,4.018801E-3,-8.538836E-3],"split_indices":[3,2,1,11,0,14,3,0,0,0,0,0,0],"split_type":[0,0,0,0,0,0,0,0,0,0,0,0,0],"sum_hessian":[9.409596E2,1.4796175E2,7.9299786E2,1.2712788E2,2.0833862E1,2.0829172E2,5.847061E2,1.0421515E2,2.2912731E1,1.7176448E2,3.652723E1,4.7780914E2,1.06896996E2],"tree_param":{"num_deleted":"0","num_feature":"15","num_nodes":"13","size_leaf_vector":"1"}},{"base_weights":[6.0860734E-3,4.543506E-1,-3.6322877E-2,9.420204E-2,6.1573696E-1,-1.7614749E-1,1.3841866E-1,9.0959305E-3,-3.1967415E-3,2.7633756E-2,5.8394736E-3,-9.308676E-3,7.6354197E-3,1.3352744E-2,-1.031277E-2],"categories":[],"categories_nodes":[],"categories_segments":[],"categories_sizes":[],"default_left":[0,0,0,0,0,0,0,0,0,0,0,0,0,0,0],"id":51,"left_children":[1,3,5,7,9,11,13,-1,-1,-1,-1,-1,-1,-1,-1],"loss_changes":[1.7477879E1,3.921854E0,2.0853485E1,1.116848E0,6.4899254E-1,1.0348545E1,3.0514103E1,0E0,0E0,0E0,0E0,0E0,0E0,0E0,0E0],"parents":[2147483647,0,0,1,1,2,2,3,3,4,4,5,5,6,6],"right_children":[2,4,6,8,10,12,14,-1,-1,-1,-1,-1,-1,-1,-1],"split_conditions":[3.9285713E-1,-8.26E-2,5.16129E-1,-7.94E-2,1.3238E0,3.543652E0,1.5666769E3,9.0959305E-3,-3.1967415E-3,2.7633756E-2,5.8394736E-3,-9.308676E-3,7.6354197E-3,1.3352744E-2,-1.031277E-2],"split_indices":[13,11,13,12,11,5,0,0,0,0,0,0,0,0,0],"split_type":[0,0,0,0,0,0,0,0,0,0,0,0,0,0,0],"sum_hessian":[8.9696625E2,6.7450356E1,8.295159E2,2.6753008E1,4.0697346E1,4.6074255E2,3.6877335E2,1.3077439E1,1.367557E1,3.0217936E1,1.0479409E1,4.0301828E2,5.7724277E1,2.4824478E2,1.2052857E2],"tree_param":{"num_deleted":"0","num_feature":"15","num_nodes":"15","size_leaf_vector":"1"}},{"base_weights":[2.8357212E-2,-7.022215E-2,1.6419068E-1,-1.728796E-1,1.4571117E-1,6.440276E-1,3.697975E-2,-8.697843E-3,1.4676805E-2,1.3141063E-2,-1.2871526E-2,3.4530073E-2,2.0491988E-3,-4.906063E-3,9.998233E-3],"categories":[],"categories_nodes":[],"categories_segments":[],"categories_sizes":[],"default_left":[0,0,0,0,0,0,0,0,0,0,0,0,0,0,0],"id":52,"left_children":[1,3,5,7,9,11,13,-1,-1,-1,-1,-1,-1,-1,-1],"loss_changes":[1.2778788E1,1.26142435E1,2.4165771E1,1.0145623E1,1.7120773E1,1.0283318E1,1.1565571E1,0E0,0E0,0E0,0E0,0E0,0E0,0E0,0E0],"parents":[2147483647,0,0,1,1,2,2,3,3,4,4,5,5,6,6],"right_children":[2,4,6,8,10,12,14,-1,-1,-1,-1,-1,-1,-1,-1],"split_conditions":[5.16129E-1,6.762E-1,7.9E1,1.6064E0,8E0,6.494199E0,5.968E-1,-8.697843E-3,1.4676805E-2,1.3141063E-2,-1.2871526E-2,3.4530073E-2,2.0491988E-3,-4.906063E-3,9.998233E-3],"split_indices":[13,11,3,12,14,6,12,0,0,0,0,0,0,0,0],"split_type":[0,0,0,0,0,0,0,0,0,0,0,0,0,0,0],"sum_hessian":[9.319935E2,5.434142E2,3.8857938E2,3.6993497E2,1.7347919E2,7.121308E1,3.173663E2,3.4834155E2,2.1593407E1,1.2727541E2,4.6203777E1,4.7990692E1,2.3222387E1,1.8431013E2,1.3305615E2],"tree_param":{"num_deleted":"0","num_feature":"15","num_nodes":"15","size_leaf_vector":"1"}},{"base_weights":[1.8132973E-2,-1.1644618E-1,1.4373341E-1,-1.842129E-1,3.0748206E-1,3.3155933E-1,-7.402335E-2,-1.2873484E-2,-1.2295008E-4,2.0998403E-2,-4.480377E-3,2.1317635E-2,1.5426272E-3,-6.513944E-3,1.8806636E-2],"categories":[],"categories_nodes":[],"categories_segments":[],"categories_sizes":[],"default_left":[0,0,0,0,0,0,0,0,0,0,0,0,0,0,0],"id":53,"left_children":[1,3,5,7,9,11,13,-1,-1,-1,-1,-1,-1,-1,-1],"loss_changes":[1.5789737E1,1.3660224E1,2.0025118E1,9.886719E0,6.7969875E0,1.5164692E1,1.2191781E1,0E0,0E0,0E0,0E0,0E0,0E0,0E0,0E0],"parents":[2147483647,0,0,1,1,2,2,3,3,4,4,5,5,6,6],"right_children":[2,4,6,8,10,12,14,-1,-1,-1,-1,-1,-1,-1,-1],"split_conditions":[1.5006493E3,4.784531E0,1.27E-1,5.780774E-1,9.3E1,1.5498108E3,1.6E0,-1.2873484E-2,-1.2295008E-4,2.0998403E-2,-4.480377E-3,2.1317635E-2,1.5426272E-3,-6.513944E-3,1.8806636E-2],"split_indices":[2,5,12,12,3,0,12,0,0,0,0,0,0,0,0],"split_type":[0,0,0,0,0,0,0,0,0,0,0,0,0,0,0],"sum_hessian":[9.10245E2,4.3983856E2,4.7040643E2,3.8506918E2,5.4769382E1,2.4919345E2,2.2121298E2,2.1352118E2,1.7154802E2,3.408274E1,2.0686644E1,1.4186136E2,1.0733209E2,1.9740118E2,2.3811794E1],"tree_param":{"num_deleted":"0","num_feature":"15","num_nodes":"15","size_leaf_vector":"1"}},{"base_weights":[-1.4752026E-2,1.3922371E-1,-1.2887388E-1,-8.294422E-2,4.0628764E-1,-1.6205071E-1,2.386738E-1,-5.9291944E-3,2.0899428E-2,2.0721734E-2,-2.0539446E-3,-2.0448973E-2,-4.5380522E-3,1.5883476E-2,-6.2177377E-3],"categories":[],"categories_nodes":[],"categories_segments":[],"categories_sizes":[],"default_left":[0,0,0,0,0,0,0,0,0,0,0,0,0,0,0],"id":54,"left_children":[1,3,5,7,9,11,13,-1,-1,-1,-1,-1,-1,-1,-1],"loss_changes":[1.6051012E1,2.3507515E1,6.851495E0,9.72476E0,9.466637E0,7.5782223E0,3.751232E0,0E0,0E0,0E0,0E0,0E0,0E0,0E0,0E0],"parents":[2147483647,0,0,1,1,2,2,3,3,4,4,5,5,6,6],"right_children":[2,4,6,8,10,12,14,-1,-1,-1,-1,-1,-1,-1,-1],"split_conditions":[1.5065159E3,1.5001237E3,7.5E1,1.5682E0,5.6E1,4.6153846E-1,2.6053174E0,-5.9291944E-3,2.0899428E-2,2.0721734E-2,-2.0539446E-3,-2.0448973E-2,-4.5380522E-3,1.5883476E-2,-6.2177377E-3],"split_indices":[0,2,14,12,14,13,4,0,0,0,0,0,0,0,0],"split_type":[0,0,0,0,0,0,0,0,0,0,0,0,0,0,0],"sum_hessian":[8.891899E2,3.773804E2,5.118095E2,2.1052213E2,1.6685828E2,4.7558948E2,3.6220024E1,1.9821039E2,1.2311732E1,1.3283559E2,3.402269E1,4.4150463E1,4.31439E2,2.5771074E1,1.0448949E1],"tree_param":{"num_deleted":"0","num_feature":"15","num_nodes":"15","size_leaf_vector":"1"}},{"base_weights":[1.0076397E-2,-1.4559262E-1,1.5257834E-1,-2.385752E-1,1.6109239E-1,2.614236E-1,-2.3819791E-1,-1.9260606E-2,-1.0453054E-3,1.5875403E-2,-1.6990924E-2,2.2600355E-2,6.1426912E-3,-1.346006E-2,8.245887E-3],"categories":[],"categories_nodes":[],"categories_segments":[],"categories_sizes":[],"default_left":[0,0,0,0,0,0,0,0,0,0,0,0,0,0,0],"id":55,"left_children":[1,3,5,7,9,11,13,-1,-1,-1,-1,-1,-1,-1,-1],"loss_changes":[2.0539267E1,1.3091138E1,2.1290253E1,1.7639112E1,1.724695E1,1.1515274E1,5.7027426E0,0E0,0E0,0E0,0E0,0E0,0E0,0E0,0E0],"parents":[2147483647,0,0,1,1,2,2,3,3,4,4,5,5,6,6],"right_children":[2,4,6,8,10,12,14,-1,-1,-1,-1,-1,-1,-1,-1],"split_conditions":[2.064E-1,3.3056433E0,1.0540278E1,8.2E1,1.6E1,7.5E1,2.1770308E1,-1.9260606E-2,-1.0453054E-3,1.5875403E-2,-1.6990924E-2,2.2600355E-2,6.1426912E-3,-1.346006E-2,8.245887E-3],"split_indices":[11,5,6,3,14,3,6,0,0,0,0,0,0,0,0],"split_type":[0,0,0,0,0,0,0,0,0,0,0,0,0,0,0],"sum_hessian":[9.018786E2,4.3090167E2,4.7097696E2,3.3269748E2,9.8204185E1,3.7147888E2,9.949806E1,1.4811774E2,1.8457974E2,7.278234E1,2.5421843E1,8.404718E1,2.874317E2,8.38583E1,1.5639758E1],"tree_param":{"num_deleted":"0","num_feature":"15","num_nodes":"15","size_leaf_vector":"1"}},{"base_weights":[3.1638846E-3,-2.947585E-1,4.267202E-2,1.814102E-1,-4.2813855E-1,1.04553066E-1,-1.6205995E-1,9.077601E-4,9.973941E-3,-2.0656522E-2,-3.1047317E-3,5.294012E-3,-1.6072422E-2,2.051361E-2,-9.509304E-3],"categories":[],"categories_nodes":[],"categories_segments":[],"categories_sizes":[],"default_left":[0,0,0,0,0,0,0,0,0,0,0,0,0,0,0],"id":56,"left_children":[1,3,5,7,9,11,13,-1,-1,-1,-1,-1,-1,-1,-1],"loss_changes":[1.1558135E1,8.235222E0,1.1176683E1,2.9429936E-1,2.4089775E0,1.0102737E1,1.1970535E1,0E0,0E0,0E0,0E0,0E0,0E0,0E0,0E0],"parents":[2147483647,0,0,1,1,2,2,3,3,4,4,5,5,6,6],"right_children":[2,4,6,8,10,12,14,-1,-1,-1,-1,-1,-1,-1,-1],"split_conditions":[-6.773556E0,4.2028984E-1,3.018535E0,-4.76E-2,1E2,1.6483695E3,-1.5684804E1,9.077601E-4,9.973941E-3,-2.0656522E-2,-3.1047317E-3,5.294012E-3,-1.6072422E-2,2.051361E-2,-9.509304E-3],"split_indices":[5,13,4,11,3,2,6,0,0,0,0,0,0,0,0],"split_type":[0,0,0,0,0,0,0,0,0,0,0,0,0,0,0],"sum_hessian":[9.571465E2,1.029903E2,8.541562E2,2.1590551E1,8.139975E1,6.60415E2,1.9374123E2,1.1270079E1,1.0320473E1,6.0487385E1,2.0912363E1,6.344498E2,2.5965107E1,1.2543621E1,1.8119762E2],"tree_param":{"num_deleted":"0","num_feature":"15","num_nodes":"15","size_leaf_vector":"1"}},{"base_weights":[-1.4252714E-2,5.625036E-1,-3.754558E-2,2.8963273E-2,4.8619383E-3,-3.5399753E-1,5.7627317E-3,-1.7838303E-2,-3.6322267E-3,5.8759362E-3,-5.0862003E-3],"categories":[],"categories_nodes":[],"categories_segments":[],"categories_sizes":[],"default_left":[0,0,0,0,0,0,0,0,0,0,0],"id":57,"left_children":[1,3,5,-1,-1,7,9,-1,-1,-1,-1],"loss_changes":[1.280888E1,1.5821857E0,1.2489879E1,0E0,0E0,2.1687737E0,1.5454297E1,0E0,0E0,0E0,0E0],"parents":[2147483647,0,0,1,1,2,2,5,5,6,6],"right_children":[2,4,6,-1,-1,8,10,-1,-1,-1,-1],"split_conditions":[3.5211268E-1,1E0,-6.773556E0,2.8963273E-2,4.8619383E-3,1E2,-3.969175E-1,-1.7838303E-2,-3.6322267E-3,5.8759362E-3,-5.0862003E-3],"split_indices":[13,14,5,0,0,3,4,0,0,0,0],"split_type":[0,0,0,0,0,0,0,0,0,0,0],"sum_hessian":[9.225808E2,2.5029655E1,8.9755115E2,1.2678854E1,1.2350801E1,9.768493E1,7.998662E2,6.6215866E1,3.1469067E1,3.873283E2,4.1253793E2],"tree_param":{"num_deleted":"0","num_feature":"15","num_nodes":"11","size_leaf_vector":"1"}},{"base_weights":[-2.014349E-3,-1.6852E-1,1.16729245E-1,-3.2202387E-1,-1.9954564E-2,3.2198957E-1,-1.5901746E-2,-1.647671E-2,-2.6281853E-3,2.838593E-2,-4.2435485E-3,3.4905933E-2,5.7403776E-3,1.0407833E-2,-4.7374745E-3],"categories":[],"categories_nodes":[],"categories_segments":[],"categories_sizes":[],"default_left":[0,0,0,0,0,0,0,0,0,0,0,0,0,0,0],"id":58,"left_children":[1,3,5,7,9,11,13,-1,-1,-1,-1,-1,-1,-1,-1],"loss_changes":[1.88707E1,8.982443E0,1.5231846E1,4.1588173E0,1.4393941E1,2.005018E1,1.0276725E1,0E0,0E0,0E0,0E0,0E0,0E0,0E0,0E0],"parents":[2147483647,0,0,1,1,2,2,3,3,4,4,5,5,6,6],"right_children":[2,4,6,8,10,12,14,-1,-1,-1,-1,-1,-1,-1,-1],"split_conditions":[7.3E-2,8.3E1,4.698E-1,1E0,6.7E1,7.5E1,1.5065159E3,-1.647671E-2,-2.6281853E-3,2.838593E-2,-4.2435485E-3,3.4905933E-2,5.7403776E-3,1.0407833E-2,-4.7374745E-3],"split_indices":[11,1,11,12,3,3,0,0,0,0,0,0,0,0,0],"split_type":[0,0,0,0,0,0,0,0,0,0,0,0,0,0,0],"sum_hessian":[9.3050134E2,3.8525522E2,5.4524615E2,1.8258759E2,2.0266762E2,2.0729811E2,3.37948E2,1.2978575E2,5.2801838E1,1.2227516E1,1.9044011E2,3.9318398E1,1.6797972E2,8.652081E1,2.514272E2],"tree_param":{"num_deleted":"0","num_feature":"15","num_nodes":"15","size_leaf_vector":"1"}},{"base_weights":[2.1219316E-3,-1.2342171E-1,9.795354E-2,2.8967735E-1,-1.76634E-1,3.2352978E-1,-3.349648E-2,4.5766262E-4,1.7149283E-2,-1.6136274E-2,-2.634786E-3,2.1855593E-2,-8.654997E-3,-1.5993444E-2,2.5673264E-3],"categories":[],"categories_nodes":[],"categories_segments":[],"categories_sizes":[],"default_left":[0,0,0,0,0,0,0,0,0,0,0,0,0,0,0],"id":59,"left_children":[1,3,5,7,9,11,13,-1,-1,-1,-1,-1,-1,-1,-1],"loss_changes":[1.1430064E1,9.656445E0,1.6101534E1,1.9331608E0,9.021917E0,2.5415857E1,1.2874975E1,0E0,0E0,0E0,0E0,0E0,0E0,0E0,0E0],"parents":[2147483647,0,0,1,1,2,2,3,3,4,4,5,5,6,6],"right_children":[2,4,6,8,10,12,14,-1,-1,-1,-1,-1,-1,-1,-1],"split_conditions":[6.98E-2,-1.27969265E1,4.698E-1,-6.876663E-1,-6.2009516E0,8.9E1,6.762E-1,4.5766262E-4,1.7149283E-2,-1.6136274E-2,-2.634786E-3,2.1855593E-2,-8.654997E-3,-1.5993444E-2,2.5673264E-3],"split_indices":[11,10,11,12,10,1,11,0,0,0,0,0,0,0,0],"split_type":[0,0,0,0,0,0,0,0,0,0,0,0,0,0,0],"sum_hessian":[9.259888E2,3.993577E2,5.2663104E2,3.948683E1,3.5987088E2,1.8743918E2,3.3919186E2,1.7486105E1,2.2000727E1,1.0768932E2,2.5218155E2,1.325723E2,5.486688E1,6.3588448E1,2.7560342E2],"tree_param":{"num_deleted":"0","num_feature":"15","num_nodes":"15","size_leaf_vector":"1"}},{"base_weights":[-1.543637E-2,4.804649E-1,-4.393986E-2,5.46369E-1,3.698385E-3,-3.3206052E-1,7.7845627E-3,2.5183579E-2,6.427005E-3,-1.7704021E-2,5.345115E-3,8.692102E-3,-3.3187477E-3],"categories":[],"categories_nodes":[],"categories_segments":[],"categories_sizes":[],"default_left":[0,0,0,0,0,0,0,0,0,0,0,0,0],"id":60,"left_children":[1,3,5,7,-1,9,11,-1,-1,-1,-1,-1,-1],"loss_changes":[1.3584614E1,7.3037815E-1,1.3486463E1,1.4175415E-1,0E0,7.797756E0,1.4994055E1,0E0,0E0,0E0,0E0,0E0,0E0],"parents":[2147483647,0,0,1,1,2,2,3,3,5,5,6,6],"right_children":[2,4,6,8,-1,10,12,-1,-1,-1,-1,-1,-1],"split_conditions":[3.846154E-1,4.4951892E-1,4.3283582E-1,3.6507937E-1,3.698385E-3,8.8E1,-2.4628394E0,2.5183579E-2,6.427005E-3,-1.7704021E-2,5.345115E-3,8.692102E-3,-3.3187477E-3],"split_indices":[13,10,13,13,0,3,6,0,0,0,0,0,0],"split_type":[0,0,0,0,0,0,0,0,0,0,0,0,0],"sum_hessian":[9.3114496E2,4.026917E1,8.908758E2,3.0235739E1,1.0033429E1,1.2569258E2,7.651832E2,1.8628119E1,1.1607621E1,1.0206131E2,2.3631266E1,2.2620973E2,5.389735E2],"tree_param":{"num_deleted":"0","num_feature":"15","num_nodes":"13","size_leaf_vector":"1"}},{"base_weights":[-7.971637E-3,5.5340225E-1,-2.997942E-2,4.442552E-3,2.8660165E-2,-1.4935052E-1,1.15269996E-1,-8.118825E-3,1.0801614E-2,-9.160346E-4,1.513892E-2],"categories":[],"categories_nodes":[],"categories_segments":[],"categories_sizes":[],"default_left":[0,0,0,0,0,0,0,0,0,0,0],"id":61,"left_children":[1,3,5,-1,-1,7,9,-1,-1,-1,-1],"loss_changes":[1.2044749E1,1.6991224E0,1.6401154E1,0E0,0E0,1.2304313E1,1.5673132E1,0E0,0E0,0E0,0E0],"parents":[2147483647,0,0,1,1,2,2,5,5,6,6],"right_children":[2,4,6,-1,-1,8,10,-1,-1,-1,-1],"split_conditions":[3.5211268E-1,1.5249408E3,5.16129E-1,4.442552E-3,2.8660165E-2,3.543652E0,1.5112494E3,-8.118825E-3,1.0801614E-2,-9.160346E-4,1.513892E-2],"split_indices":[13,2,13,0,0,5,2,0,0,0,0],"split_type":[0,0,0,0,0,0,0,0,0,0,0],"sum_hessian":[9.468061E2,2.4787153E1,9.22019E2,1.211155E1,1.2675603E1,5.059075E2,4.1611145E2,4.5404874E2,5.185877E1,2.8005167E2,1.3605981E2],"tree_param":{"num_deleted":"0","num_feature":"15","num_nodes":"11","size_leaf_vector":"1"}},{"base_weights":[2.7885508E-2,2.757865E-1,-3.685117E-2,4.43136E-1,-3.253974E-1,-8.546861E-2,2.8706196E-1,-4.4186255E-3,2.6017517E-2,-1.8007027E-2,-2.4984025E-3,2.272074E-3,-1.0676758E-2,2.1583432E-2,3.121953E-4],"categories":[],"categories_nodes":[],"categories_segments":[],"categories_sizes":[],"default_left":[0,0,0,0,0,0,0,0,0,0,0,0,0,0,0],"id":62,"left_children":[1,3,5,7,9,11,13,-1,-1,-1,-1,-1,-1,-1,-1],"loss_changes":[1.4878862E1,2.102877E1,1.1943295E1,1.8665392E1,1.2599816E0,1.7024256E1,6.9513073E0,0E0,0E0,0E0,0E0,0E0,0E0,0E0,0E0],"parents":[2147483647,0,0,1,1,2,2,3,3,4,4,5,5,6,6],"right_children":[2,4,6,8,10,12,14,-1,-1,-1,-1,-1,-1,-1,-1],"split_conditions":[7.5E1,1.6483695E3,5.3627667E0,-4.082246E0,1.5560847E3,-3.969175E-1,1.4891503E3,-4.4186255E-3,2.6017517E-2,-1.8007027E-2,-2.4984025E-3,2.272074E-3,-1.0676758E-2,2.1583432E-2,3.121953E-4],"split_indices":[3,2,5,5,0,4,2,0,0,0,0,0,0,0,0],"split_type":[0,0,0,0,0,0,0,0,0,0,0,0,0,0,0],"sum_hessian":[9.0753156E2,1.7981831E2,7.277132E2,1.4313034E2,3.6687973E1,6.4042316E2,8.729006E1,4.0521873E1,1.02608475E2,1.9085579E1,1.7602394E1,3.635873E2,2.7683582E2,3.996462E1,4.7325447E1],"tree_param":{"num_deleted":"0","num_feature":"15","num_nodes":"15","size_leaf_vector":"1"}},{"base_weights":[-9.265598E-3,-1.627009E-1,1.12118565E-1,2.53466E-1,-2.0150164E-1,5.527878E-2,5.142766E-1,-1.7571449E-3,1.623369E-2,-1.7136663E-2,-4.277633E-3,1.647377E-2,-1.0582729E-3,2.6751496E-2,-4.4231177E-3],"categories":[],"categories_nodes":[],"categories_segments":[],"categories_sizes":[],"default_left":[0,0,0,0,0,0,0,0,0,0,0,0,0,0,0],"id":63,"left_children":[1,3,5,7,9,11,13,-1,-1,-1,-1,-1,-1,-1,-1],"loss_changes":[1.7823654E1,7.433566E0,1.188465E1,2.0871904E0,7.884178E0,1.4179891E1,7.142418E0,0E0,0E0,0E0,0E0,0E0,0E0,0E0,0E0],"parents":[2147483647,0,0,1,1,2,2,3,3,4,4,5,5,6,6],"right_children":[2,4,6,8,10,12,14,-1,-1,-1,-1,-1,-1,-1,-1],"split_conditions":[7.3E-2,-1.27969265E1,6.011542E-1,5.125167E-1,-6.4305534E0,7.5E1,9.252E-1,-1.7571449E-3,1.623369E-2,-1.7136663E-2,-4.277633E-3,1.647377E-2,-1.0582729E-3,2.6751496E-2,-4.4231177E-3],"split_indices":[11,10,13,13,10,3,11,0,0,0,0,0,0,0,0],"split_type":[0,0,0,0,0,0,0,0,0,0,0,0,0,0,0],"sum_hessian":[9.332411E2,4.1039627E2,5.228448E2,2.9337683E1,3.810586E2,4.7005774E2,5.278706E1,1.2832616E1,1.6505066E1,9.9624756E1,2.8143384E2,7.861981E1,3.9143793E2,4.1645473E1,1.1141584E1],"tree_param":{"num_deleted":"0","num_feature":"15","num_nodes":"15","size_leaf_vector":"1"}},{"base_weights":[2.2676527E-3,-1.8093683E-1,7.671656E-2,1.9637875E-2,-2.4131455E-1,-6.4071245E-2,2.1392389E-1,4.6398663E-3,-1.4087366E-2,-6.9213724E-3,7.6430454E-3,1.836143E-2,2.88958E-3],"categories":[],"categories_nodes":[],"categories_segments":[],"categories_sizes":[],"default_left":[0,0,0,0,0,0,0,0,0,0,0,0,0],"id":64,"left_children":[1,3,5,-1,7,9,11,-1,-1,-1,-1,-1,-1],"loss_changes":[1.3208847E1,1.2775242E1,1.3461399E1,0E0,1.0981938E1,1.0098859E1,1.1804745E1,0E0,0E0,0E0,0E0,0E0,0E0],"parents":[2147483647,0,0,1,1,2,2,4,4,5,5,6,6],"right_children":[2,4,6,-1,8,10,12,-1,-1,-1,-1,-1,-1],"split_conditions":[1.4728997E3,-1.0018828E0,2.222E-1,1.9637875E-2,1.3752761E3,9E1,-3.016298E0,4.6398663E-3,-1.4087366E-2,-6.9213724E-3,7.6430454E-3,1.836143E-2,2.88958E-3],"split_indices":[2,11,11,0,2,3,10,0,0,0,0,0,0],"split_type":[0,0,0,0,0,0,0,0,0,0,0,0,0],"sum_hessian":[9.442226E2,2.6787338E2,6.763492E2,1.5031185E1,2.5284221E2,3.3697604E2,3.3937317E2,5.974399E1,1.930982E2,2.3883937E2,9.813666E1,1.1446766E2,2.249055E2],"tree_param":{"num_deleted":"0","num_feature":"15","num_nodes":"13","size_leaf_vector":"1"}},{"base_weights":[6.6570095E-3,7.144476E-2,-2.0562781E-1,-2.652881E-1,1.08349316E-1,-3.951397E-1,-1.05377644E-1,-1.4038141E-2,3.0253818E-3,-1.3527946E-3,8.393303E-3,-1.798152E-2,-2.8811342E-3,-9.667673E-3,2.6806768E-3],"categories":[],"categories_nodes":[],"categories_segments":[],"categories_sizes":[],"default_left":[0,0,0,0,0,0,0,0,0,0,0,0,0,0,0],"id":65,"left_children":[1,3,5,7,9,11,13,-1,-1,-1,-1,-1,-1,-1,-1],"loss_changes":[1.2870969E1,9.2438135E0,3.659562E0,2.4858308E0,9.519274E0,8.660307E-1,3.943656E0,0E0,0E0,0E0,0E0,0E0,0E0,0E0,0E0],"parents":[2147483647,0,0,1,1,2,2,3,3,4,4,5,5,6,6],"right_children":[2,4,6,8,10,12,14,-1,-1,-1,-1,-1,-1,-1,-1],"split_conditions":[1.5994877E3,6.9E1,-1.048E-1,1.891073E1,7.3E-2,1.6326923E3,-5E0,-1.4038141E-2,3.0253818E-3,-1.3527946E-3,8.393303E-3,-1.798152E-2,-2.8811342E-3,-9.667673E-3,2.6806768E-3],"split_indices":[0,1,12,10,11,2,14,0,0,0,0,0,0,0,0],"split_type":[0,0,0,0,0,0,0,0,0,0,0,0,0,0,0],"sum_hessian":[9.110172E2,7.0409424E2,2.0692293E2,6.2209206E1,6.418851E2,5.937764E1,1.4754529E2,4.9434475E1,1.2774731E1,2.7068286E2,3.7120218E2,4.6802692E1,1.2574946E1,7.970114E1,6.784415E1],"tree_param":{"num_deleted":"0","num_feature":"15","num_nodes":"15","size_leaf_vector":"1"}},{"base_weights":[4.8678998E-5,5.0946707E-1,-2.42511E-2,3.7880733E-3,2.5339613E-2,-3.1686544E-1,1.5157891E-2,-1.7597824E-2,-2.929234E-4,-1.2978052E-2,2.1143197E-3],"categories":[],"categories_nodes":[],"categories_segments":[],"categories_sizes":[],"default_left":[0,0,0,0,0,0,0,0,0,0,0],"id":66,"left_children":[1,3,5,-1,-1,7,9,-1,-1,-1,-1],"loss_changes":[1.1896603E1,1.5309105E0,1.0635804E1,0E0,0E0,4.1303616E0,1.0703094E1,0E0,0E0,0E0,0E0],"parents":[2147483647,0,0,1,1,2,2,5,5,6,6],"right_children":[2,4,6,-1,-1,8,10,-1,-1,-1,-1],"split_conditions":[3.5211268E-1,1.5249408E3,-5.8971214E0,3.7880733E-3,2.5339613E-2,3.46E-1,-6.773556E0,-1.7597824E-2,-2.929234E-4,-1.2978052E-2,2.1143197E-3],"split_indices":[13,2,4,0,0,12,5,0,0,0,0],"split_type":[0,0,0,0,0,0,0,0,0,0,0],"sum_hessian":[9.3707294E2,3.1755821E1,9.0531714E2,1.21813345E1,1.9574488E1,9.742736E1,8.078898E2,6.6092384E1,3.1334976E1,7.1603096E1,7.362867E2],"tree_param":{"num_deleted":"0","num_feature":"15","num_nodes":"11","size_leaf_vector":"1"}},{"base_weights":[-1.0594103E-2,-6.0485985E-2,2.1335034E-1,3.202101E-1,-9.8131076E-2,7.1428657E-1,-9.427954E-4,-3.7966846E-3,2.2342661E-2,-7.917522E-3,1.0021859E-3,9.350142E-3,3.2585904E-2,7.951294E-3,-7.4053123E-3],"categories":[],"categories_nodes":[],"categories_segments":[],"categories_sizes":[],"default_left":[0,0,0,0,0,0,0,0,0,0,0,0,0,0,0],"id":67,"left_children":[1,3,5,7,9,11,13,-1,-1,-1,-1,-1,-1,-1,-1],"loss_changes":[1.0436663E1,1.1296434E1,1.8290802E1,7.698902E0,8.697153E0,1.7658424E-1,5.270677E0,0E0,0E0,0E0,0E0,0E0,0E0,0E0,0E0],"parents":[2147483647,0,0,1,1,2,2,3,3,4,4,5,5,6,6],"right_children":[2,4,6,8,10,12,14,-1,-1,-1,-1,-1,-1,-1,-1],"split_conditions":[8.7822074E-1,-1.4456596E1,1.4662816E3,1.3943271E-1,5.16129E-1,1.1206E0,5.177374E0,-3.7966846E-3,2.2342661E-2,-7.917522E-3,1.0021859E-3,9.350142E-3,3.2585904E-2,7.951294E-3,-7.4053123E-3],"split_indices":[12,6,0,11,13,12,10,0,0,0,0,0,0,0,0],"split_type":[0,0,0,0,0,0,0,0,0,0,0,0,0,0,0],"sum_hessian":[9.08236E2,7.499221E2,1.5831392E2,5.9377625E1,6.905445E2,3.9044353E1,1.1926957E2,2.429183E1,3.5085796E1,3.7744818E2,3.1309628E2,1.364777E1,2.5396584E1,5.6765553E1,6.2504017E1],"tree_param":{"num_deleted":"0","num_feature":"15","num_nodes":"15","size_leaf_vector":"1"}},{"base_weights":[-2.1873243E-2,-2.4945514E-1,1.6982844E-2,-7.173005E-2,-3.9771688E-1,-1.1897414E-2,4.7541767E-1,-1.0143808E-2,8.563337E-3,-1.929929E-2,1.3882858E-3,1.7287772E-2,-1.6100243E-3,2.8879715E-2,1.1524094E-3],"categories":[],"categories_nodes":[],"categories_segments":[],"categories_sizes":[],"default_left":[0,0,0,0,0,0,0,0,0,0,0,0,0,0,0],"id":68,"left_children":[1,3,5,7,9,11,13,-1,-1,-1,-1,-1,-1,-1,-1],"loss_changes":[8.185623E0,3.212822E0,1.0619888E1,4.602138E0,2.800397E0,9.79675E0,4.984088E0,0E0,0E0,0E0,0E0,0E0,0E0,0E0,0E0],"parents":[2147483647,0,0,1,1,2,2,3,3,4,4,5,5,6,6],"right_children":[2,4,6,8,10,12,14,-1,-1,-1,-1,-1,-1,-1,-1],"split_conditions":[-6.773556E0,1.5001237E3,1.6E0,-3E0,1.5861178E3,-1.5684804E1,1.4583533E3,-1.0143808E-2,8.563337E-3,-1.929929E-2,1.3882858E-3,1.7287772E-2,-1.6100243E-3,2.8879715E-2,1.1524094E-3],"split_indices":[5,2,12,14,2,6,0,0,0,0,0,0,0,0,0],"split_type":[0,0,0,0,0,0,0,0,0,0,0,0,0,0,0],"sum_hessian":[9.079185E2,1.22921555E2,7.8499695E2,6.400401E1,5.891754E1,7.494707E2,3.5526222E1,3.994159E1,2.4062426E1,4.809972E1,1.0817823E1,3.4721077E1,7.1474963E2,1.8121702E1,1.7404522E1],"tree_param":{"num_deleted":"0","num_feature":"15","num_nodes":"15","size_leaf_vector":"1"}},{"base_weights":[8.944377E-3,3.8397637E-1,-2.4329793E-2,1.3107763E-1,5.3662956E-1,-2.2312927E-1,3.2528494E-2,-7.0704496E-4,7.5390018E-3,2.6174003E-2,6.3647605E-3,5.399422E-3,-1.6450565E-2,-9.401239E-3,3.5067913E-3],"categories":[],"categories_nodes":[],"categories_segments":[],"categories_sizes":[],"default_left":[0,0,0,0,0,0,0,0,0,0,0,0,0,0,0],"id":69,"left_children":[1,3,5,7,9,11,13,-1,-1,-1,-1,-1,-1,-1,-1],"loss_changes":[1.1674629E1,2.0986042E0,9.834509E0,4.2051905E-1,6.9058895E-1,1.3690354E1,1.0294911E1,0E0,0E0,0E0,0E0,0E0,0E0,0E0,0E0],"parents":[2147483647,0,0,1,1,2,2,3,3,4,4,5,5,6,6],"right_children":[2,4,6,8,10,12,14,-1,-1,-1,-1,-1,-1,-1,-1],"split_conditions":[3.846154E-1,1.5148671E3,-6.2009516E0,8.9E1,1E0,-1.3322841E1,1.436701E3,-7.0704496E-4,7.5390018E-3,2.6174003E-2,6.3647605E-3,5.399422E-3,-1.6450565E-2,-9.401239E-3,3.5067913E-3],"split_indices":[13,2,10,1,14,10,2,0,0,0,0,0,0,0,0],"split_type":[0,0,0,0,0,0,0,0,0,0,0,0,0,0,0],"sum_hessian":[9.1456757E2,6.422398E1,8.5034357E2,3.2569847E1,3.1654139E1,1.8131203E2,6.6903156E2,1.1380387E1,2.118946E1,1.7421555E1,1.4232585E1,6.3613586E1,1.1769843E2,1.0763094E2,5.6140063E2],"tree_param":{"num_deleted":"0","num_feature":"15","num_nodes":"15","size_leaf_vector":"1"}},{"base_weights":[3.3795167E-2,-2.0503402E-1,7.509087E-2,1.8991552E-1,-3.2590827E-1,-1.725194E-2,9.517129E-2,-1.2014745E-3,1.2515515E-2,-1.6559578E-2,-2.6403659E-3,-5.385971E-3,5.6559793E-3],"categories":[],"categories_nodes":[],"categories_segments":[],"categories_sizes":[],"default_left":[0,0,0,0,0,0,0,0,0,0,0,0,0],"id":70,"left_children":[1,3,5,7,9,-1,11,-1,-1,-1,-1,-1,-1],"loss_changes":[9.533665E0,7.5674033E0,8.799799E0,1.2239488E0,2.278943E0,0E0,8.681367E0,0E0,0E0,0E0,0E0,0E0,0E0],"parents":[2147483647,0,0,1,1,2,2,3,3,4,4,6,6],"right_children":[2,4,6,8,10,-1,12,-1,-1,-1,-1,-1,-1],"split_conditions":[-5.937072E0,4.262295E-1,-1.89E2,7E0,8.4E1,-1.725194E-2,6.9E1,-1.2014745E-3,1.2515515E-2,-1.6559578E-2,-2.6403659E-3,-5.385971E-3,5.6559793E-3],"split_indices":[5,13,14,14,1,0,1,0,0,0,0,0,0],"split_type":[0,0,0,0,0,0,0,0,0,0,0,0,0],"sum_hessian":[9.359135E2,1.309571E2,8.049564E2,2.908134E1,1.0187577E2,2.1329329E1,7.836271E2,1.368063E1,1.540071E1,7.07751E1,3.1100676E1,1.2738553E2,6.562416E2],"tree_param":{"num_deleted":"0","num_feature":"15","num_nodes":"13","size_leaf_vector":"1"}},{"base_weights":[2.797204E-2,2.2086665E-2,8.866538E-3,-6.755907E-2,1.4503685E-1,2.2537708E-3,-8.565991E-3,1.4390619E-2,-2.2811852E-3],"categories":[],"categories_nodes":[],"categories_segments":[],"categories_sizes":[],"default_left":[0,0,0,0,0,0,0,0,0],"id":71,"left_children":[1,-1,3,5,7,-1,-1,-1,-1],"loss_changes":[9.714651E0,0E0,1.004321E1,1.138916E1,1.5288307E1,0E0,0E0,0E0,0E0],"parents":[2147483647,0,0,2,2,3,3,4,4],"right_children":[2,-1,4,6,8,-1,-1,-1,-1],"split_conditions":[3.5526314E-1,2.2086665E-2,5.3731346E-1,-2.1086335E0,5.697674E-1,2.2537708E-3,-8.565991E-3,1.4390619E-2,-2.2811852E-3],"split_indices":[13,0,13,6,13,0,0,0,0],"split_type":[0,0,0,0,0,0,0,0,0],"sum_hessian":[9.6387604E2,2.2121485E1,9.417546E2,6.070782E2,3.346764E2,3.330017E2,2.7407648E2,1.5771416E2,1.7696223E2],"tree_param":{"num_deleted":"0","num_feature":"15","num_nodes":"9","size_leaf_vector":"1"}},{"base_weights":[2.865992E-3,3.328635E-1,-2.5682684E-2,4.1981098E-1,1.3613733E-3,1.9586671E-2,-2.8991464E-1,2.0699825E-2,3.1762167E-3,-8.964053E-4,1.3564144E-2,4.466398E-3,-1.8311586E-2],"categories":[],"categories_nodes":[],"categories_segments":[],"categories_sizes":[],"default_left":[0,0,0,0,0,0,0,0,0,0,0,0,0],"id":72,"left_children":[1,3,5,7,-1,9,11,-1,-1,-1,-1,-1,-1],"loss_changes":[8.965804E0,1.7972021E0,1.055878E1,1.4233379E0,0E0,1.0289231E1,9.312415E0,0E0,0E0,0E0,0E0,0E0,0E0],"parents":[2147483647,0,0,1,1,2,2,3,3,5,5,6,6],"right_children":[2,4,6,8,-1,10,12,-1,-1,-1,-1,-1,-1],"split_conditions":[-1.4456596E1,6.952E-1,9.7E1,8E0,1.3613733E-3,6.011542E-1,-4.254E-1,2.0699825E-2,3.1762167E-3,-8.964053E-4,1.3564144E-2,4.466398E-3,-1.8311586E-2],"split_indices":[6,12,1,14,0,13,11,0,0,0,0,0,0],"split_type":[0,0,0,0,0,0,0,0,0,0,0,0,0],"sum_hessian":[9.287945E2,6.376884E1,8.6502563E2,4.5633163E1,1.813568E1,7.479877E2,1.17037994E2,3.0607172E1,1.50259905E1,6.7095654E2,7.703113E1,3.5687683E1,8.135031E1],"tree_param":{"num_deleted":"0","num_feature":"15","num_nodes":"13","size_leaf_vector":"1"}},{"base_weights":[2.8473437E-2,-1.7904639E-1,7.415729E-2,-6.4290084E-2,-1.4784176E-2,3.079389E-1,1.1889049E-3,-7.119167E-3,1.1807919E-2,7.823038E-4,2.1596478E-2,-1.1935099E-2,1.6368096E-3],"categories":[],"categories_nodes":[],"categories_segments":[],"categories_sizes":[],"default_left":[0,0,0,0,0,0,0,0,0,0,0,0,0],"id":73,"left_children":[1,3,5,7,-1,9,11,-1,-1,-1,-1,-1,-1],"loss_changes":[8.986747E0,3.4654455E0,1.3158407E1,5.599189E0,0E0,1.2149038E1,7.2892056E0,0E0,0E0,0E0,0E0,0E0,0E0],"parents":[2147483647,0,0,1,1,2,2,3,3,5,5,6,6],"right_children":[2,4,6,8,-1,10,12,-1,-1,-1,-1,-1,-1],"split_conditions":[6.9E1,1.494227E0,7.7E1,1.0171946E1,-1.4784176E-2,4.642857E-1,-9.972243E0,-7.119167E-3,1.1807919E-2,7.823038E-4,2.1596478E-2,-1.1935099E-2,1.6368096E-3],"split_indices":[1,4,3,10,0,13,10,0,0,0,0,0,0],"split_type":[0,0,0,0,0,0,0,0,0,0,0,0,0],"sum_hessian":[9.19132E2,1.5951245E2,7.596195E2,1.0957414E2,4.9938316E1,1.7150307E2,5.8811646E2,8.785019E1,2.1723955E1,8.225637E1,8.92467E1,5.972011E1,5.2839636E2],"tree_param":{"num_deleted":"0","num_feature":"15","num_nodes":"13","size_leaf_vector":"1"}},{"base_weights":[-1.4423769E-2,-2.55344E-1,2.009306E-2,-3.5747445E-1,-3.5446413E-2,-7.99821E-3,4.4124487E-1,-1.5920725E-2,-1.8546643E-3,-1.03321895E-2,5.053963E-3,1.7161995E-2,-1.5285618E-3,2.7710043E-2,2.6641416E-3],"categories":[],"categories_nodes":[],"categories_segments":[],"categories_sizes":[],"default_left":[0,0,0,0,0,0,0,0,0,0,0,0,0,0,0],"id":74,"left_children":[1,3,5,7,9,11,13,-1,-1,-1,-1,-1,-1,-1,-1],"loss_changes":[7.9167466E0,2.526103E0,9.948874E0,7.8900146E-1,2.2356505E0,1.0718904E1,4.400074E0,0E0,0E0,0E0,0E0,0E0,0E0,0E0,0E0],"parents":[2147483647,0,0,1,1,2,2,3,3,4,4,5,5,6,6],"right_children":[2,4,6,8,10,12,14,-1,-1,-1,-1,-1,-1,-1,-1],"split_conditions":[-6.773556E0,8.2E1,1.6E0,1.3840315E1,8.7E1,-1.5684804E1,1.4583533E3,-1.5920725E-2,-1.8546643E-3,-1.03321895E-2,5.053963E-3,1.7161995E-2,-1.5285618E-3,2.7710043E-2,2.6641416E-3],"split_indices":[5,1,12,10,3,6,0,0,0,0,0,0,0,0,0],"split_type":[0,0,0,0,0,0,0,0,0,0,0,0,0,0,0],"sum_hessian":[9.326087E2,1.0725052E2,8.2535815E2,6.810962E1,3.91409E1,7.8478436E2,4.057384E1,5.7291138E1,1.0818485E1,1.3452901E1,2.5688E1,4.050581E1,7.442785E2,1.8179932E1,2.239391E1],"tree_param":{"num_deleted":"0","num_feature":"15","num_nodes":"15","size_leaf_vector":"1"}},{"base_weights":[1.5597124E-2,-1.1928275E-2,3.906144E-1,3.2028833E-1,-4.4426184E-2,-8.2936045E-3,5.7376665E-1,2.0000918E-2,-1.8868649E-3,-1.3078582E-2,3.6854844E-4,2.8733585E-2,1.4855976E-3],"categories":[],"categories_nodes":[],"categories_segments":[],"categories_sizes":[],"default_left":[0,0,0,0,0,0,0,0,0,0,0,0,0],"id":75,"left_children":[1,3,5,7,9,-1,11,-1,-1,-1,-1,-1,-1],"loss_changes":[9.390959E0,9.392408E0,8.23878E0,5.4062085E0,1.1987277E1,0E0,3.6206665E0,0E0,0E0,0E0,0E0,0E0,0E0],"parents":[2147483647,0,0,1,1,2,2,3,3,4,4,6,6],"right_children":[2,4,6,8,10,-1,12,-1,-1,-1,-1,-1,-1],"split_conditions":[8.8E1,-1.4456596E1,-8.26E-2,6.952E-1,4.3283582E-1,-8.2936045E-3,1.5813379E3,2.0000918E-2,-1.8868649E-3,-1.3078582E-2,3.6854844E-4,2.8733585E-2,1.4855976E-3],"split_indices":[14,6,11,12,13,0,2,0,0,0,0,0,0],"split_type":[0,0,0,0,0,0,0,0,0,0,0,0,0],"sum_hessian":[8.9233966E2,8.421464E2,5.0193283E1,6.5570496E1,7.765759E2,1.1397621E1,3.8795662E1,4.1125725E1,2.4444767E1,1.1415239E2,6.624235E2,2.7360893E1,1.1434768E1],"tree_param":{"num_deleted":"0","num_feature":"15","num_nodes":"13","size_leaf_vector":"1"}},{"base_weights":[-1.2353148E-2,-2.7250758E-1,3.7030682E-2,-3.4324384E-1,1.8921211E-2,2.572761E-1,-3.1953722E-2,-1.6290467E-2,-8.1824686E-4,3.4402644E-3,-3.270203E-3,1.3637944E-2,-1.25455065E-2,-1.0934136E-2,1.1054599E-3],"categories":[],"categories_nodes":[],"categories_segments":[],"categories_sizes":[],"default_left":[0,0,0,0,0,0,0,0,0,0,0,0,0,0,0],"id":76,"left_children":[1,3,5,7,9,11,13,-1,-1,-1,-1,-1,-1,-1,-1],"loss_changes":[1.2067765E1,3.1657982E0,1.2133396E1,2.40372E0,3.5878474E-1,1.0371397E1,8.920904E0,0E0,0E0,0E0,0E0,0E0,0E0,0E0,0E0],"parents":[2147483647,0,0,1,1,2,2,3,3,4,4,5,5,6,6],"right_children":[2,4,6,8,10,12,14,-1,-1,-1,-1,-1,-1,-1,-1],"split_conditions":[6.9E1,1.1778E0,7.7E1,1E1,1.4445527E3,1.6483695E3,8E1,-1.6290467E-2,-8.1824686E-4,3.4402644E-3,-3.270203E-3,1.3637944E-2,-1.25455065E-2,-1.0934136E-2,1.1054599E-3],"split_indices":[1,12,3,14,2,2,3,0,0,0,0,0,0,0,0],"split_type":[0,0,0,0,0,0,0,0,0,0,0,0,0,0,0],"sum_hessian":[9.178886E2,1.377903E2,7.8009827E2,1.0916095E2,2.8629356E1,1.7824965E2,6.0184863E2,8.84737E1,2.0687244E1,1.8230225E1,1.0399131E1,1.5968065E2,1.8569E1,1.1063207E2,4.9121655E2],"tree_param":{"num_deleted":"0","num_feature":"15","num_nodes":"15","size_leaf_vector":"1"}},{"base_weights":[-1.910973E-2,-7.326679E-2,1.8883245E-1,4.7800756E-1,-9.8623455E-2,2.9914737E-1,-1.9852993E-1,3.1357198E-3,2.5302596E-2,-5.1716436E-3,9.88891E-3,-2.4249258E-3,1.7252384E-2,6.8883174E-3,-1.4575277E-2],"categories":[],"categories_nodes":[],"categories_segments":[],"categories_sizes":[],"default_left":[0,0,0,0,0,0,0,0,0,0,0,0,0,0,0],"id":77,"left_children":[1,3,5,7,9,11,13,-1,-1,-1,-1,-1,-1,-1,-1],"loss_changes":[1.1041732E1,1.139674E1,9.383112E0,1.6361322E0,8.34582E0,8.050545E0,3.9619405E0,0E0,0E0,0E0,0E0,0E0,0E0,0E0,0E0],"parents":[2147483647,0,0,1,1,2,2,3,3,4,4,5,5,6,6],"right_children":[2,4,6,8,10,12,14,-1,-1,-1,-1,-1,-1,-1,-1],"split_conditions":[8.7822074E-1,3.5211268E-1,8.9E1,1.5249408E3,6.011542E-1,7.1E1,-3.302E-1,3.1357198E-3,2.5302596E-2,-5.1716436E-3,9.88891E-3,-2.4249258E-3,1.7252384E-2,6.8883174E-3,-1.4575277E-2],"split_indices":[12,13,1,2,13,1,11,0,0,0,0,0,0,0,0],"split_type":[0,0,0,0,0,0,0,0,0,0,0,0,0,0,0],"sum_hessian":[9.537394E2,7.6283606E2,1.9090334E2,2.4124899E1,7.387112E2,1.5071483E2,4.0188507E1,1.1772674E1,1.2352226E1,6.854439E2,5.3267265E1,4.2236008E1,1.0847881E2,1.2279533E1,2.7908974E1],"tree_param":{"num_deleted":"0","num_feature":"15","num_nodes":"15","size_leaf_vector":"1"}},{"base_weights":[-1.9301236E-2,-1.0839516E-1,8.66054E-2,3.043454E-2,-2.4930029E-1,-1.1700873E-2,3.9626917E-1,-1.1243764E-2,5.5576977E-3,-1.6324233E-2,-4.4550183E-3,-2.6396061E-3,2.3560407E-2,2.249671E-2,-6.8677748E-3],"categories":[],"categories_nodes":[],"categories_segments":[],"categories_sizes":[],"default_left":[0,0,0,0,0,0,0,0,0,0,0,0,0,0,0],"id":78,"left_children":[1,3,5,7,9,11,13,-1,-1,-1,-1,-1,-1,-1,-1],"loss_changes":[8.428474E0,9.558635E0,1.2516651E1,9.070987E0,4.7442303E0,1.097921E1,1.0499144E1,0E0,0E0,0E0,0E0,0E0,0E0,0E0,0E0],"parents":[2147483647,0,0,1,1,2,2,3,3,4,4,5,5,6,6],"right_children":[2,4,6,8,10,12,14,-1,-1,-1,-1,-1,-1,-1,-1],"split_conditions":[5.16129E-1,-2.4628394E0,1.5305088E3,-1.1673832E1,1.5149504E3,8.8E1,5.671642E-1,-1.1243764E-2,5.5576977E-3,-1.6324233E-2,-4.4550183E-3,-2.6396061E-3,2.3560407E-2,2.249671E-2,-6.8677748E-3],"split_indices":[13,6,2,10,0,14,13,0,0,0,0,0,0,0,0],"split_type":[0,0,0,0,0,0,0,0,0,0,0,0,0,0,0],"sum_hessian":[8.693206E2,4.7198306E2,3.973376E2,2.4248134E2,2.2950171E2,3.103576E2,8.6979965E1,5.7709522E1,1.8477182E2,9.574958E1,1.3375214E2,2.9443024E2,1.5927384E1,6.73848E1,1.9595163E1],"tree_param":{"num_deleted":"0","num_feature":"15","num_nodes":"15","size_leaf_vector":"1"}},{"base_weights":[-9.88241E-3,7.403426E-2,-1.0407125E-1,-1.9881025E-1,1.5788609E-1,-1.3775922E-1,2.9479048E-1,8.392468E-3,-1.081379E-2,2.3093576E-2,3.2563321E-3,4.5896727E-3,-8.672706E-3,-8.813601E-3,2.5166852E-2],"categories":[],"categories_nodes":[],"categories_segments":[],"categories_sizes":[],"default_left":[0,0,0,0,0,0,0,0,0,0,0,0,0,0,0],"id":79,"left_children":[1,3,5,7,9,11,13,-1,-1,-1,-1,-1,-1,-1,-1],"loss_changes":[7.655122E0,1.2113586E1,6.611869E0,4.361068E0,1.2238696E1,8.852038E0,8.436571E0,0E0,0E0,0E0,0E0,0E0,0E0,0E0,0E0],"parents":[2147483647,0,0,1,1,2,2,3,3,4,4,5,5,6,6],"right_children":[2,4,6,8,10,12,14,-1,-1,-1,-1,-1,-1,-1,-1],"split_conditions":[-4.1530824E-1,-2.4621801E-1,8.8E1,1.450057E3,7.1E1,-3.27E-1,3.552161E0,8.392468E-3,-1.081379E-2,2.3093576E-2,3.2563321E-3,4.5896727E-3,-8.672706E-3,-8.813601E-3,2.5166852E-2],"split_indices":[4,11,14,0,3,11,6,0,0,0,0,0,0,0,0],"split_type":[0,0,0,0,0,0,0,0,0,0,0,0,0,0,0],"sum_hessian":[9.448131E2,5.0101035E2,4.4380273E2,1.139096E2,3.8710077E2,4.16482E2,2.732075E1,1.3514644E1,1.0039495E2,4.75757E1,3.3952505E2,9.801624E1,3.1846576E2,1.2364786E1,1.4955964E1],"tree_param":{"num_deleted":"0","num_feature":"15","num_nodes":"15","size_leaf_vector":"1"}},{"base_weights":[2.4647478E-2,6.827267E-2,-1.8068217E-1,8.7339155E-2,-1.5906457E-2,-2.4078353E-1,1.0930964E-2,-1.7061757E-3,7.468775E-3,-1.2697942E-2,-2.4925603E-4],"categories":[],"categories_nodes":[],"categories_segments":[],"categories_sizes":[],"default_left":[0,0,0,0,0,0,0,0,0,0,0],"id":80,"left_children":[1,3,5,7,-1,9,-1,-1,-1,-1,-1],"loss_changes":[8.351525E0,7.204357E0,5.2578816E0,9.705205E0,0E0,2.6916199E0,0E0,0E0,0E0,0E0,0E0],"parents":[2147483647,0,0,1,1,2,2,3,3,5,5],"right_children":[2,4,6,8,-1,10,-1,-1,-1,-1,-1],"split_conditions":[1.6180934E3,1.6423746E0,2.0158E0,7.3E-2,-1.5906457E-2,3E0,1.0930964E-2,-1.7061757E-3,7.468775E-3,-1.2697942E-2,-2.4925603E-4],"split_indices":[0,11,11,11,0,14,0,0,0,0,0],"split_type":[0,0,0,0,0,0,0,0,0,0,0],"sum_hessian":[9.0381976E2,7.5204675E2,1.5177304E2,7.3184937E2,2.019739E1,1.3900464E2,1.2768398E1,3.200543E2,4.1179504E2,1.0156598E2,3.7438656E1],"tree_param":{"num_deleted":"0","num_feature":"15","num_nodes":"11","size_leaf_vector":"1"}},{"base_weights":[-7.828177E-4,-1.1592115E-1,1.0910809E-1,1.1705081E-1,-1.7303461E-1,-2.7689952E-1,1.6997133E-1,-1.1731242E-2,1.046131E-2,-8.282908E-3,1.14062745E-2,-1.7748171E-2,-1.6866585E-3,1.2065356E-2,-1.8519142E-3],"categories":[],"categories_nodes":[],"categories_segments":[],"categories_sizes":[],"default_left":[0,0,0,0,0,0,0,0,0,0,0,0,0,0,0],"id":81,"left_children":[1,3,5,7,9,11,13,-1,-1,-1,-1,-1,-1,-1,-1],"loss_changes":[1.1682976E1,6.2423205E0,1.1665321E1,6.6076064E0,6.431469E0,2.4739013E0,1.2000858E1,0E0,0E0,0E0,0E0,0E0,0E0,0E0,0E0],"parents":[2147483647,0,0,1,1,2,2,3,3,4,4,5,5,6,6],"right_children":[2,4,6,8,10,12,14,-1,-1,-1,-1,-1,-1,-1,-1],"split_conditions":[2.19E-1,-7.1E1,1.4407368E3,-1.65E2,2.3936E0,6.668E-1,9.252E-1,-1.1731242E-2,1.046131E-2,-8.282908E-3,1.14062745E-2,-1.7748171E-2,-1.6866585E-3,1.2065356E-2,-1.8519142E-3],"split_indices":[11,14,2,14,12,12,11,0,0,0,0,0,0,0,0],"split_type":[0,0,0,0,0,0,0,0,0,0,0,0,0,0,0],"sum_hessian":[8.993661E2,4.388754E2,4.604907E2,8.3928535E1,3.5494684E2,5.6916946E1,4.0357376E2,1.8637907E1,6.5290634E1,3.3652396E2,1.8422886E1,2.7027674E1,2.988927E1,2.4791125E2,1.556625E2],"tree_param":{"num_deleted":"0","num_feature":"15","num_nodes":"15","size_leaf_vector":"1"}},{"base_weights":[7.7136187E-3,-1.601422E-1,7.3045686E-2,2.957085E-2,-2.846869E-1,3.8940153E-1,2.0822356E-2,-1.790907E-2,6.09096E-3,-1.36184525E-2,5.877899E-3,-3.0422583E-3,3.153716E-2,-2.494128E-3,1.0180416E-2],"categories":[],"categories_nodes":[],"categories_segments":[],"categories_sizes":[],"default_left":[0,0,0,0,0,0,0,0,0,0,0,0,0,0,0],"id":82,"left_children":[1,3,5,7,9,11,13,-1,-1,-1,-1,-1,-1,-1,-1],"loss_changes":[1.0543194E1,6.469425E0,1.1320152E1,7.710723E0,4.544696E0,1.878003E1,1.1966238E1,0E0,0E0,0E0,0E0,0E0,0E0,0E0,0E0],"parents":[2147483647,0,0,1,1,2,2,3,3,4,4,5,5,6,6],"right_children":[2,4,6,8,10,12,14,-1,-1,-1,-1,-1,-1,-1,-1],"split_conditions":[-4.1012807E0,-1.8118262E0,-3.7339473E0,-1.1673832E1,6.875E-1,7.3E-2,7.176E-1,-1.790907E-2,6.09096E-3,-1.36184525E-2,5.877899E-3,-3.0422583E-3,3.153716E-2,-2.494128E-3,1.0180416E-2],"split_indices":[5,10,4,10,13,11,12,0,0,0,0,0,0,0,0],"split_type":[0,0,0,0,0,0,0,0,0,0,0,0,0,0,0],"sum_hessian":[9.366113E2,2.5753067E2,6.790807E2,1.0568957E2,1.5184111E2,8.524008E1,5.938406E2,1.5113578E1,9.057599E1,1.3671054E2,1.5130574E1,4.382814E1,4.141194E1,4.444482E2,1.4939236E2],"tree_param":{"num_deleted":"0","num_feature":"15","num_nodes":"15","size_leaf_vector":"1"}},{"base_weights":[-1.2088758E-2,-9.609704E-2,1.03794366E-1,-4.0366402E-1,-4.4215772E-2,-2.1413001E-1,1.8059914E-1,-1.888075E-2,-6.808483E-4,2.5547916E-2,-3.3321849E-3,-1.1106043E-3,-1.5877012E-2,1.3256808E-2,-1.1600904E-3],"categories":[],"categories_nodes":[],"categories_segments":[],"categories_sizes":[],"default_left":[0,0,0,0,0,0,0,0,0,0,0,0,0,0,0],"id":83,"left_children":[1,3,5,7,9,11,13,-1,-1,-1,-1,-1,-1,-1,-1],"loss_changes":[9.42421E0,8.726789E0,1.0413179E1,2.0019827E0,1.3796637E1,2.7555788E0,1.0695301E1,0E0,0E0,0E0,0E0,0E0,0E0,0E0,0E0],"parents":[2147483647,0,0,1,1,2,2,3,3,4,4,5,5,6,6],"right_children":[2,4,6,8,10,12,14,-1,-1,-1,-1,-1,-1,-1,-1],"split_conditions":[3.2125747E-1,-9.972243E0,7E1,1.8792586E-1,-8.842889E0,1.6921668E0,9.1E1,-1.888075E-2,-6.808483E-4,2.5547916E-2,-3.3321849E-3,-1.1106043E-3,-1.5877012E-2,1.3256808E-2,-1.1600904E-3],"split_indices":[5,10,1,5,10,4,1,0,0,0,0,0,0,0,0],"split_type":[0,0,0,0,0,0,0,0,0,0,0,0,0,0,0],"sum_hessian":[9.437661E2,5.4831775E2,3.9544836E2,6.7397804E1,4.8091992E2,7.276994E1,3.2267844E2,5.502088E1,1.2376922E1,1.6070993E1,4.6484894E2,4.2877666E1,2.9892279E1,1.8359573E2,1.390827E2],"tree_param":{"num_deleted":"0","num_feature":"15","num_nodes":"15","size_leaf_vector":"1"}},{"base_weights":[4.6306368E-2,-1.4450586E-1,1.1428626E-1,1.4162183E-1,-2.580964E-1,4.6854267E-1,4.822469E-2,1.4992273E-2,-6.138413E-3,-1.3817102E-2,9.852054E-3,3.0200286E-2,7.1377854E-4,4.221068E-3,-7.429516E-3],"categories":[],"categories_nodes":[],"categories_segments":[],"categories_sizes":[],"default_left":[0,0,0,0,0,0,0,0,0,0,0,0,0,0,0],"id":84,"left_children":[1,3,